{"learner":{"attributes":{"best_iteration":"540","best_msg":"[540]\tvalidation_0-auc:0.994656\tvalidation_0-error:0.034082\tvalidation_0-logloss:0.090328\tvalidation_1-auc:0.994453\tvalidation_1-error:0.034636\tvalidation_1-logloss:0.091864","best_score":"0.091864"},"feature_names":[],"feature_types":[],"gradient_booster":{"model":{"gbtree_model_param":{"num_parallel_tree":"1","num_trees":"551","size_leaf_vector":"0"},"tree_info":[0,0,0,0,0,0,0,0,0,0,0,0,0,0,0,0,0,0,0,0,0,0,0,0,0,0,0,0,0,0,0,0,0,0,0,0,0,0,0,0,0,0,0,0,0,0,0,0,0,0,0,0,0,0,0,0,0,0,0,0,0,0,0,0,0,0,0,0,0,0,0,0,0,0,0,0,0,0,0,0,0,0,0,0,0,0,0,0,0,0,0,0,0,0,0,0,0,0,0,0,0,0,0,0,0,0,0,0,0,0,0,0,0,0,0,0,0,0,0,0,0,0,0,0,0,0,0,0,0,0,0,0,0,0,0,0,0,0,0,0,0,0,0,0,0,0,0,0,0,0,0,0,0,0,0,0,0,0,0,0,0,0,0,0,0,0,0,0,0,0,0,0,0,0,0,0,0,0,0,0,0,0,0,0,0,0,0,0,0,0,0,0,0,0,0,0,0,0,0,0,0,0,0,0,0,0,0,0,0,0,0,0,0,0,0,0,0,0,0,0,0,0,0,0,0,0,0,0,0,0,0,0,0,0,0,0,0,0,0,0,0,0,0,0,0,0,0,0,0,0,0,0,0,0,0,0,0,0,0,0,0,0,0,0,0,0,0,0,0,0,0,0,0,0,0,0,0,0,0,0,0,0,0,0,0,0,0,0,0,0,0,0,0,0,0,0,0,0,0,0,0,0,0,0,0,0,0,0,0,0,0,0,0,0,0,0,0,0,0,0,0,0,0,0,0,0,0,0,0,0,0,0,0,0,0,0,0,0,0,0,0,0,0,0,0,0,0,0,0,0,0,0,0,0,0,0,0,0,0,0,0,0,0,0,0,0,0,0,0,0,0,0,0,0,0,0,0,0,0,0,0,0,0,0,0,0,0,0,0,0,0,0,0,0,0,0,0,0,0,0,0,0,0,0,0,0,0,0,0,0,0,0,0,0,0,0,0,0,0,0,0,0,0,0,0,0,0,0,0,0,0,0,0,0,0,0,0,0,0,0,0,0,0,0,0,0,0,0,0,0,0,0,0,0,0,0,0,0,0,0,0,0,0,0,0,0,0,0,0,0,0,0,0,0,0,0,0,0,0,0,0,0,0,0,0,0,0,0,0,0,0,0,0,0,0,0,0,0,0,0,0,0,0,0,0,0,0,0,0,0,0,0,0,0,0,0,0,0,0,0,0,0,0,0,0,0,0,0,0,0,0,0,0,0,0,0,0,0,0,0,0,0,0,0,0,0,0,0,0,0,0],"trees":[{"base_weights":[-8.138438E-9,1.6354809E0,-1.5603492E0,1.7884444E0,-1.0827205E0,-1.7341162E0,-1.7211333E-1,-8.771347E-1,1.8749777E0,-3.0498004E-2,-1.6747624E0,-1.8265232E0,-4.0881065E-1,-1.6178433E0,1.1334758E0,-2.1347411E-1,-1.6871246E0,1.929908E0,1.1485658E0,-7.3820937E-1,1.3859963E0,-1.7994618E0,-7.4833536E-1,-1.4536093E0,-1.9110413E0,3.1336647E-1,-1.6036344E0,-1.8340904E0,-8.387928E-1,1.4590013E0,-7.370443E-1],"categories":[],"categories_nodes":[],"categories_segments":[],"categories_sizes":[],"default_left":[1,1,1,1,1,1,1,1,1,1,1,1,1,1,1,0,0,0,0,0,0,0,0,0,0,0,0,0,0,0,0],"id":0,"left_children":[1,3,5,7,9,11,13,15,17,19,21,23,25,27,29,-1,-1,-1,-1,-1,-1,-1,-1,-1,-1,-1,-1,-1,-1,-1,-1],"loss_changes":[2.5513942E6,2.029655E5,1.234245E5,1.06599125E5,1.6201201E4,5.5689E4,1.07440266E5,7.8111543E3,1.785825E4,9.389337E3,1.9213008E3,1.339525E4,2.5576762E4,4.5489062E3,1.8213512E4,0E0,0E0,0E0,0E0,0E0,0E0,0E0,0E0,0E0,0E0,0E0,0E0,0E0,0E0,0E0,0E0],"parents":[2147483647,0,0,1,1,2,2,3,3,4,4,5,5,6,6,7,7,8,8,9,9,10,10,11,11,12,12,13,13,14,14],"right_children":[2,4,6,8,10,12,14,16,18,20,22,24,26,28,30,-1,-1,-1,-1,-1,-1,-1,-1,-1,-1,-1,-1,-1,-1,-1,-1],"split_conditions":[1.263923E-1,5.047643E-1,6.6363096E0,-1.3428763E-1,2.4450207E0,7.2133994E-1,9.927461E-1,1.5E0,1.8623182E-1,8.899841E0,1.019105E1,5.7519734E-2,2.7469075E-1,4.03821E-1,3.4425488E0,-2.1347411E-2,-1.6871247E-1,1.9299081E-1,1.1485658E-1,-7.382094E-2,1.3859963E-1,-1.7994618E-1,-7.4833535E-2,-1.4536093E-1,-1.9110413E-1,3.1336647E-2,-1.6036344E-1,-1.8340904E-1,-8.3879285E-2,1.4590013E-1,-7.370443E-2],"split_indices":[7,8,5,12,9,6,12,2,8,5,5,3,8,12,9,0,0,0,0,0,0,0,0,0,0,0,0,0,0,0,0],"split_type":[0,0,0,0,0,0,0,0,0,0,0,0,0,0,0,0,0,0,0,0,0,0,0,0,0,0,0,0,0,0,0],"sum_hessian":[9.997915E5,4.8814353E5,5.1164797E5,4.6213762E5,2.6005898E4,4.5472884E5,5.691914E4,1.4530471E4,4.4760716E5,9.36419E3,1.6641709E4,4.2508906E5,2.963977E4,2.7009844E4,2.9909299E4,7.987347E3,6.543124E3,4.1613772E5,3.1469426E4,6.2446875E3,3.1195027E3,1.4666604E4,1.9751052E3,7.854552E4,3.4654353E5,1.8474264E4,1.1165505E4,2.114039E4,5.869453E3,2.5475953E4,4.4333457E3],"tree_param":{"num_deleted":"0","num_feature":"14","num_nodes":"31","size_leaf_vector":"0"}},{"base_weights":[1.307552E-5,1.5122929E0,-1.3913808E0,1.6374241E0,-1.020471E0,-5.3785974E-1,-1.657297E0,-5.07505E-1,1.7193372E0,-1.397159E0,4.7596714E-1,-1.1594343E0,6.8276364E-1,-1.7188641E0,-1.2173803E0,-1.4021682E0,2.22164E-1,1.2123224E0,1.7761741E0,-4.4197544E-1,-1.6551924E0,-1.6643327E0,1.494911E0,-5.67362E-1,-1.6058294E0,1.1924907E0,-1.15882E0,-1.7428014E0,-7.630654E-1,-1.5906271E0,-2.2945297E-1],"categories":[],"categories_nodes":[],"categories_segments":[],"categories_sizes":[],"default_left":[1,1,1,1,1,1,1,1,1,1,1,1,1,1,1,0,0,0,0,0,0,0,0,0,0,0,0,0,0,0,0],"id":1,"left_children":[1,3,5,7,9,11,13,15,17,19,21,23,25,27,29,-1,-1,-1,-1,-1,-1,-1,-1,-1,-1,-1,-1,-1,-1,-1,-1],"loss_changes":[2.0866805E6,1.506055E5,1.1722325E5,7.956175E4,1.2611852E4,9.308658E4,1.0663625E4,1.0874656E4,1.2567125E4,4.404578E3,9.816062E3,2.1484805E4,3.886123E4,7.9023125E3,1.7828172E4,0E0,0E0,0E0,0E0,0E0,0E0,0E0,0E0,0E0,0E0,0E0,0E0,0E0,0E0,0E0,0E0],"parents":[2147483647,0,0,1,1,2,2,3,3,4,4,5,5,6,6,7,7,8,8,9,9,10,10,11,11,12,12,13,13,14,14],"right_children":[2,4,6,8,10,12,14,16,18,20,22,24,26,28,30,-1,-1,-1,-1,-1,-1,-1,-1,-1,-1,-1,-1,-1,-1,-1,-1],"split_conditions":[1.1582572E-1,5.258788E-1,5.349709E-2,4.251675E-1,9.555175E0,9.9979985E-1,5.252227E0,-9.616133E-1,7.96397E-1,6.5018636E-1,9.47291E-1,2.3643222E0,3.155441E0,7.4918234E-1,9.9924254E-1,-1.4021681E-1,2.22164E-2,1.21232234E-1,1.7761742E-1,-4.4197544E-2,-1.6551924E-1,-1.6643327E-1,1.494911E-1,-5.67362E-2,-1.6058294E-1,1.1924907E-1,-1.15882E-1,-1.7428015E-1,-7.6306544E-2,-1.5906271E-1,-2.2945298E-2],"split_indices":[7,8,3,12,5,12,5,12,6,8,12,9,9,6,12,0,0,0,0,0,0,0,0,0,0,0,0,0,0,0,0],"split_type":[0,0,0,0,0,0,0,0,0,0,0,0,0,0,0,0,0,0,0,0,0,0,0,0,0,0,0,0,0,0,0],"sum_hessian":[9.9168294E5,4.751985E5,5.1648444E5,4.5282697E5,2.2371553E4,1.2268879E5,3.9379566E5,1.6656799E4,4.3617016E5,1.7872658E4,4.498894E3,8.129249E4,4.1396297E4,3.4544688E5,4.8348785E4,7.482015E3,9.174785E3,4.396866E4,3.922015E5,3.8018296E3,1.4070828E4,1.450814E3,3.0480803E3,3.494533E4,4.6347168E4,3.242251E4,8.973787E3,3.3700594E5,8.44094E3,3.5090652E4,1.3258136E4],"tree_param":{"num_deleted":"0","num_feature":"14","num_nodes":"31","size_leaf_vector":"0"}},{"base_weights":[5.6940917E-5,1.3604151E0,-1.3101164E0,1.4954681E0,-8.835249E-1,-1.4498218E0,-2.7430758E-2,-4.1202378E-1,1.5848942E0,-4.5919266E-2,-1.4641219E0,-1.5447049E0,-5.0530016E-1,-1.3741218E0,1.0831985E0,1.9960596E-1,-1.3377907E0,1.6317315E0,9.716319E-1,-7.361036E-1,9.398655E-1,-1.5409765E0,-6.9111836E-1,-1.3320832E0,-1.6468203E0,2.1164651E-1,-1.3701035E0,-1.5715953E0,-7.260608E-1,1.4680607E0,-7.151129E-2],"categories":[],"categories_nodes":[],"categories_segments":[],"categories_sizes":[],"default_left":[1,1,1,1,1,1,1,1,1,1,1,1,1,1,1,0,0,0,0,0,0,0,0,0,0,0,0,0,0,0,0],"id":2,"left_children":[1,3,5,7,9,11,13,15,17,19,21,23,25,27,29,-1,-1,-1,-1,-1,-1,-1,-1,-1,-1,-1,-1,-1,-1,-1,-1],"loss_changes":[1.7312168E6,1.4441744E5,8.866631E4,7.667419E4,1.3156299E4,3.9986875E4,7.268999E4,1.1398312E4,1.233125E4,7.5367764E3,9.481719E2,8.80125E3,2.525545E4,2.809914E3,1.183657E4,0E0,0E0,0E0,0E0,0E0,0E0,0E0,0E0,0E0,0E0,0E0,0E0,0E0,0E0,0E0,0E0],"parents":[2147483647,0,0,1,1,2,2,3,3,4,4,5,5,6,6,7,7,8,8,9,9,10,10,11,11,12,12,13,13,14,14],"right_children":[2,4,6,8,10,12,14,16,18,20,22,24,26,28,30,-1,-1,-1,-1,-1,-1,-1,-1,-1,-1,-1,-1,-1,-1,-1,-1],"split_conditions":[1.3032675E-1,4.948007E-1,7.225524E0,6.6334087E-1,2.7669225E0,6.944157E-1,9.8595834E-1,1.5E0,1.8003917E-1,6.0446577E0,1.2886009E1,1.8736379E0,2.2654288E-1,-1.5478116E-1,8.032206E-2,1.9960595E-2,-1.3377908E-1,1.6317315E-1,9.716319E-2,-7.361036E-2,9.3986556E-2,-1.5409766E-1,-6.911184E-2,-1.3320832E-1,-1.6468203E-1,2.1164652E-2,-1.3701035E-1,-1.5715954E-1,-7.260608E-2,1.4680608E-1,-7.151129E-3],"split_indices":[7,8,5,12,9,6,12,2,8,5,5,9,8,12,3,0,0,0,0,0,0,0,0,0,0,0,0,0,0,0,0],"split_type":[0,0,0,0,0,0,0,0,0,0,0,0,0,0,0,0,0,0,0,0,0,0,0,0,0,0,0,0,0,0,0],"sum_hessian":[9.713339E5,4.7654022E5,4.9479366E5,4.494878E5,2.7052377E4,4.461955E5,4.8598145E4,2.0128828E4,4.29359E5,1.1075397E4,1.59769795E4,4.0546356E5,4.0731953E4,2.1964682E4,2.6633463E4,1.21213545E4,8.007474E3,3.9889234E5,3.046667E4,6.514564E3,4.5608335E3,1.4531241E4,1.4457377E3,1.3155589E5,2.7390766E5,2.2270133E4,1.846182E4,1.6833766E4,5.1309165E3,1.9975426E4,6.658036E3],"tree_param":{"num_deleted":"0","num_feature":"14","num_nodes":"31","size_leaf_vector":"0"}},{"base_weights":[1.3949467E-4,1.3132945E0,-1.174563E0,1.4158996E0,-8.708264E-1,-4.377673E-1,-1.439829E0,-7.8214806E-1,1.47465E0,-1.1980011E0,4.941116E-1,-1.0927738E0,4.1982588E-1,-1.5309175E0,-1.2101711E0,-1.1586608E0,1.9806427E-1,9.303186E-1,1.5317463E0,-4.0366974E-1,-1.437635E0,-1.5349597E0,1.3851209E0,-1.4629539E0,-6.879977E-1,1.1914965E0,-6.756785E-1,-1.5696834E0,-1.4428989E0,-4.7127575E-1,-1.4621698E0],"categories":[],"categories_nodes":[],"categories_segments":[],"categories_sizes":[],"default_left":[1,1,1,1,1,1,1,1,1,1,1,1,1,1,1,0,0,0,0,0,0,0,0,0,0,0,0,0,0,0,0],"id":3,"left_children":[1,3,5,7,9,11,13,15,17,19,21,23,25,27,29,-1,-1,-1,-1,-1,-1,-1,-1,-1,-1,-1,-1,-1,-1,-1,-1],"loss_changes":[1.4534388E6,9.97025E4,9.720056E4,5.4875062E4,8.915485E3,7.3955445E4,7.6478125E3,4.0830625E3,1.2861375E4,3.064662E3,6.9817676E3,1.1183633E4,4.81965E4,8.91125E2,1.9336734E4,0E0,0E0,0E0,0E0,0E0,0E0,0E0,0E0,0E0,0E0,0E0,0E0,0E0,0E0,0E0,0E0],"parents":[2147483647,0,0,1,1,2,2,3,3,4,4,5,5,6,6,7,7,8,8,9,9,10,10,11,11,12,12,13,13,14,14],"right_children":[2,4,6,8,10,12,14,16,18,20,22,24,26,28,30,-1,-1,-1,-1,-1,-1,-1,-1,-1,-1,-1,-1,-1,-1,-1,-1],"split_conditions":[1.1000922E-1,5.3703064E-1,6.551778E-2,-5.11819E-1,1.0414097E1,9.9896836E-1,9.973427E-1,8.631348E-1,7.8613603E-1,6.7431575E-1,8.945587E-1,4.5611984E-1,2.4716842E-1,1.3531265E-1,1.6953886E-1,-1.1586608E-1,1.9806428E-2,9.303186E-2,1.5317462E-1,-4.0366974E-2,-1.437635E-1,-1.5349597E-1,1.3851209E-1,-1.462954E-1,-6.879977E-2,1.1914965E-1,-6.756785E-2,-1.5696834E-1,-1.442899E-1,-4.7127575E-2,-1.4621697E-1],"split_indices":[7,8,3,12,5,12,12,6,6,8,12,12,8,12,8,0,0,0,0,0,0,0,0,0,0,0,0,0,0,0,0],"split_type":[0,0,0,0,0,0,0,0,0,0,0,0,0,0,0,0,0,0,0,0,0,0,0,0,0,0,0,0,0,0,0],"sum_hessian":[9.4221906E5,4.4489166E5,4.9732744E5,4.2492975E5,1.9961893E4,1.316533E5,3.6567416E5,1.1061719E4,4.1386803E5,1.6102304E4,3.8595894E3,7.464284E4,5.7010457E4,2.6182253E5,1.0385161E5,7.991784E3,3.069934E3,3.929206E4,3.7457597E5,3.7325234E3,1.236978E4,1.1774626E3,2.6821267E3,3.8986176E4,3.5656664E4,3.3448984E4,2.3561473E4,1.8175558E5,8.006695E4,2.6411695E4,7.743992E4],"tree_param":{"num_deleted":"0","num_feature":"14","num_nodes":"31","size_leaf_vector":"0"}},{"base_weights":[2.228098E-4,-1.0586311E0,1.284972E0,-1.2430509E0,4.2464566E-1,-6.2768924E-1,1.366198E0,-7.505447E-1,-1.3953942E0,-1.1302626E0,1.1563407E0,6.1274517E-1,-1.1738076E0,1.4091324E0,-9.0834373E-1,-9.8128706E-2,-1.3237209E0,-1.2419873E0,-1.4735415E0,-1.3714205E0,-5.449609E-1,1.3986545E0,6.612789E-2,-8.291962E-1,9.5683193E-1,-3.8486072E-1,-1.42056E0,1.4370214E0,5.185558E-1,-1.1889916E-1,-1.2496893E0],"categories":[],"categories_nodes":[],"categories_segments":[],"categories_sizes":[],"default_left":[1,1,1,1,1,1,1,1,1,1,1,1,1,1,1,0,0,0,0,0,0,0,0,0,0,0,0,0,0,0,0],"id":4,"left_children":[1,3,5,7,9,11,13,15,17,19,21,23,25,27,29,-1,-1,-1,-1,-1,-1,-1,-1,-1,-1,-1,-1,-1,-1,-1,-1],"loss_changes":[1.235027E6,1.3614069E5,6.37255E4,3.3211062E4,6.2617676E4,1.1320738E4,3.8426062E4,3.9106316E4,4.051125E3,2.485166E3,9.886852E3,2.5355068E3,2.2581924E3,9.5909375E3,1.9643594E3,0E0,0E0,0E0,0E0,0E0,0E0,0E0,0E0,0E0,0E0,0E0,0E0,0E0,0E0,0E0,0E0],"parents":[2147483647,0,0,1,1,2,2,3,3,4,4,5,5,6,6,7,7,8,8,9,9,10,10,11,11,12,12,13,13,14,14],"right_children":[2,4,6,8,10,12,14,16,18,20,22,24,26,28,30,-1,-1,-1,-1,-1,-1,-1,-1,-1,-1,-1,-1,-1,-1,-1,-1],"split_conditions":[7.5890595E-1,7.296684E0,3.232178E-1,4.992239E-2,9.622088E-1,3.990347E-2,5.581142E-1,2.2668424E0,2.4205251E-1,-6.923962E-1,8.509494E-2,-9.926903E-1,3.3168266E1,5.523124E-2,5.5503387E-2,-9.812871E-3,-1.323721E-1,-1.24198735E-1,-1.4735416E-1,-1.3714205E-1,-5.449609E-2,1.3986544E-1,6.612789E-3,-8.291962E-2,9.5683195E-2,-3.8486075E-2,-1.42056E-1,1.4370213E-1,5.1855583E-2,-1.1889916E-2,-1.2496894E-1],"split_indices":[6,5,12,3,12,7,8,9,8,12,3,12,0,3,7,0,0,0,0,0,0,0,0,0,0,0,0,0,0,0,0],"split_type":[0,0,0,0,0,0,0,0,0,0,0,0,0,0,0,0,0,0,0,0,0,0,0,0,0,0,0,0,0,0,0],"sum_hessian":[9.078646E5,4.9768606E5,4.101786E5,4.4265028E5,5.5035773E4,1.6709387E4,3.934692E5,1.0457587E5,3.380744E5,1.761084E4,3.7424938E4,5.1077344E3,1.1601652E4,3.8618003E5,7.2891753E3,4.8907844E4,5.5668027E4,1.1410257E5,2.2397184E5,1.247111E4,5.139729E3,3.0619152E4,6.8057827E3,9.837575E2,4.123977E3,2.7646694E3,8.836982E3,3.7445312E5,1.1726908E4,2.200751E3,5.0884243E3],"tree_param":{"num_deleted":"0","num_feature":"14","num_nodes":"31","size_leaf_vector":"0"}},{"base_weights":[3.114985E-4,1.1142691E0,-1.0884145E0,1.2939065E0,-2.3763853E-1,-1.2306216E0,-1.270994E-1,-1.5870087E-1,1.3651917E0,3.830271E-1,-1.0614814E0,-1.3193153E0,-5.276037E-1,-1.0882863E0,7.7022916E-1,-1.0183867E0,3.7796E-1,1.0034614E0,1.3965746E0,-1.0057683E0,6.552899E-1,-6.5386146E-1,-1.3339255E0,-1.168513E0,-1.413928E0,-4.547683E-2,-1.3333633E0,-1.3163493E0,-5.7275355E-1,1.109627E0,-5.841211E-1],"categories":[],"categories_nodes":[],"categories_segments":[],"categories_sizes":[],"default_left":[1,1,1,1,1,1,1,1,1,1,1,1,1,1,1,0,0,0,0,0,0,0,0,0,0,0,0,0,0,0,0],"id":5,"left_children":[1,3,5,7,9,11,13,15,17,19,21,23,25,27,29,-1,-1,-1,-1,-1,-1,-1,-1,-1,-1,-1,-1,-1,-1,-1,-1],"loss_changes":[1.0550971E6,1.04427875E5,6.0146094E4,3.9304188E4,2.5790191E4,2.3897562E4,4.890319E4,8.192498E3,4.106625E3,1.0877618E4,2.4058262E3,4.8541875E3,1.6680695E4,3.2178945E3,1.3479746E4,0E0,0E0,0E0,0E0,0E0,0E0,0E0,0E0,0E0,0E0,0E0,0E0,0E0,0E0,0E0,0E0],"parents":[2147483647,0,0,1,1,2,2,3,3,4,4,5,5,6,6,7,7,8,8,9,9,10,10,11,11,12,12,13,13,14,14],"right_children":[2,4,6,8,10,12,14,16,18,20,22,24,26,28,30,-1,-1,-1,-1,-1,-1,-1,-1,-1,-1,-1,-1,-1,-1,-1,-1],"split_conditions":[1.3855496E-1,2.5206774E-1,6.050397E0,8.181654E-1,3.0580573E0,6.704563E-1,9.948345E-1,-9.4056404E-1,9.9846673E-1,3.029871E-1,5.7846045E-1,3.2148564E-1,3.849795E-1,-1.5770014E-1,3.008192E0,-1.0183867E-1,3.7796002E-2,1.0034614E-1,1.3965747E-1,-1.0057683E-1,6.552899E-2,-6.538615E-2,-1.3339256E-1,-1.1685129E-1,-1.4139281E-1,-4.547683E-3,-1.3333634E-1,-1.3163494E-1,-5.7275355E-2,1.10962704E-1,-5.8412112E-2],"split_indices":[7,8,5,12,9,6,12,12,12,12,8,8,8,12,9,0,0,0,0,0,0,0,0,0,0,0,0,0,0,0,0],"split_type":[0,0,0,0,0,0,0,0,0,0,0,0,0,0,0,0,0,0,0,0,0,0,0,0,0,0,0,0,0,0,0],"sum_hessian":[8.6996975E5,4.3000212E5,4.3996762E5,3.7956653E5,5.0435586E4,3.8327028E5,5.6697348E4,1.7755455E4,3.618111E5,2.8765102E4,2.1670482E4,3.4033256E5,4.293771E4,2.7374516E4,2.9322832E4,6.823646E3,1.0931809E4,2.8886586E4,3.329245E5,4.714424E3,2.4050678E4,8.682891E3,1.2987591E4,1.3121053E5,2.0912203E5,2.686442E4,1.607329E4,1.8977594E4,8.396923E3,2.3447188E4,5.8756445E3],"tree_param":{"num_deleted":"0","num_feature":"14","num_nodes":"31","size_leaf_vector":"0"}},{"base_weights":[3.7893117E-4,-9.37863E-1,1.1652935E0,-1.0958463E0,4.8220438E-1,-2.565284E-1,1.255794E0,-6.5593237E-1,-1.277982E0,-1.0112299E0,1.0981362E0,7.184151E-1,-9.1789836E-1,1.290989E0,-8.4321886E-1,-2.9718155E-2,-1.1540035E0,-1.134969E0,-1.3451264E0,-1.220258E0,-4.5014808E-1,1.3104857E0,1.7023526E-1,-7.798531E-1,8.9811945E-1,-9.6747965E-2,-1.23706E0,1.3304771E0,7.9528284E-1,-1.0030981E0,7.92714E-1],"categories":[],"categories_nodes":[],"categories_segments":[],"categories_sizes":[],"default_left":[1,1,1,1,1,1,1,1,1,1,1,1,1,1,1,0,0,0,0,0,0,0,0,0,0,0,0,0,0,0,0],"id":6,"left_children":[1,3,5,7,9,11,13,15,17,19,21,23,25,27,29,-1,-1,-1,-1,-1,-1,-1,-1,-1,-1,-1,-1,-1,-1,-1,-1],"loss_changes":[9.068679E5,1.0310506E5,4.7629625E4,3.3135844E4,4.232379E4,1.4283851E4,2.5709625E4,3.7769152E4,2.8069688E3,1.5751846E3,6.4184844E3,2.4114644E3,3.4589717E3,6.6985E3,1.501958E3,0E0,0E0,0E0,0E0,0E0,0E0,0E0,0E0,0E0,0E0,0E0,0E0,0E0,0E0,0E0,0E0],"parents":[2147483647,0,0,1,1,2,2,3,3,4,4,5,5,6,6,7,7,8,8,9,9,10,10,11,11,12,12,13,13,14,14],"right_children":[2,4,6,8,10,12,14,16,18,20,22,24,26,28,30,-1,-1,-1,-1,-1,-1,-1,-1,-1,-1,-1,-1,-1,-1,-1,-1],"split_conditions":[7.615205E-1,8.040643E0,8.81618E-1,7.9789296E-2,9.347389E-1,4.510278E-2,5.856751E-1,2.0560627E0,2.0614743E-1,-6.923962E-1,7.4154876E-2,-9.9463403E-1,3.1970556E1,1.6458401E-1,1.4906462E1,-2.9718156E-3,-1.1540035E-1,-1.134969E-1,-1.3451265E-1,-1.220258E-1,-4.501481E-2,1.3104858E-1,1.7023526E-2,-7.798531E-2,8.981194E-2,-9.674797E-3,-1.23706E-1,1.3304771E-1,7.952829E-2,-1.0030981E-1,7.92714E-2],"split_indices":[6,5,12,3,12,7,8,9,8,12,3,12,0,8,5,0,0,0,0,0,0,0,0,0,0,0,0,0,0,0,0],"split_type":[0,0,0,0,0,0,0,0,0,0,0,0,0,0,0,0,0,0,0,0,0,0,0,0,0,0,0,0,0,0,0],"sum_hessian":[8.297248E5,4.5957528E5,3.7014953E5,4.1356606E5,4.6009227E4,2.2150408E4,3.4799912E5,1.21093195E5,2.9247284E5,1.3434441E4,3.2574787E4,8.952782E3,1.3197626E4,3.4226066E5,5.7384507E3,5.3646125E4,6.744707E4,9.344963E4,1.9902322E5,9.787123E3,3.6473179E3,2.6508031E4,6.0667554E3,9.584506E2,7.9943315E3,3.6942441E3,9.503382E3,3.1700622E5,2.5254463E4,5.227915E3,5.1053568E2],"tree_param":{"num_deleted":"0","num_feature":"14","num_nodes":"31","size_leaf_vector":"0"}},{"base_weights":[4.91888E-4,1.0917544E0,-9.13906E-1,-1.8421194E-1,1.2079259E0,-3.3207908E-1,-1.1858667E0,3.0290985E-1,-1.038872E0,1.2489353E0,-4.4764024E-1,2.1258157E-1,-1.0488291E0,-1.000916E0,-1.2917938E0,-7.4575454E-1,6.570171E-1,-6.346972E-1,-1.2843107E0,1.2862786E0,7.360788E-1,-1.0075455E0,1.0717962E0,-9.1313285E-1,6.560244E-1,-1.1545599E0,2.0387197E-1,-1.2353125E0,-6.122697E-1,-1.1907119E0,-1.3181795E0],"categories":[],"categories_nodes":[],"categories_segments":[],"categories_sizes":[],"default_left":[1,1,1,1,1,1,1,1,1,1,1,1,1,1,1,0,0,0,0,0,0,0,0,0,0,0,0,0,0,0,0],"id":7,"left_children":[1,3,5,7,9,11,13,15,17,19,21,23,25,27,29,-1,-1,-1,-1,-1,-1,-1,-1,-1,-1,-1,-1,-1,-1,-1,-1],"loss_changes":[7.872773E5,5.3318938E4,6.792544E4,1.2497195E4,2.2384062E4,5.3381562E4,5.729875E3,7.100698E3,1.0802402E3,6.1604688E3,6.781327E3,3.878683E4,7.8203906E3,9.7043125E3,4.9453125E2,0E0,0E0,0E0,0E0,0E0,0E0,0E0,0E0,0E0,0E0,0E0,0E0,0E0,0E0,0E0,0E0],"parents":[2147483647,0,0,1,1,2,2,3,3,4,4,5,5,6,6,7,7,8,8,9,9,10,10,11,11,12,12,13,13,14,14],"right_children":[2,4,6,8,10,12,14,16,18,20,22,24,26,28,30,-1,-1,-1,-1,-1,-1,-1,-1,-1,-1,-1,-1,-1,-1,-1,-1],"split_conditions":[9.974484E-2,9.5703274E-1,8.352056E-2,1.5E0,6.187931E-1,2.54877E0,2.0175455E0,6.975119E-1,2.4216078E-2,2.06474E-1,8.723421E0,9.430687E-1,9.855009E0,9.860004E-1,2.033553E-1,-7.4575454E-2,6.5701716E-2,-6.346972E-2,-1.2843107E-1,1.2862787E-1,7.3607884E-2,-1.0075455E-1,1.0717962E-1,-9.131329E-2,6.5602444E-2,-1.15455985E-1,2.0387197E-2,-1.23531245E-1,-6.122697E-2,-1.19071186E-1,-1.3181795E-1],"split_indices":[7,12,3,2,8,9,9,6,3,8,5,12,5,12,8,0,0,0,0,0,0,0,0,0,0,0,0,0,0,0,0],"split_type":[0,0,0,0,0,0,0,0,0,0,0,0,0,0,0,0,0,0,0,0,0,0,0,0,0,0,0,0,0,0,0],"sum_hessian":[7.88973E5,3.596995E5,4.292735E5,3.0016234E4,3.2968325E5,1.3673906E5,2.9253444E5,1.9119523E4,1.0896712E4,3.2171444E5,7.96882E3,7.769732E4,5.9041746E4,1.06534234E5,1.860002E5,4.826138E3,1.4293385E4,4.1183794E3,6.778332E3,2.9987756E5,2.1836893E4,5.8232983E3,2.1455212E3,2.1956914E4,5.574041E4,5.444642E4,4.5953228E3,6.6453375E4,4.0080863E4,3.8511484E4,1.4748872E5],"tree_param":{"num_deleted":"0","num_feature":"14","num_nodes":"31","size_leaf_vector":"0"}},{"base_weights":[5.4000807E-4,-8.2887363E-1,1.09299E0,-1.031456E0,1.8195243E-1,-9.9011295E-2,1.1783134E0,-1.163053E0,-3.773102E-1,-8.893168E-1,7.876714E-1,4.772723E-1,-1.018247E0,1.2048868E0,-8.381621E-1,-9.692188E-1,-1.2448963E0,1.9343602E-2,-1.1761031E0,-1.1457281E0,-4.2294127E-1,1.0105275E0,-5.599525E-1,-7.2887605E-1,6.952712E-1,-4.3848577E-1,-1.2010956E0,1.2430333E0,7.287303E-1,-1.015249E0,3.7273267E-1],"categories":[],"categories_nodes":[],"categories_segments":[],"categories_sizes":[],"default_left":[1,1,1,1,1,1,1,1,1,1,1,1,1,1,1,0,0,0,0,0,0,0,0,0,0,0,0,0,0,0,0],"id":8,"left_children":[1,3,5,7,9,11,13,15,17,19,21,23,25,27,29,-1,-1,-1,-1,-1,-1,-1,-1,-1,-1,-1,-1,-1,-1,-1,-1],"loss_changes":[6.7823206E5,8.712919E4,3.2854906E4,3.0511844E4,4.6095742E4,1.1431965E4,1.61546875E4,4.6800312E3,1.8809482E4,3.067877E3,1.3629174E4,3.488305E3,8.8101074E2,5.4035312E3,8.4130444E2,0E0,0E0,0E0,0E0,0E0,0E0,0E0,0E0,0E0,0E0,0E0,0E0,0E0,0E0,0E0,0E0],"parents":[2147483647,0,0,1,1,2,2,3,3,4,4,5,5,6,6,7,7,8,8,9,9,10,10,11,11,12,12,13,13,14,14],"right_children":[2,4,6,8,10,12,14,16,18,20,22,24,26,28,30,-1,-1,-1,-1,-1,-1,-1,-1,-1,-1,-1,-1,-1,-1,-1,-1],"split_conditions":[7.7327114E-1,5.6542416E0,9.310409E-1,6.444626E-1,9.845019E-1,1.5E0,6.310581E-1,1.6636558E0,4.6423897E-1,-5.334706E-1,3.804411E0,-9.821797E-1,1.0988321E-2,1.6686186E-1,1.2106224E1,-9.692188E-2,-1.2448963E-1,1.9343601E-3,-1.1761031E-1,-1.14572816E-1,-4.2294126E-2,1.0105275E-1,-5.5995252E-2,-7.288761E-2,6.952712E-2,-4.3848578E-2,-1.2010956E-1,1.2430333E-1,7.287303E-2,-1.01524904E-1,3.727327E-2],"split_indices":[6,5,12,6,12,2,8,9,8,12,9,12,3,8,5,0,0,0,0,0,0,0,0,0,0,0,0,0,0,0,0],"split_type":[0,0,0,0,0,0,0,0,0,0,0,0,0,0,0,0,0,0,0,0,0,0,0,0,0,0,0,0,0,0,0],"sum_hessian":[7.485217E5,4.2548428E5,3.2303738E5,3.544483E5,7.103597E4,2.1578395E4,3.01459E5,2.950843E5,5.9364004E4,2.5657635E4,4.5378336E4,1.3263668E4,8.314726E3,2.9753838E5,3.920615E3,8.760858E4,2.0747573E5,3.9667453E4,1.969655E4,1.6554553E4,9.103083E3,3.893922E4,6.439116E3,2.0299543E3,1.1233714E4,1.9944098E3,6.3203154E3,2.754681E5,2.207029E4,3.4205405E3,5.000743E2],"tree_param":{"num_deleted":"0","num_feature":"14","num_nodes":"31","size_leaf_vector":"0"}},{"base_weights":[6.1760185E-4,1.0192469E0,-8.2221186E-1,1.1408212E0,-4.2302746E-2,-3.0560294E-1,-1.1182698E0,-5.2389795E-1,1.173768E0,4.6269417E-1,-8.80115E-1,1.6203111E-1,-9.9850124E-1,-1.1766883E0,-8.351481E-1,-1.0494357E0,-8.021207E-2,7.0101714E-1,1.2130598E0,-1.1045953E0,6.200757E-1,-5.605207E-1,-1.161179E0,-7.461058E-1,5.76149E-1,-1.094925E0,-6.357408E-3,-1.2006272E0,-7.9767644E-1,-3.7756595E-1,-1.1370198E0],"categories":[],"categories_nodes":[],"categories_segments":[],"categories_sizes":[],"default_left":[1,1,1,1,1,1,1,1,1,1,1,1,1,1,1,0,0,0,0,0,0,0,0,0,0,0,0,0,0,0,0],"id":9,"left_children":[1,3,5,7,9,11,13,15,17,19,21,23,25,27,29,-1,-1,-1,-1,-1,-1,-1,-1,-1,-1,-1,-1,-1,-1,-1,-1],"loss_changes":[5.9404144E5,4.087153E4,5.9962688E4,1.5585531E4,1.3769269E4,4.6279676E4,4.1210938E3,1.2859287E3,5.174875E3,5.009236E3,1.0987432E3,3.2070879E4,5.5058164E3,1.8735E3,5.8884023E3,0E0,0E0,0E0,0E0,0E0,0E0,0E0,0E0,0E0,0E0,0E0,0E0,0E0,0E0,0E0,0E0],"parents":[2147483647,0,0,1,1,2,2,3,3,4,4,5,5,6,6,7,7,8,8,9,9,10,10,11,11,12,12,13,13,14,14],"right_children":[2,4,6,8,10,12,14,16,18,20,22,24,26,28,30,-1,-1,-1,-1,-1,-1,-1,-1,-1,-1,-1,-1,-1,-1,-1,-1],"split_conditions":[9.5996246E-2,2.7450904E-1,1.0381682E-1,-8.174722E-1,3.2245002E0,2.7288542E0,4.4368286E0,-9.968848E-1,9.94848E-1,-8.5655713E-1,5.6807346E0,9.750806E-1,9.069359E0,6.801915E-1,2.1127682E0,-1.0494357E-1,-8.0212075E-3,7.0101716E-2,1.2130598E-1,-1.1045953E-1,6.2007573E-2,-5.605207E-2,-1.16117895E-1,-7.461058E-2,5.76149E-2,-1.094925E-1,-6.357408E-4,-1.20062724E-1,-7.9767644E-2,-3.7756596E-2,-1.1370198E-1],"split_indices":[7,8,3,12,9,9,5,12,12,12,9,12,5,6,9,0,0,0,0,0,0,0,0,0,0,0,0,0,0,0,0],"split_type":[0,0,0,0,0,0,0,0,0,0,0,0,0,0,0,0,0,0,0,0,0,0,0,0,0,0,0,0,0,0,0],"sum_hessian":[7.087441E5,3.1669206E5,3.920521E5,2.8414966E5,3.254238E4,1.4282694E5,2.4922514E5,5.514258E3,2.786354E5,2.0304285E4,1.2238096E4,8.5275586E4,5.755135E4,2.0659394E5,4.2631207E4,2.5236616E3,2.9905962E3,2.138257E4,2.5725284E5,1.8522793E3,1.8452006E4,5.727932E3,6.5101636E3,2.6707266E4,5.856832E4,5.2453438E4,5.097915E3,1.943184E5,1.2275537E4,1.6946168E4,2.568504E4],"tree_param":{"num_deleted":"0","num_feature":"14","num_nodes":"31","size_leaf_vector":"0"}},{"base_weights":[6.350084E-4,8.8018686E-1,-8.717001E-1,1.069874E0,-1.6288212E-1,-1.0225451E0,-1.595385E-1,6.27567E-2,1.1517557E0,2.8836894E-1,-8.5143995E-1,-1.1135628E0,-5.071108E-1,-8.2694113E-1,5.3106725E-1,4.60018E-1,-6.972243E-1,9.305268E-1,1.1977618E0,5.654055E-1,-6.128896E-1,-3.3487436E-1,-1.0330694E0,-9.704681E-1,-1.2073686E0,-8.497945E-2,-1.0809275E0,-1.0622092E0,-3.441472E-1,8.1156254E-1,-7.0997065E-1],"categories":[],"categories_nodes":[],"categories_segments":[],"categories_sizes":[],"default_left":[1,1,1,1,1,1,1,1,1,1,1,1,1,1,1,0,0,0,0,0,0,0,0,0,0,0,0,0,0,0,0],"id":10,"left_children":[1,3,5,7,9,11,13,15,17,19,21,23,25,27,29,-1,-1,-1,-1,-1,-1,-1,-1,-1,-1,-1,-1,-1,-1,-1,-1],"loss_changes":[5.1427975E5,6.60365E4,3.615078E4,2.3288062E4,1.595752E4,1.30273125E4,2.7111947E4,6.4113525E3,2.6570312E3,7.7468438E3,1.9073242E3,3.1669688E3,1.00957705E4,3.3974043E3,1.0063884E4,0E0,0E0,0E0,0E0,0E0,0E0,0E0,0E0,0E0,0E0,0E0,0E0,0E0,0E0,0E0,0E0],"parents":[2147483647,0,0,1,1,2,2,3,3,4,4,5,5,6,6,7,7,8,8,9,9,10,10,11,11,12,12,13,13,14,14],"right_children":[2,4,6,8,10,12,14,16,18,20,22,24,26,28,30,-1,-1,-1,-1,-1,-1,-1,-1,-1,-1,-1,-1,-1,-1,-1,-1],"split_conditions":[1.5050939E-1,2.2153832E-1,5.1496496E0,9.577857E-1,3.181993E0,6.4224267E-1,9.980391E-1,1.5E0,8.455682E-1,3.4066185E-2,3.943376E-1,3.214832E-1,3.1061476E-1,5.234499E-1,3.5292008E0,4.6001803E-2,-6.972244E-2,9.305268E-2,1.1977618E-1,5.654055E-2,-6.128896E-2,-3.3487435E-2,-1.0330694E-1,-9.7046815E-2,-1.2073686E-1,-8.497945E-3,-1.0809275E-1,-1.0622092E-1,-3.441472E-2,8.1156254E-2,-7.099707E-2],"split_indices":[7,8,5,12,9,6,12,2,6,3,8,8,8,12,9,0,0,0,0,0,0,0,0,0,0,0,0,0,0,0,0],"split_type":[0,0,0,0,0,0,0,0,0,0,0,0,0,0,0,0,0,0,0,0,0,0,0,0,0,0,0,0,0,0,0],"sum_hessian":[6.702755E5,3.337572E5,3.365183E5,2.8240112E5,5.135605E4,2.7769788E5,5.882043E4,2.1233836E4,2.611673E5,3.102451E4,2.0331543E4,2.3601936E5,4.1678516E4,2.9912621E4,2.8907807E4,1.3944886E4,7.28895E3,4.4965145E4,2.1620216E5,2.3730422E4,7.2940874E3,5.2898145E3,1.5041728E4,9.3461305E4,1.4255806E5,2.4013791E4,1.7664725E4,2.0111148E4,9.801472E3,2.3578924E4,5.328884E3],"tree_param":{"num_deleted":"0","num_feature":"14","num_nodes":"31","size_leaf_vector":"0"}},{"base_weights":[6.9505995E-4,-7.1233445E-1,9.953631E-1,-7.981355E-2,-9.9356824E-1,1.0723351E0,-1.8582337E-1,-4.8452386E-1,7.9945827E-1,-1.0815996E0,-5.8134955E-1,1.130428E0,4.3529037E-1,-8.0107E-1,3.6410606E-1,-9.7787E-2,-1.1184782E0,-5.882412E-1,9.693966E-1,-1.1325537E0,-7.7286595E-1,-8.104711E-2,-9.781383E-1,-5.053137E-2,1.1436065E0,7.24894E-1,-6.309944E-1,-9.563381E-2,-1.0801412E0,7.0288455E-1,-8.602912E-1],"categories":[],"categories_nodes":[],"categories_segments":[],"categories_sizes":[],"default_left":[1,1,1,1,1,1,1,1,1,1,1,1,1,1,1,0,0,0,0,0,0,0,0,0,0,0,0,0,0,0,0],"id":11,"left_children":[1,3,5,7,9,11,13,15,17,19,21,23,25,27,29,-1,-1,-1,-1,-1,-1,-1,-1,-1,-1,-1,-1,-1,-1,-1,-1],"loss_changes":[4.488559E5,6.557381E4,2.4025484E4,4.0374035E4,9.259109E3,9.180594E3,5.4703804E3,1.9048871E4,8.434057E3,3.306875E3,8.914419E3,3.5384062E3,6.403176E3,1.5021533E3,3.5419556E3,0E0,0E0,0E0,0E0,0E0,0E0,0E0,0E0,0E0,0E0,0E0,0E0,0E0,0E0,0E0,0E0],"parents":[2147483647,0,0,1,1,2,2,3,3,4,4,5,5,6,6,7,7,8,8,9,9,10,10,11,11,12,12,13,13,14,14],"right_children":[2,4,6,8,10,12,14,16,18,20,22,24,26,28,30,-1,-1,-1,-1,-1,-1,-1,-1,-1,-1,-1,-1,-1,-1,-1,-1],"split_conditions":[7.784762E-1,4.2664357E-2,4.755816E-2,5.3196135E0,4.625221E0,1.9516979E-1,9.9653924E-1,4.4599894E-1,6.115149E-1,6.2607896E-1,2.1127682E0,-8.094692E-1,4.403139E0,1.5E0,3.073579E-1,-9.7787E-3,-1.1184782E-1,-5.8824122E-2,9.693966E-2,-1.13255374E-1,-7.728659E-2,-8.104711E-3,-9.781384E-2,-5.053137E-3,1.1436065E-1,7.24894E-2,-6.309944E-2,-9.563382E-3,-1.0801412E-1,7.028846E-2,-8.602912E-2],"split_indices":[6,3,3,5,5,8,12,8,12,6,9,12,9,2,8,0,0,0,0,0,0,0,0,0,0,0,0,0,0,0,0],"split_type":[0,0,0,0,0,0,0,0,0,0,0,0,0,0,0,0,0,0,0,0,0,0,0,0,0,0,0,0,0,0,0],"sum_hessian":[6.328779E5,3.6862716E5,2.6425072E5,1.13455805E5,2.5517133E5,2.4808438E5,1.6166326E4,7.769492E4,3.5760887E4,2.1026628E5,4.490506E4,2.2735119E5,2.0733197E4,7.629823E3,8.536503E3,4.8257266E4,2.9437656E4,3.901244E3,3.1859643E4,1.8047728E5,2.9788992E4,1.9862305E4,2.5042752E4,2.5090198E3,2.2484217E5,1.6305055E4,4.428143E3,2.163152E3,5.4666714E3,6.686767E3,1.8497356E3],"tree_param":{"num_deleted":"0","num_feature":"14","num_nodes":"31","size_leaf_vector":"0"}},{"base_weights":[7.8768533E-4,9.403477E-1,-6.998722E-1,5.0640848E-2,1.0652242E0,-2.4362028E-1,-1.0272938E0,-4.0893227E-1,6.4021915E-1,1.0961454E0,-2.9365903E-1,3.0923772E-1,-7.389834E-1,-8.3964175E-1,-1.1234442E0,-9.9507725E-1,-1.2409024E-1,8.9839363E-1,1.04643546E-1,1.1403717E0,7.3285645E-1,-8.613367E-1,9.8377615E-1,-7.982281E-1,7.0033103E-1,-8.7225294E-1,5.561968E-1,-1.0594805E0,-2.9802203E-1,-9.996268E-1,-1.1595106E0],"categories":[],"categories_nodes":[],"categories_segments":[],"categories_sizes":[],"default_left":[1,1,1,1,1,1,1,1,1,1,1,1,1,1,1,0,0,0,0,0,0,0,0,0,0,0,0,0,0,0,0],"id":12,"left_children":[1,3,5,7,9,11,13,15,17,19,21,23,25,27,29,-1,-1,-1,-1,-1,-1,-1,-1,-1,-1,-1,-1,-1,-1,-1,-1],"loss_changes":[3.9348453E5,2.8367953E4,5.1147953E4,8.515656E3,9.408344E3,3.917729E4,3.5956562E3,2.9486135E3,1.9034873E3,3.5165938E3,3.613884E3,2.9281201E4,1.3023695E4,8.0413555E3,5.8740625E2,0E0,0E0,0E0,0E0,0E0,0E0,0E0,0E0,0E0,0E0,0E0,0E0,0E0,0E0,0E0,0E0],"parents":[2147483647,0,0,1,1,2,2,3,3,4,4,5,5,6,6,7,7,8,8,9,9,10,10,11,11,12,12,13,13,14,14],"right_children":[2,4,6,8,10,12,14,16,18,20,22,24,26,28,30,-1,-1,-1,-1,-1,-1,-1,-1,-1,-1,-1,-1,-1,-1,-1,-1],"split_conditions":[8.64443E-2,9.904555E-1,1.1826989E-1,8.47444E-1,6.504539E-1,1.8680896E-1,1.9912872E-1,-8.99796E-1,2.4492364E-2,1.4931719E-1,8.733801E0,7.9704916E-1,1.0005806E1,9.92432E-1,1.7990334E0,-9.950773E-2,-1.2409024E-2,8.983936E-2,1.0464354E-2,1.1403717E-1,7.328565E-2,-8.6133674E-2,9.8377615E-2,-7.982281E-2,7.00331E-2,-8.7225296E-2,5.5619683E-2,-1.0594805E-1,-2.9802203E-2,-9.996268E-2,-1.1595106E-1],"split_indices":[7,12,3,6,8,8,8,12,7,8,5,12,5,12,9,0,0,0,0,0,0,0,0,0,0,0,0,0,0,0,0],"split_type":[0,0,0,0,0,0,0,0,0,0,0,0,0,0,0,0,0,0,0,0,0,0,0,0,0,0,0,0,0,0,0],"sum_hessian":[5.9771544E5,2.5532856E5,3.4238688E5,3.1426414E4,2.2390216E5,1.430512E5,1.9933567E5,1.7660475E4,1.3765938E4,2.1892083E5,4.981321E3,6.76026E4,7.54486E4,6.7536875E4,1.317988E5,5.7747534E3,1.1885721E4,9.287984E3,4.4779546E3,1.9516012E5,2.3760703E4,3.4489656E3,1.5323553E3,1.7642627E4,4.9959977E4,6.84098E4,7.0388037E3,4.8037797E4,1.9499082E4,2.9737549E4,1.0206124E5],"tree_param":{"num_deleted":"0","num_feature":"14","num_nodes":"31","size_leaf_vector":"0"}},{"base_weights":[8.306869E-4,9.1675156E-1,-6.6066897E-1,1.1041099E-1,1.0480657E0,-2.2195762E-1,-9.947547E-1,4.2315316E-1,-6.716794E-1,1.1029012E0,3.4411478E-1,2.0701507E-1,-8.272634E-1,-8.230551E-1,-1.111326E0,5.401711E-1,-1.0335181E0,-2.6662853E-1,-9.704527E-1,1.1294878E0,8.81138E-1,6.5199566E-1,-6.396289E-1,-9.465383E-1,4.349632E-1,-2.7008638E-1,-1.000946E0,-1.0627869E0,-5.0518715E-1,-1.0000825E0,-1.1415937E0],"categories":[],"categories_nodes":[],"categories_segments":[],"categories_sizes":[],"default_left":[1,1,1,1,1,1,1,1,1,1,1,1,1,1,1,0,0,0,0,0,0,0,0,0,0,0,0,0,0,0,0],"id":13,"left_children":[1,3,5,7,9,11,13,15,17,19,21,23,25,27,29,-1,-1,-1,-1,-1,-1,-1,-1,-1,-1,-1,-1,-1,-1,-1,-1],"loss_changes":[3.4165256E5,2.5038422E4,4.7989062E4,8.1006724E3,7.8494375E3,3.6754492E4,3.7194219E3,4.033266E3,1.1446484E3,1.1113125E3,4.4519023E3,2.1783484E4,5.6810234E3,5.727504E3,3.71625E2,0E0,0E0,0E0,0E0,0E0,0E0,0E0,0E0,0E0,0E0,0E0,0E0,0E0,0E0,0E0,0E0],"parents":[2147483647,0,0,1,1,2,2,3,3,4,4,5,5,6,6,7,7,8,8,9,9,10,10,11,11,12,12,13,13,14,14],"right_children":[2,4,6,8,10,12,14,16,18,20,22,24,26,28,30,-1,-1,-1,-1,-1,-1,-1,-1,-1,-1,-1,-1,-1,-1,-1,-1],"split_conditions":[8.3207846E-2,9.945335E-1,1.1955015E-1,1.5E0,2.9993856E-1,2.4492307E0,2.1493063E0,6.055039E-1,1.6189945E-1,1.1569458E-1,3.8376036E0,-9.7574905E-2,1.7606595E-1,9.4080925E-1,2.0514289E-1,5.4017108E-2,-1.0335181E-1,-2.6662854E-2,-9.704527E-2,1.12948775E-1,8.811381E-2,6.519957E-2,-6.396289E-2,-9.465384E-2,4.3496322E-2,-2.7008638E-2,-1.0009461E-1,-1.06278695E-1,-5.0518718E-2,-1.0000825E-1,-1.1415937E-1],"split_indices":[7,12,3,2,8,9,9,8,8,8,9,12,8,12,8,0,0,0,0,0,0,0,0,0,0,0,0,0,0,0,0],"split_type":[0,0,0,0,0,0,0,0,0,0,0,0,0,0,0,0,0,0,0,0,0,0,0,0,0,0,0,0,0,0,0],"sum_hessian":[5.638915E5,2.3647073E5,3.2742078E5,3.3116875E4,2.0335386E5,1.4154706E5,1.8587372E5,2.3657268E4,9.459605E3,1.8865747E5,1.4696391E4,8.284002E4,5.870704E4,7.51671E4,1.1070662E5,2.189872E4,1.7585477E3,4.0164053E3,5.4432E3,1.6845752E5,2.019996E4,1.1193511E4,3.5028804E3,1.36681045E4,6.9171914E4,1.3951844E4,4.4755195E4,4.2848773E4,3.231833E4,2.3686256E4,8.702036E4],"tree_param":{"num_deleted":"0","num_feature":"14","num_nodes":"31","size_leaf_vector":"0"}},{"base_weights":[8.030804E-4,-5.9922063E-1,9.4244623E-1,-1.55187445E-2,-8.7443745E-1,1.1169715E-1,1.033531E0,-4.060836E-1,6.7739695E-1,-9.8590684E-1,-4.3552777E-1,4.8231086E-1,-7.1824235E-1,1.0515265E0,-7.245944E-1,-8.263913E-2,-1.059347E0,8.470758E-1,-4.240684E-1,-1.0560026E0,-6.297571E-1,-8.110418E-1,9.7005E-2,-7.470956E-1,5.945213E-1,8.639975E-2,-9.397636E-1,1.0952867E0,6.9223315E-1,-1.4826106E-1,-9.4787264E-1],"categories":[],"categories_nodes":[],"categories_segments":[],"categories_sizes":[],"default_left":[1,1,1,1,1,1,1,1,1,1,1,1,1,1,1,0,0,0,0,0,0,0,0,0,0,0,0,0,0,0,0],"id":14,"left_children":[1,3,5,7,9,11,13,15,17,19,21,23,25,27,29,-1,-1,-1,-1,-1,-1,-1,-1,-1,-1,-1,-1,-1,-1,-1,-1],"loss_changes":[3.0102594E5,5.2277023E4,1.5690578E4,2.821954E4,1.0819266E4,6.3028257E3,5.9131406E3,1.4090318E4,7.025369E3,4.4020312E3,8.957184E3,1.9545835E3,1.1276143E3,2.9076094E3,2.4358203E2,0E0,0E0,0E0,0E0,0E0,0E0,0E0,0E0,0E0,0E0,0E0,0E0,0E0,0E0,0E0,0E0],"parents":[2147483647,0,0,1,1,2,2,3,3,4,4,5,5,6,6,7,7,8,8,9,9,10,10,11,11,12,12,13,13,14,14],"right_children":[2,4,6,8,10,12,14,16,18,20,22,24,26,28,30,-1,-1,-1,-1,-1,-1,-1,-1,-1,-1,-1,-1,-1,-1,-1,-1],"split_conditions":[7.959884E-1,3.4035362E-2,9.8205763E-1,4.7563887E0,4.497182E0,1.5E0,6.763813E-1,4.7205767E-1,4.4683566E0,6.2607896E-1,9.9824476E-1,-9.9536407E-1,3.6403885E1,1.3560084E-1,1.7914493E0,-8.263913E-3,-1.059347E-1,8.470758E-2,-4.240684E-2,-1.0560026E-1,-6.297571E-2,-8.110418E-2,9.7005E-3,-7.470956E-2,5.9452128E-2,8.639975E-3,-9.397636E-2,1.09528676E-1,6.9223315E-2,-1.4826106E-2,-9.478726E-2],"split_indices":[6,3,12,5,5,2,8,8,9,6,12,12,0,8,9,0,0,0,0,0,0,0,0,0,0,0,0,0,0,0,0],"split_type":[0,0,0,0,0,0,0,0,0,0,0,0,0,0,0,0,0,0,0,0,0,0,0,0,0,0,0,0,0,0,0],"sum_hessian":[5.327795E5,3.2541953E5,2.0735997E5,1.04272055E5,2.2114748E5,2.0489072E4,1.868709E5,6.668512E4,3.7586934E4,1.7635703E5,4.4790445E4,1.4164335E4,6.3247373E3,1.8497792E5,1.8929814E3,4.4602574E4,2.2082547E4,3.2569838E4,5.017097E3,1.473536E5,2.9003438E4,2.626748E4,1.8522965E4,1.1842063E3,1.2980129E4,1.3654734E3,4.9592637E3,1.6489277E5,2.0085156E4,5.290483E2,1.3639331E3],"tree_param":{"num_deleted":"0","num_feature":"14","num_nodes":"31","size_leaf_vector":"0"}},{"base_weights":[8.749357E-4,8.8025284E-1,-5.9040254E-1,1.6527091E-1,1.015915E0,-2.0756143E-1,-9.592983E-1,-5.7817173E-1,4.379815E-1,1.076489E0,4.349902E-1,1.4279628E-1,-8.534646E-1,-1.0366079E0,-6.888893E-1,-7.210762E-1,2.3113672E-1,5.278143E-1,-1.0391442E0,9.315722E-1,1.105557E0,6.294914E-1,-5.569644E-1,-4.552078E-1,4.9957573E-1,-9.2968225E-1,7.946369E-2,-9.1402316E-1,-1.0991309E0,-3.1932372E-1,-9.9251384E-1],"categories":[],"categories_nodes":[],"categories_segments":[],"categories_sizes":[],"default_left":[1,1,1,1,1,1,1,1,1,1,1,1,1,1,1,0,0,0,0,0,0,0,0,0,0,0,0,0,0,0,0],"id":15,"left_children":[1,3,5,7,9,11,13,15,17,19,21,23,25,27,29,-1,-1,-1,-1,-1,-1,-1,-1,-1,-1,-1,-1,-1,-1,-1,-1],"loss_changes":[2.6172389E5,1.9629406E4,4.2507086E4,6.544108E3,5.9851562E3,3.3424383E4,3.2036875E3,1.0020298E3,3.1340889E3,6.4784375E2,3.0995728E3,2.0431008E4,3.6934727E3,9.1259375E2,3.8240977E3,0E0,0E0,0E0,0E0,0E0,0E0,0E0,0E0,0E0,0E0,0E0,0E0,0E0,0E0,0E0,0E0],"parents":[2147483647,0,0,1,1,2,2,3,3,4,4,5,5,6,6,7,7,8,8,9,9,10,10,11,11,12,12,13,13,14,14],"right_children":[2,4,6,8,10,12,14,16,18,20,22,24,26,28,30,-1,-1,-1,-1,-1,-1,-1,-1,-1,-1,-1,-1,-1,-1,-1,-1],"split_conditions":[7.616444E-2,9.9645996E-1,1.4361255E-1,6.856565E-1,2.2287545E-1,2.901731E0,3.954761E0,5.974764E0,6.280395E-1,8.719967E-1,4.7449446E0,9.9521565E-1,1.1133377E1,1.9266087E-1,2.3155117E0,-7.210762E-2,2.3113674E-2,5.2781433E-2,-1.0391442E-1,9.3157224E-2,1.105557E-1,6.294914E-2,-5.569644E-2,-4.552078E-2,4.9957573E-2,-9.2968225E-2,7.946369E-3,-9.1402315E-2,-1.0991309E-1,-3.1932373E-2,-9.925138E-2],"split_indices":[7,12,3,6,8,9,5,5,8,6,9,12,5,8,9,0,0,0,0,0,0,0,0,0,0,0,0,0,0,0,0],"split_type":[0,0,0,0,0,0,0,0,0,0,0,0,0,0,0,0,0,0,0,0,0,0,0,0,0,0,0,0,0,0,0],"sum_hessian":[5.0335544E5,2.0237403E5,3.0098144E5,3.227533E4,1.700987E5,1.4769977E5,1.5328167E5,8.661605E3,2.3613725E4,1.5403625E5,1.6062442E4,9.57583E4,5.194146E4,1.1919976E5,3.4081902E4,7.361798E3,1.2998079E3,2.2260568E4,1.3531553E3,2.574066E4,1.2829559E5,1.3429558E4,2.6328855E3,3.5782453E4,5.9975848E4,4.801849E4,3.9229731E3,4.0266832E4,7.893293E4,1.5372662E4,1.8709242E4],"tree_param":{"num_deleted":"0","num_feature":"14","num_nodes":"31","size_leaf_vector":"0"}},{"base_weights":[8.8910846E-4,-5.3351325E-1,9.0622896E-1,-3.9889365E-2,-8.310749E-1,1.6932853E-1,1.0035611E0,2.960298E-1,-6.9087744E-1,-5.606387E-1,-1.0093274E0,6.5562075E-1,-3.4304738E-1,1.0577607E0,4.86595E-1,6.683187E-1,-2.0343947E-1,-7.882119E-1,3.548921E-1,-9.168826E-1,-2.3283452E-2,-1.0384046E0,-5.159587E-1,-4.790787E-1,7.1668255E-1,2.511041E-1,-8.411318E-1,1.0854194E0,8.605126E-1,7.900492E-1,-4.2322095E-2],"categories":[],"categories_nodes":[],"categories_segments":[],"categories_sizes":[],"default_left":[1,1,1,1,1,1,1,1,1,1,1,1,1,1,1,0,0,0,0,0,0,0,0,0,0,0,0,0,0,0,0],"id":16,"left_children":[1,3,5,7,9,11,13,15,17,19,21,23,25,27,29,-1,-1,-1,-1,-1,-1,-1,-1,-1,-1,-1,-1,-1,-1,-1,-1],"loss_changes":[2.3025484E5,4.3957047E4,1.2669859E4,2.4613299E4,9.000078E3,5.135848E3,4.3715938E3,1.3805504E4,3.8999043E3,1.4199902E4,1.6138594E3,7.330654E2,2.9705898E3,7.695625E2,2.3768835E3,0E0,0E0,0E0,0E0,0E0,0E0,0E0,0E0,0E0,0E0,0E0,0E0,0E0,0E0,0E0,0E0],"parents":[2147483647,0,0,1,1,2,2,3,3,4,4,5,5,6,6,7,7,8,8,9,9,10,10,11,11,12,12,13,13,14,14],"right_children":[2,4,6,8,10,12,14,16,18,20,22,24,26,28,30,-1,-1,-1,-1,-1,-1,-1,-1,-1,-1,-1,-1,-1,-1,-1,-1],"split_conditions":[8.044205E-1,5.0843548E-2,9.9003136E-1,-4.211611E0,2.4055012E-1,3.6430515E-2,1.6368839E-1,4.3367054E-2,9.253796E0,9.808996E-1,8.519615E0,-9.9687696E-1,3.9955643E1,5.654668E-2,4.7753863E-2,6.683187E-2,-2.0343948E-2,-7.882119E-2,3.5489213E-2,-9.168826E-2,-2.3283453E-3,-1.0384046E-1,-5.1595874E-2,-4.790787E-2,7.166826E-2,2.5110409E-2,-8.411318E-2,1.0854194E-1,8.605126E-2,7.900492E-2,-4.2322096E-3],"split_indices":[6,3,12,11,8,7,8,4,5,12,5,12,0,7,7,0,0,0,0,0,0,0,0,0,0,0,0,0,0,0,0],"split_type":[0,0,0,0,0,0,0,0,0,0,0,0,0,0,0,0,0,0,0,0,0,0,0,0,0,0,0,0,0,0,0],"sum_hessian":[4.759123E5,2.9926384E5,1.766485E5,1.1255233E5,1.867115E5,2.0610383E4,1.5603811E5,7.424262E4,3.830971E4,7.417735E4,1.1253415E5,1.0574203E4,1.0036179E4,1.4123027E5,1.4807839E4,4.2536727E4,3.1705893E4,3.5047895E4,3.2618171E3,4.4605246E4,2.9572104E4,1.0626994E5,6.2642183E3,5.396244E2,1.0034579E4,4.576952E3,5.4592266E3,1.23858016E5,1.7372258E4,9.409092E3,5.398747E3],"tree_param":{"num_deleted":"0","num_feature":"14","num_nodes":"31","size_leaf_vector":"0"}},{"base_weights":[9.771477E-4,-4.9834797E-1,8.907571E-1,-7.314501E-1,1.1590916E-1,2.0161909E-1,9.920277E-1,-9.4369525E-1,-1.8690394E-1,-7.7287316E-1,4.3979016E-1,4.900842E-1,-5.666668E-1,1.0477648E0,5.053938E-1,-7.815991E-1,-1.0694323E0,6.652926E-2,-1.031563E0,-9.571881E-1,-4.0505117E-1,6.7767537E-1,-3.5396397E-1,-5.479105E-1,5.8698E-1,2.0490193E-1,-7.7596045E-1,1.0739397E0,8.5478395E-1,6.325904E-1,-5.9255236E-1],"categories":[],"categories_nodes":[],"categories_segments":[],"categories_sizes":[],"default_left":[1,1,1,1,1,1,1,1,1,1,1,1,1,1,1,0,0,0,0,0,0,0,0,0,0,0,0,0,0,0,0],"id":17,"left_children":[1,3,5,7,9,11,13,15,17,19,21,23,25,27,29,-1,-1,-1,-1,-1,-1,-1,-1,-1,-1,-1,-1,-1,-1,-1,-1],"loss_changes":[2.0016308E5,4.1320227E4,1.13018125E4,2.4177938E4,2.2852629E4,4.599036E3,3.8291875E3,3.0670625E3,1.2559338E4,1.4370859E3,1.09868125E4,1.5176863E3,9.14928E2,6.39E2,2.027041E3,0E0,0E0,0E0,0E0,0E0,0E0,0E0,0E0,0E0,0E0,0E0,0E0,0E0,0E0,0E0,0E0],"parents":[2147483647,0,0,1,1,2,2,3,3,4,4,5,5,6,6,7,7,8,8,9,9,10,10,11,11,12,12,13,13,14,14],"right_children":[2,4,6,8,10,12,14,16,18,20,22,24,26,28,30,-1,-1,-1,-1,-1,-1,-1,-1,-1,-1,-1,-1,-1,-1,-1,-1],"split_conditions":[8.1004846E-1,4.543304E0,9.9329257E-1,6.1713564E-1,7.587163E-1,1.5E0,1.5160468E-1,3.3094388E-1,5.473572E-1,-8.3402157E-1,3.1296873E0,-9.8861194E-1,3.2421455E1,5.6545444E-2,5.741662E0,-7.815991E-2,-1.0694323E-1,6.652926E-3,-1.03156306E-1,-9.5718816E-2,-4.050512E-2,6.776754E-2,-3.5396397E-2,-5.4791052E-2,5.8698E-2,2.0490194E-2,-7.7596046E-2,1.0739397E-1,8.5478395E-2,6.325904E-2,-5.925524E-2],"split_indices":[6,5,12,6,12,2,8,8,8,12,9,12,0,7,9,0,0,0,0,0,0,0,0,0,0,0,0,0,0,0,0],"split_type":[0,0,0,0,0,0,0,0,0,0,0,0,0,0,0,0,0,0,0,0,0,0,0,0,0,0,0,0,0,0,0],"sum_hessian":[4.5052203E5,2.885785E5,1.6194353E5,2.0919261E5,7.93859E4,2.0749303E4,1.4119423E5,1.5052317E5,5.866945E4,2.1202203E4,5.8183695E4,1.5085554E4,5.6637485E3,1.2668328E5,1.4510947E4,6.575769E4,8.476548E4,4.5129594E4,1.3539853E4,1.4123393E4,7.07881E3,4.4767258E4,1.3416437E4,1.2875916E3,1.3797963E4,1.2085192E3,4.455229E3,1.1154882E5,1.5134466E4,1.3004773E4,1.5061737E3],"tree_param":{"num_deleted":"0","num_feature":"14","num_nodes":"31","size_leaf_vector":"0"}},{"base_weights":[9.5472863E-4,8.209091E-1,-5.0199866E-1,9.6913743E-1,1.7980945E-1,-1.5892509E-1,-8.9364254E-1,4.800071E-1,1.0415078E0,4.640207E-1,-4.6892813E-1,2.0166998E-1,-6.992914E-1,-9.8228717E-1,-6.121367E-1,-6.233045E-1,5.895248E-1,9.064671E-1,1.0676929E0,6.0490054E-1,-3.4410226E-1,-2.5956267E-1,-9.9030364E-1,-8.266962E-1,4.435063E-1,-8.285708E-1,4.5243955E-1,-8.5074484E-1,-1.0551401E0,-2.0678136E-1,-8.8658804E-1],"categories":[],"categories_nodes":[],"categories_segments":[],"categories_sizes":[],"default_left":[1,1,1,1,1,1,1,1,1,1,1,1,1,1,1,0,0,0,0,0,0,0,0,0,0,0,0,0,0,0,0],"id":18,"left_children":[1,3,5,7,9,11,13,15,17,19,21,23,25,27,29,-1,-1,-1,-1,-1,-1,-1,-1,-1,-1,-1,-1,-1,-1,-1,-1],"loss_changes":[1.7586917E5,1.5407156E4,3.551714E4,4.6609688E3,5.614213E3,2.7454752E4,3.0793125E3,2.0514277E3,4.0466406E2,2.4107212E3,1.0123109E3,2.1016975E4,8.396959E3,8.986328E2,3.2884307E3,0E0,0E0,0E0,0E0,0E0,0E0,0E0,0E0,0E0,0E0,0E0,0E0,0E0,0E0,0E0,0E0],"parents":[2147483647,0,0,1,1,2,2,3,3,4,4,5,5,6,6,7,7,8,8,9,9,10,10,11,11,12,12,13,13,14,14],"right_children":[2,4,6,8,10,12,14,16,18,20,22,24,26,28,30,-1,-1,-1,-1,-1,-1,-1,-1,-1,-1,-1,-1,-1,-1,-1,-1],"split_conditions":[7.075511E-2,1.6464272E-1,1.5196145E-1,9.973731E-1,-3.9565027E0,2.9871112E-1,3.9114325E0,-9.927521E-1,8.7324256E-1,7.149469E-1,6.3297474E-1,-1.0340208E-1,1.0229994E1,1.9266087E-1,-5.355756E0,-6.233045E-2,5.895248E-2,9.064671E-2,1.06769286E-1,6.0490053E-2,-3.4410227E-2,-2.5956267E-2,-9.903037E-2,-8.266962E-2,4.435063E-2,-8.285708E-2,4.5243956E-2,-8.5074484E-2,-1.0551401E-1,-2.0678136E-2,-8.86588E-2],"split_indices":[7,8,3,12,11,8,5,12,6,8,8,12,5,8,10,0,0,0,0,0,0,0,0,0,0,0,0,0,0,0,0],"split_type":[0,0,0,0,0,0,0,0,0,0,0,0,0,0,0,0,0,0,0,0,0,0,0,0,0,0,0,0,0,0,0],"sum_hessian":[4.2645212E5,1.6213166E5,2.6432047E5,1.3168445E5,3.0447209E4,1.4089777E5,1.234227E5,1.6973463E4,1.14710984E5,2.1172043E4,9.275165E3,8.450612E4,5.6391652E4,9.386321E4,2.9559492E4,1.5322686E3,1.5441194E4,1.8636242E4,9.607474E4,1.802926E4,3.1427834E3,6.6187954E3,2.6563699E3,1.6088823E4,6.84173E4,5.0700867E4,5.6907837E3,3.346033E4,6.0402887E4,1.1934455E4,1.7625037E4],"tree_param":{"num_deleted":"0","num_feature":"14","num_nodes":"31","size_leaf_vector":"0"}},{"base_weights":[8.832472E-4,-4.4551507E-1,8.514466E-1,-9.0116715E-1,-1.478143E-1,2.8252727E-1,9.782093E-1,-1.0218368E0,-6.611879E-1,2.3358904E-1,-7.0558035E-1,6.817746E-1,-1.7475352E-1,1.0338682E0,5.3594196E-1,-1.0595938E0,-9.1506654E-1,-1.7993638E-1,-8.262103E-1,-1.7098753E-1,6.025078E-1,-8.487539E-1,8.415657E-1,8.5497695E-1,3.8978133E-1,2.3799424E-1,-7.3024184E-1,1.058924E0,8.766753E-1,6.3072383E-1,-6.950372E-1],"categories":[],"categories_nodes":[],"categories_segments":[],"categories_sizes":[],"default_left":[1,1,1,1,1,1,1,1,1,1,1,1,1,1,1,0,0,0,0,0,0,0,0,0,0,0,0,0,0,0,0],"id":19,"left_children":[1,3,5,7,9,11,13,15,17,19,21,23,25,27,29,-1,-1,-1,-1,-1,-1,-1,-1,-1,-1,-1,-1,-1,-1,-1,-1],"loss_changes":[1.5336269E5,3.5932027E4,1.0025727E4,3.0305781E3,3.4083707E4,4.625159E3,2.7980703E3,2.798203E2,2.7815752E3,1.420216E4,1.4413391E4,6.836802E2,2.7077446E3,3.9679688E2,1.4834385E3,0E0,0E0,0E0,0E0,0E0,0E0,0E0,0E0,0E0,0E0,0E0,0E0,0E0,0E0,0E0,0E0],"parents":[2147483647,0,0,1,1,2,2,3,3,4,4,5,5,6,6,7,7,8,8,9,9,10,10,11,11,12,12,13,13,14,14],"right_children":[2,4,6,8,10,12,14,16,18,20,22,24,26,28,30,-1,-1,-1,-1,-1,-1,-1,-1,-1,-1,-1,-1,-1,-1,-1,-1],"split_conditions":[8.1401753E-1,7.947021E-1,9.98662E-1,-8.576193E-1,3.8511455E-1,3.165614E-2,1.3586134E-1,-9.916265E-1,1.5E0,3.3778472E0,1.0398581E1,-4.174089E0,4.725813E1,4.9209148E-2,7.339159E-1,-1.0595938E-1,-9.150665E-2,-1.7993638E-2,-8.262103E-2,-1.7098753E-2,6.0250785E-2,-8.48754E-2,8.415657E-2,8.54977E-2,3.8978133E-2,2.3799425E-2,-7.302418E-2,1.058924E-1,8.766753E-2,6.307238E-2,-6.950372E-2],"split_indices":[6,12,12,12,8,7,8,12,2,5,5,11,0,7,8,0,0,0,0,0,0,0,0,0,0,0,0,0,0,0,0],"split_type":[0,0,0,0,0,0,0,0,0,0,0,0,0,0,0,0,0,0,0,0,0,0,0,0,0,0,0,0,0,0,0],"sum_hessian":[4.0391347E5,2.6489172E5,1.3902175E5,1.04675875E5,1.6021584E5,2.5332225E4,1.1368952E5,6.965018E4,3.502569E4,9.515141E4,6.506444E4,1.3524033E4,1.1808192E4,1.0097995E5,1.2709575E4,5.1447777E4,1.8202402E4,8.944147E3,2.6081543E4,4.538274E4,4.9768664E4,5.955376E4,5.5106807E3,8.487535E3,5.0364985E3,6.774825E3,5.033367E3,8.7092195E4,1.3887752E4,1.180139E4,9.081855E2],"tree_param":{"num_deleted":"0","num_feature":"14","num_nodes":"31","size_leaf_vector":"0"}},{"base_weights":[8.990433E-4,5.836098E-1,-6.0770965E-1,8.273089E-1,-6.8857774E-2,-7.697329E-1,-3.518143E-2,2.7423745E-1,9.8030823E-1,2.0521025E-1,-6.7612004E-1,-5.551211E-1,-1.0223116E0,4.0973043E-1,-5.275044E-1,5.303945E-1,-2.7252838E-1,8.0802995E-1,1.0435872E0,4.4242483E-1,-2.6037994E-1,1.6402625E-1,-7.699067E-1,-9.616408E-1,-2.646531E-1,-8.5814327E-1,-1.0478965E0,-4.9083132E-2,8.045953E-1,-1.3489354E-1,-8.054915E-1],"categories":[],"categories_nodes":[],"categories_segments":[],"categories_sizes":[],"default_left":[1,1,1,1,1,1,1,1,1,1,1,1,1,1,1,0,0,0,0,0,0,0,0,0,0,0,0,0,0,0,0],"id":20,"left_children":[1,3,5,7,9,11,13,15,17,19,21,23,25,27,29,-1,-1,-1,-1,-1,-1,-1,-1,-1,-1,-1,-1,-1,-1,-1,-1],"loss_changes":[1.3591494E5,3.113146E4,1.7388992E4,1.2062844E4,8.861351E3,7.9194297E3,9.057352E3,4.3265264E3,1.2163984E3,4.0519375E3,1.3047354E3,9.32735E3,2.810078E2,3.938649E3,2.1422354E3,0E0,0E0,0E0,0E0,0E0,0E0,0E0,0E0,0E0,0E0,0E0,0E0,0E0,0E0,0E0,0E0],"parents":[2147483647,0,0,1,1,2,2,3,3,4,4,5,5,6,6,7,7,8,8,9,9,10,10,11,11,12,12,13,13,14,14],"right_children":[2,4,6,8,10,12,14,16,18,20,22,24,26,28,30,-1,-1,-1,-1,-1,-1,-1,-1,-1,-1,-1,-1,-1,-1,-1,-1],"split_conditions":[1.7986351E-1,1.6445524E-1,4.9240265E0,9.9912095E-1,3.6234136E0,4.1835564E-1,-5.3228846E0,1.5E0,8.7224615E-1,7.3299073E-3,5E-1,2.827819E-1,1.3501806E0,9.998938E-1,2.608019E-1,5.303945E-2,-2.7252838E-2,8.0803E-2,1.04358725E-1,4.4242483E-2,-2.6037995E-2,1.6402625E-2,-7.699067E-2,-9.616408E-2,-2.646531E-2,-8.581433E-2,-1.0478965E-1,-4.9083135E-3,8.045953E-2,-1.34893535E-2,-8.054915E-2],"split_indices":[7,8,5,12,9,8,10,2,6,4,2,12,9,12,8,0,0,0,0,0,0,0,0,0,0,0,0,0,0,0,0],"split_type":[0,0,0,0,0,0,0,0,0,0,0,0,0,0,0,0,0,0,0,0,0,0,0,0,0,0,0,0,0,0,0],"sum_hessian":[3.8324253E5,1.9578692E5,1.8745562E5,1.425454E5,5.3241504E4,1.4610745E5,4.1348176E4,3.088895E4,1.1165647E5,3.6685402E4,1.65561E4,7.899227E4,6.711518E4,2.1719998E4,1.9628178E4,2.1034445E4,9.854503E3,2.9998555E4,8.1657914E4,2.4303174E4,1.2382229E4,1.6625084E3,1.4893591E4,3.291889E4,4.6073383E4,9.05401E3,5.8061168E4,1.0046886E4,1.1673112E4,8.137206E3,1.1490972E4],"tree_param":{"num_deleted":"0","num_feature":"14","num_nodes":"31","size_leaf_vector":"0"}},{"base_weights":[9.04899E-4,5.245634E-1,-6.306121E-1,8.3010167E-1,-4.46901E-2,-3.3722165E-1,-9.054796E-1,-4.0616333E-1,9.049203E-1,3.1422594E-1,-5.570416E-1,-8.527919E-1,-5.051477E-2,-6.9871527E-1,-1.0169002E0,3.595775E-1,-6.443077E-1,5.664742E-1,1.0020967E0,5.275713E-1,-3.0954722E-1,-2.6540816E-1,-9.2700344E-1,-9.738321E-1,-5.734713E-1,3.1700608E-1,-3.493324E-1,-8.7114495E-1,-3.513708E-1,-9.2512065E-1,-1.0488422E0],"categories":[],"categories_nodes":[],"categories_segments":[],"categories_sizes":[],"default_left":[1,1,1,1,1,1,1,1,1,1,1,1,1,1,1,0,0,0,0,0,0,0,0,0,0,0,0,0,0,0,0],"id":21,"left_children":[1,3,5,7,9,11,13,15,17,19,21,23,25,27,29,-1,-1,-1,-1,-1,-1,-1,-1,-1,-1,-1,-1,-1,-1,-1,-1],"loss_changes":[1.2039984E5,3.4617973E4,1.3309211E4,1.1980242E4,1.2783903E4,1.1800595E4,1.9623438E3,1.3481791E3,4.0160781E3,5.440551E3,3.0896064E3,9.639922E2,5.634413E3,1.7869844E3,1.6135547E2,0E0,0E0,0E0,0E0,0E0,0E0,0E0,0E0,0E0,0E0,0E0,0E0,0E0,0E0,0E0,0E0],"parents":[2147483647,0,0,1,1,2,2,3,3,4,4,5,5,6,6,7,7,8,8,9,9,10,10,11,11,12,12,13,13,14,14],"right_children":[2,4,6,8,10,12,14,16,18,20,22,24,26,28,30,-1,-1,-1,-1,-1,-1,-1,-1,-1,-1,-1,-1,-1,-1,-1,-1],"split_conditions":[3.052599E-2,1.3369304E-1,2.1920805E0,-4.315797E-1,2.8293628E-2,6.588938E-1,3.2521355E-1,3.0653816E-2,9.997107E-1,-3.8889158E0,3.272995E0,-9.059317E-1,2.2032969E-2,3.994356E0,3.6142728E0,3.595775E-2,-6.4430766E-2,5.664742E-2,1.0020967E-1,5.2757133E-2,-3.0954722E-2,-2.6540816E-2,-9.270035E-2,-9.738321E-2,-5.734713E-2,3.1700607E-2,-3.493324E-2,-8.71145E-2,-3.5137083E-2,-9.251206E-2,-1.0488422E-1],"split_indices":[3,8,9,12,4,12,8,7,12,11,9,12,4,5,9,0,0,0,0,0,0,0,0,0,0,0,0,0,0,0,0],"split_type":[0,0,0,0,0,0,0,0,0,0,0,0,0,0,0,0,0,0,0,0,0,0,0,0,0,0,0,0,0,0,0],"sum_hessian":[3.640746E5,1.9903417E5,1.6504042E5,1.29517266E5,6.951691E4,7.983147E4,8.520896E4,7.3908125E3,1.2212645E5,4.087985E4,2.8637055E4,2.8528379E4,5.130309E4,2.9840648E4,5.536831E4,1.7531473E3,5.637665E3,2.7244857E4,9.488159E4,3.0461457E4,1.0418395E4,1.6014704E4,1.262235E4,1.9901723E4,8.626656E3,2.30067E4,2.829639E4,1.9940314E4,9.900334E3,1.4302525E4,4.1065785E4],"tree_param":{"num_deleted":"0","num_feature":"14","num_nodes":"31","size_leaf_vector":"0"}},{"base_weights":[8.357947E-4,7.623068E-1,-3.9796272E-1,2.6876473E-1,9.434829E-1,-1.0200239E-1,-8.106844E-1,-3.981708E-2,6.432626E-1,1.0182498E0,5.634165E-1,2.5101098E-1,-5.3820455E-1,-9.168627E-1,-5.073526E-1,8.132074E-2,-8.8078773E-1,-3.7561513E-2,7.184141E-1,9.101438E-1,1.040035E0,2.9472968E-1,8.770737E-1,-7.1230894E-1,3.7569284E-1,-2.4430849E-1,-8.6460084E-1,-7.6311934E-1,-1.010627E0,-1.9955668E-1,-8.8280755E-1],"categories":[],"categories_nodes":[],"categories_segments":[],"categories_sizes":[],"default_left":[1,1,1,1,1,1,1,1,1,1,1,1,1,1,1,0,0,0,0,0,0,0,0,0,0,0,0,0,0,0,0],"id":22,"left_children":[1,3,5,7,9,11,13,15,17,19,21,23,25,27,29,-1,-1,-1,-1,-1,-1,-1,-1,-1,-1,-1,-1,-1,-1,-1,-1],"loss_changes":[1.0522802E5,1.0649977E4,2.777848E4,3.6960623E3,2.4750703E3,2.0394377E4,3.0583594E3,1.7864705E3,7.392744E2,1.705E2,1.2068477E3,8.792488E3,5.682629E3,1.0133242E3,2.8458042E3,0E0,0E0,0E0,0E0,0E0,0E0,0E0,0E0,0E0,0E0,0E0,0E0,0E0,0E0,0E0,0E0],"parents":[2147483647,0,0,1,1,2,2,3,3,4,4,5,5,6,6,7,7,8,8,9,9,10,10,11,11,12,12,13,13,14,14],"right_children":[2,4,6,8,10,12,14,16,18,20,22,24,26,28,30,-1,-1,-1,-1,-1,-1,-1,-1,-1,-1,-1,-1,-1,-1,-1,-1],"split_conditions":[5.9632264E-2,9.994273E-1,1.589583E-1,8.717496E-1,1.304161E-1,2.0064318E0,3.9114325E0,7.027081E-1,-8.433806E-1,8.862888E-1,6.079778E0,-5.178735E-1,3.7909704E-1,1.9179706E-1,2.6674485E0,8.132074E-3,-8.8078775E-2,-3.7561513E-3,7.184141E-2,9.101438E-2,1.04003504E-1,2.9472968E-2,8.770737E-2,-7.1230896E-2,3.7569284E-2,-2.4430849E-2,-8.646008E-2,-7.631194E-2,-1.0106271E-1,-1.9955669E-2,-8.828076E-2],"split_indices":[7,12,3,6,8,9,5,8,12,6,5,12,8,8,9,0,0,0,0,0,0,0,0,0,0,0,0,0,0,0,0],"split_type":[0,0,0,0,0,0,0,0,0,0,0,0,0,0,0,0,0,0,0,0,0,0,0,0,0,0,0,0,0,0,0],"sum_hessian":[3.4651497E5,1.1910102E5,2.2741394E5,3.1981805E4,8.711922E4,1.3244188E5,9.497206E4,1.7534488E4,1.4447317E4,7.279689E4,1.4322326E4,7.320131E4,5.9240555E4,7.034608E4,2.4625984E4,1.5327532E4,2.2069548E3,1.4362572E3,1.301106E4,1.2216631E4,6.0580266E4,7.715215E3,6.607112E3,8.388118E3,6.4813195E4,3.1173152E4,2.8067402E4,2.6652943E4,4.3693137E4,1.3533131E4,1.1092853E4],"tree_param":{"num_deleted":"0","num_feature":"14","num_nodes":"31","size_leaf_vector":"0"}},{"base_weights":[7.7521073E-4,-3.4663823E-1,8.025524E-1,-8.258117E-1,-9.85436E-2,2.7789208E-1,9.366283E-1,-9.7270226E-1,-5.8356124E-1,1.8027397E-1,-6.4020014E-1,3.9949778E-1,-8.76721E-1,1.0017886E0,5.6312627E-1,-9.88703E-1,-6.825375E-1,-1.5982236E-1,-7.5039345E-1,-1.5080072E-1,4.8812723E-1,-8.1099945E-1,6.4127547E-1,6.199894E-1,8.68369E-3,-3.133801E-1,-1.0725027E0,1.0277119E0,8.404486E-1,6.2446046E-1,-7.066491E-1],"categories":[],"categories_nodes":[],"categories_segments":[],"categories_sizes":[],"default_left":[1,1,1,1,1,1,1,1,1,1,1,1,1,1,1,0,0,0,0,0,0,0,0,0,0,0,0,0,0,0,0],"id":23,"left_children":[1,3,5,7,9,11,13,15,17,19,21,23,25,27,29,-1,-1,-1,-1,-1,-1,-1,-1,-1,-1,-1,-1,-1,-1,-1,-1],"loss_changes":[9.202402E4,2.7401307E4,7.0253594E3,2.7974023E3,2.2935607E4,2.854754E3,1.9353984E3,2.2658203E2,2.0982715E3,1.0218787E4,1.1296334E4,1.5849424E3,2.1334546E2,2.8240625E2,9.208613E2,0E0,0E0,0E0,0E0,0E0,0E0,0E0,0E0,0E0,0E0,0E0,0E0,0E0,0E0,0E0,0E0],"parents":[2147483647,0,0,1,1,2,2,3,3,4,4,5,5,6,6,7,7,8,8,9,9,10,10,11,11,12,12,13,13,14,14],"right_children":[2,4,6,8,10,12,14,16,18,20,22,24,26,28,30,-1,-1,-1,-1,-1,-1,-1,-1,-1,-1,-1,-1,-1,-1,-1,-1],"split_conditions":[8.318889E-1,6.591776E-1,9.9865913E-1,-9.356776E-1,4.387517E-1,2.5E0,1.1660337E-1,1.191736E1,1.5E0,3.3740034E0,8.866086E0,2.6028485E0,1.6486824E-2,4.6873353E-2,7.7114975E-1,-9.88703E-2,-6.825375E-2,-1.5982237E-2,-7.503935E-2,-1.5080072E-2,4.8812725E-2,-8.109995E-2,6.412755E-2,6.199894E-2,8.68369E-4,-3.133801E-2,-1.0725027E-1,1.02771185E-1,8.4044866E-2,6.2446047E-2,-7.066491E-2],"split_indices":[6,12,12,12,8,2,8,5,2,5,5,9,3,7,8,0,0,0,0,0,0,0,0,0,0,0,0,0,0,0,0],"split_type":[0,0,0,0,0,0,0,0,0,0,0,0,0,0,0,0,0,0,0,0,0,0,0,0,0,0,0,0,0,0,0],"sum_hessian":[3.3036822E5,2.3049453E5,9.987369E4,7.8628336E4,1.5186619E5,2.032842E4,7.9545266E4,4.8946312E4,2.9682023E4,1.0025871E5,5.160748E4,1.8392E4,1.9364209E3,6.7727914E4,1.1817349E4,4.638601E4,2.560302E3,8.385519E3,2.1296504E4,4.8307684E4,5.1951027E4,4.5538344E4,6.0691343E3,1.1757822E4,6.6341777E3,5.0008365E2,1.4363372E3,5.834758E4,9.380335E3,1.127332E4,5.440288E2],"tree_param":{"num_deleted":"0","num_feature":"14","num_nodes":"31","size_leaf_vector":"0"}},{"base_weights":[7.226735E-4,4.757145E-1,-5.478444E-1,6.1698366E-2,8.4228665E-1,-2.802249E-1,-8.538837E-1,-3.355569E-1,3.50258E-1,9.5702124E-1,2.7146327E-1,-8.606244E-1,-6.9480546E-2,-6.380999E-1,-9.792598E-1,-5.498017E-1,3.229474E-1,4.1893688E-1,-9.651274E-1,9.9896246E-1,5.9209067E-1,-1.1027929E-1,9.703932E-1,-9.6458226E-1,-6.7109936E-1,3.005228E-1,-3.1628382E-1,-7.888221E-1,-2.60014E-1,-8.706457E-1,-1.0193998E0],"categories":[],"categories_nodes":[],"categories_segments":[],"categories_sizes":[],"default_left":[1,1,1,1,1,1,1,1,1,1,1,1,1,1,1,0,0,0,0,0,0,0,0,0,0,0,0,0,0,0,0],"id":24,"left_children":[1,3,5,7,9,11,13,15,17,19,21,23,25,27,29,-1,-1,-1,-1,-1,-1,-1,-1,-1,-1,-1,-1,-1,-1,-1,-1],"loss_changes":[8.2135086E4,2.5648535E4,1.1980426E4,9.094605E3,5.8681523E3,9.545487E3,1.8455859E3,4.7097046E3,4.1520176E3,1.1413125E3,4.001576E3,4.0893457E2,5.22832E3,1.4290879E3,1.8728516E2,0E0,0E0,0E0,0E0,0E0,0E0,0E0,0E0,0E0,0E0,0E0,0E0,0E0,0E0,0E0,0E0],"parents":[2147483647,0,0,1,1,2,2,3,3,4,4,5,5,6,6,7,7,8,8,9,9,10,10,11,11,12,12,13,13,14,14],"right_children":[2,4,6,8,10,12,14,16,18,20,22,24,26,28,30,-1,-1,-1,-1,-1,-1,-1,-1,-1,-1,-1,-1,-1,-1,-1,-1],"split_conditions":[2.6717234E-2,9.998883E-1,2.3446598E0,6.6817486E-1,1.9514422E-1,-3.36653E-1,3.259688E-1,4.2507334E0,6.78262E-1,3.707195E-2,8.5156E0,-9.913738E-1,1.1537742E-2,4.8641386E0,3.8120642E0,-5.498017E-2,3.2294743E-2,4.1893687E-2,-9.651274E-2,9.9896245E-2,5.9209067E-2,-1.1027929E-2,9.703932E-2,-9.645823E-2,-6.7109935E-2,3.005228E-2,-3.162838E-2,-7.888221E-2,-2.60014E-2,-8.706457E-2,-1.01939976E-1],"split_indices":[3,12,9,6,8,12,8,5,8,4,5,12,4,5,9,0,0,0,0,0,0,0,0,0,0,0,0,0,0,0,0],"split_type":[0,0,0,0,0,0,0,0,0,0,0,0,0,0,0,0,0,0,0,0,0,0,0,0,0,0,0,0,0,0,0],"sum_hessian":[3.152173E5,1.6893792E5,1.4627939E5,7.93355E4,8.9602414E4,7.803911E4,6.824027E4,3.338069E4,4.595481E4,7.460604E4,1.4996373E4,2.0787182E4,5.7251926E4,2.5080512E4,4.315976E4,2.5186434E4,8.194259E3,4.3675125E4,2.2796843E3,6.691394E4,7.692107E3,9.699519E3,5.296855E3,1.3421277E4,7.3659053E3,2.2908168E4,3.4343758E4,1.7931227E4,7.1492856E3,1.165241E4,3.1507354E4],"tree_param":{"num_deleted":"0","num_feature":"14","num_nodes":"31","size_leaf_vector":"0"}},{"base_weights":[7.210013E-4,7.152603E-1,-3.3296135E-1,2.9804626E-1,9.219181E-1,-8.533624E-2,-7.803902E-1,5.6011055E-2,6.5583694E-1,1.0011762E0,5.5466604E-1,-8.316944E-1,9.215021E-2,-5.4170704E-1,-9.497451E-1,3.1484953E-1,-3.2187003E-1,4.5880493E-2,7.2095907E-1,8.896311E-1,1.0227871E0,6.2068367E-1,-5.160774E-1,-9.41393E-1,-5.7367843E-1,-1.6346452E-1,4.3259612E-1,-1.07116446E-1,-7.217667E-1,-9.81681E-1,-2.3408718E-1],"categories":[],"categories_nodes":[],"categories_segments":[],"categories_sizes":[],"default_left":[1,1,1,1,1,1,1,1,1,1,1,1,1,1,1,0,0,0,0,0,0,0,0,0,0,0,0,0,0,0,0],"id":25,"left_children":[1,3,5,7,9,11,13,15,17,19,21,23,25,27,29,-1,-1,-1,-1,-1,-1,-1,-1,-1,-1,-1,-1,-1,-1,-1,-1],"loss_changes":[7.183257E4,8.269426E3,2.2753725E4,2.7511897E3,1.8663008E3,1.7512924E4,2.9570234E3,1.8537677E3,5.0917627E2,1.2625E2,8.0522754E2,7.183457E2,9.29466E3,2.3764219E3,9.7791406E2,0E0,0E0,0E0,0E0,0E0,0E0,0E0,0E0,0E0,0E0,0E0,0E0,0E0,0E0,0E0,0E0],"parents":[2147483647,0,0,1,1,2,2,3,3,4,4,5,5,6,6,7,7,8,8,9,9,10,10,11,11,12,12,13,13,14,14],"right_children":[2,4,6,8,10,12,14,16,18,20,22,24,26,28,30,-1,-1,-1,-1,-1,-1,-1,-1,-1,-1,-1,-1,-1,-1,-1,-1],"split_conditions":[5.425651E-2,9.997308E-1,2.8465638E0,8.943329E-1,1.22482985E-1,-6.31288E-1,3.794972E-1,-4.1867023E0,-8.0762124E-1,8.8663954E-1,6.777068E0,-9.838349E-1,4.037962E0,2.0856915E-2,1.3443787E1,3.1484954E-2,-3.2187004E-2,4.5880494E-3,7.209591E-2,8.896311E-2,1.0227871E-1,6.206837E-2,-5.160774E-2,-9.41393E-2,-5.7367843E-2,-1.6346453E-2,4.3259613E-2,-1.0711645E-2,-7.217667E-2,-9.81681E-2,-2.3408718E-2],"split_indices":[7,12,9,6,8,12,8,11,12,6,9,12,5,4,5,0,0,0,0,0,0,0,0,0,0,0,0,0,0,0,0],"split_type":[0,0,0,0,0,0,0,0,0,0,0,0,0,0,0,0,0,0,0,0,0,0,0,0,0,0,0,0,0,0,0],"sum_hessian":[3.0127228E5,9.59042E4,2.0536808E5,3.1769111E4,6.413509E4,1.3220289E5,7.3165195E4,1.8950676E4,1.2818437E4,5.2749316E4,1.1385773E4,2.539774E4,1.0680515E5,3.0368723E4,4.2796473E4,1.1246969E4,7.7037065E3,1.2367074E3,1.1581729E4,8.567905E3,4.418141E4,1.0724938E4,6.6083484E2,1.7819092E4,7.578649E3,6.100311E4,4.580204E4,8.896881E3,2.1471844E4,4.0967926E4,1.8285468E3],"tree_param":{"num_deleted":"0","num_feature":"14","num_nodes":"31","size_leaf_vector":"0"}},{"base_weights":[6.9181103E-4,4.4349328E-1,-4.94697E-1,7.7847886E-1,3.1192202E-2,-2.3883389E-1,-8.0675495E-1,1.818067E-1,9.163742E-1,3.227247E-1,-3.8990143E-1,-4.940707E-1,3.142421E-1,-5.234932E-1,-9.2155224E-1,-5.862271E-1,3.5434815E-1,9.713878E-1,5.909589E-1,4.6675876E-1,-3.5517138E-1,-1.5765247E-1,-8.385885E-1,-8.588819E-1,-2.9195747E-1,6.27754E-1,-5.148842E-2,-7.5979847E-1,-1.5218551E-1,-8.036034E-1,-9.9484986E-1],"categories":[],"categories_nodes":[],"categories_segments":[],"categories_sizes":[],"default_left":[1,1,1,1,1,1,1,1,1,1,1,1,1,1,1,0,0,0,0,0,0,0,0,0,0,0,0,0,0,0,0],"id":26,"left_children":[1,3,5,7,9,11,13,15,17,19,21,23,25,27,29,-1,-1,-1,-1,-1,-1,-1,-1,-1,-1,-1,-1,-1,-1,-1,-1],"loss_changes":[6.3355496E4,2.1063197E4,1.0883852E4,6.922875E3,8.392705E3,1.0577164E4,1.9965391E3,2.0935366E3,1.2229766E3,3.9445645E3,2.914336E3,3.7787256E3,2.7120532E3,1.5541025E3,3.7701562E2,0E0,0E0,0E0,0E0,0E0,0E0,0E0,0E0,0E0,0E0,0E0,0E0,0E0,0E0,0E0,0E0],"parents":[2147483647,0,0,1,1,2,2,3,3,4,4,5,5,6,6,7,7,8,8,9,9,10,10,11,11,12,12,13,13,14,14],"right_children":[2,4,6,8,10,12,14,16,18,20,22,24,26,28,30,-1,-1,-1,-1,-1,-1,-1,-1,-1,-1,-1,-1,-1,-1,-1,-1],"split_conditions":[2.4738409E-2,1.06703386E-1,3.0688536E-1,9.9331486E-1,2.3914997E-2,9.997525E-1,1.8195872E0,-9.727708E-1,3.4719773E-2,-3.5306988E0,3.647972E0,-7.406249E-1,2.4398658E-2,3.8347778E0,3.863404E0,-5.8622714E-2,3.5434816E-2,9.7138785E-2,5.909589E-2,4.6675876E-2,-3.5517137E-2,-1.5765248E-2,-8.385885E-2,-8.588819E-2,-2.9195746E-2,6.2775396E-2,-5.1488425E-3,-7.597985E-2,-1.5218551E-2,-8.0360346E-2,-9.948499E-2],"split_indices":[3,8,8,12,4,12,9,12,4,11,9,12,4,5,9,0,0,0,0,0,0,0,0,0,0,0,0,0,0,0,0],"split_type":[0,0,0,0,0,0,0,0,0,0,0,0,0,0,0,0,0,0,0,0,0,0,0,0,0,0,0,0,0,0,0],"sum_hessian":[2.888192E5,1.5250406E5,1.3631511E5,8.414071E4,6.836336E4,7.49026E4,6.14125E4,1.5795602E4,6.834511E4,4.039632E4,2.796704E4,5.1251062E4,2.3651541E4,1.7712512E4,4.369999E4,2.8971445E3,1.2898457E4,5.846007E4,9.885036E3,3.3317574E4,7.078745E3,1.8429125E4,9.537915E3,1.827027E4,3.2980793E4,1.2734523E4,1.0917018E4,1.0823342E4,6.88917E3,1.6753154E4,2.6946836E4],"tree_param":{"num_deleted":"0","num_feature":"14","num_nodes":"31","size_leaf_vector":"0"}},{"base_weights":[6.5755885E-4,-2.6455867E-1,7.6039225E-1,-4.0245008E-2,-7.0213854E-1,3.019028E-1,9.1352284E-1,1.3279024E-1,-6.383915E-1,-8.4324414E-1,-3.3436504E-1,3.941629E-1,-7.916374E-1,9.774516E-1,5.5378264E-1,4.0065712E-1,-1.7663223E-1,-7.230013E-1,3.843792E-1,-6.4904255E-1,-9.5991725E-1,1.7119637E-1,-6.108727E-1,6.271333E-1,8.793761E-2,-4.116872E-1,-1.003845E0,1.0050356E0,8.185672E-1,7.292224E-1,1.885103E-1],"categories":[],"categories_nodes":[],"categories_segments":[],"categories_sizes":[],"default_left":[1,1,1,1,1,1,1,1,1,1,1,1,1,1,1,0,0,0,0,0,0,0,0,0,0,0,0,0,0,0,0],"id":27,"left_children":[1,3,5,7,9,11,13,15,17,19,21,23,25,27,29,-1,-1,-1,-1,-1,-1,-1,-1,-1,-1,-1,-1,-1,-1,-1,-1],"loss_changes":[5.574841E4,2.012991E4,5.0261406E3,1.4032876E4,3.6065117E3,1.8088707E3,1.2336914E3,8.716342E3,2.6328555E3,1.1374766E3,2.6943958E3,1.1793596E3,1.1206726E2,1.9888672E2,5.189607E2,0E0,0E0,0E0,0E0,0E0,0E0,0E0,0E0,0E0,0E0,0E0,0E0,0E0,0E0,0E0,0E0],"parents":[2147483647,0,0,1,1,2,2,3,3,4,4,5,5,6,6,7,7,8,8,9,9,10,10,11,11,12,12,13,13,14,14],"right_children":[2,4,6,8,10,12,14,16,18,20,22,24,26,28,30,-1,-1,-1,-1,-1,-1,-1,-1,-1,-1,-1,-1,-1,-1,-1,-1],"split_conditions":[8.4922636E-1,1.7883258E-1,9.992988E-1,3.6474278E0,3.9131494E0,2.5E0,1.1710168E-1,3.522537E-2,1.2635445E1,1.4989468E-1,1.10752776E-1,-4.362747E0,3.284436E-2,4.2496804E-2,3.9147075E-2,4.0065713E-2,-1.7663224E-2,-7.230013E-2,3.843792E-2,-6.490426E-2,-9.599172E-2,1.7119637E-2,-6.108727E-2,6.271333E-2,8.793761E-3,-4.116872E-2,-1.00384496E-1,1.00503564E-1,8.185672E-2,7.2922245E-2,1.885103E-2],"split_indices":[6,3,12,9,5,2,8,4,5,8,8,11,3,7,7,0,0,0,0,0,0,0,0,0,0,0,0,0,0,0,0],"split_type":[0,0,0,0,0,0,0,0,0,0,0,0,0,0,0,0,0,0,0,0,0,0,0,0,0,0,0,0,0,0,0],"sum_hessian":[2.7667334E5,2.0508184E5,7.159149E4,1.3558097E5,6.9500875E4,1.7925023E4,5.366647E4,1.0516035E5,3.0420613E4,5.022825E4,1.9272627E4,1.6530973E4,1.39405E3,4.55671E4,8.099364E3,5.636495E4,4.8795402E4,2.8096586E4,2.324027E3,1.8853428E4,3.1374824E4,6.8141475E3,1.24584795E4,9.387836E3,7.1431367E3,5.0062988E2,8.9342017E2,3.8821887E4,6.7452183E3,5.4707656E3,2.6285981E3],"tree_param":{"num_deleted":"0","num_feature":"14","num_nodes":"31","size_leaf_vector":"0"}},{"base_weights":[6.342114E-4,-2.4628489E-1,7.354385E-1,-8.154653E-1,-7.514803E-2,2.9391587E-1,9.0289104E-1,-9.4594604E-1,-6.1950415E-1,1.13627546E-1,-6.351188E-1,5.949677E-1,-3.683049E-2,9.701683E-1,5.273294E-1,-9.6259475E-1,-6.302502E-1,-2.9244408E-1,-7.786321E-1,4.839268E-1,-7.915882E-2,-8.1644005E-1,5.863909E-1,7.870341E-1,3.274591E-1,2.504687E-1,-5.476869E-1,9.9963033E-1,8.029023E-1,6.4902735E-1,-2.9660156E-2],"categories":[],"categories_nodes":[],"categories_segments":[],"categories_sizes":[],"default_left":[1,1,1,1,1,1,1,1,1,1,1,1,1,1,1,0,0,0,0,0,0,0,0,0,0,0,0,0,0,0,0],"id":28,"left_children":[1,3,5,7,9,11,13,15,17,19,21,23,25,27,29,-1,-1,-1,-1,-1,-1,-1,-1,-1,-1,-1,-1,-1,-1,-1,-1],"loss_changes":[4.826927E4,1.9396307E4,4.947496E3,1.1763906E3,1.6183602E4,1.8322236E3,1.2252578E3,1.4461523E2,9.574834E2,8.173858E3,8.54958E3,4.9467407E2,1.2871406E3,2.019414E2,4.997561E2,0E0,0E0,0E0,0E0,0E0,0E0,0E0,0E0,0E0,0E0,0E0,0E0,0E0,0E0,0E0,0E0],"parents":[2147483647,0,0,1,1,2,2,3,3,4,4,5,5,6,6,7,7,8,8,9,9,10,10,11,11,12,12,13,13,14,14],"right_children":[2,4,6,8,10,12,14,16,18,20,22,24,26,28,30,-1,-1,-1,-1,-1,-1,-1,-1,-1,-1,-1,-1,-1,-1,-1,-1],"split_conditions":[8.4922636E-1,-4.340208E-1,9.995004E-1,-9.916265E-1,5.580606E-1,2.2031981E-2,1.1705571E-1,1.4452041E1,2.4463508E-1,1.5E0,8.866086E0,1.1108182E-1,5.2142326E1,4.2496804E-2,4.000049E0,-9.6259475E-2,-6.302502E-2,-2.9244408E-2,-7.786321E-2,4.839268E-2,-7.915882E-3,-8.1644006E-2,5.863909E-2,7.870341E-2,3.274591E-2,2.504687E-2,-5.476869E-2,9.996303E-2,8.029023E-2,6.490274E-2,-2.9660156E-3],"split_indices":[6,12,12,12,8,7,8,5,7,2,5,8,0,7,9,0,0,0,0,0,0,0,0,0,0,0,0,0,0,0,0],"split_type":[0,0,0,0,0,0,0,0,0,0,0,0,0,0,0,0,0,0,0,0,0,0,0,0,0,0,0,0,0,0,0],"sum_hessian":[2.660364E5,1.9912452E5,6.691191E4,4.603013E4,1.5309439E5,1.8399809E4,4.8512094E4,2.7629316E4,1.840081E4,1.14496484E5,3.8597895E4,9.631882E3,8.767928E3,4.1140664E4,7.3714316E3,2.6243285E4,1.386031E3,6.023463E3,1.2377348E4,3.9200203E4,7.529628E4,3.360926E4,4.9886367E3,5.6053784E3,4.0265032E3,5.612204E3,3.1557231E3,3.49752E4,6.1654624E3,6.049497E3,1.3219347E3],"tree_param":{"num_deleted":"0","num_feature":"14","num_nodes":"31","size_leaf_vector":"0"}},{"base_weights":[5.439861E-4,3.9509588E-1,-4.1817555E-1,8.9313924E-2,8.125589E-1,-1.24339E-1,-6.8269396E-1,2.05316E-1,-6.806065E-1,9.3535066E-1,3.480721E-1,-7.650577E-1,3.0403512E-2,-4.7942188E-1,-9.128553E-1,-6.0299873E-1,2.9381824E-1,-9.484383E-1,-1.3001634E-1,9.808089E-1,6.442912E-1,-3.2541165E-3,9.692531E-1,-8.8707376E-1,-5.407665E-1,-2.5190508E-1,2.8268242E-1,-8.4124625E-1,-3.19176E-1,-9.516455E-1,-5.78947E-1],"categories":[],"categories_nodes":[],"categories_segments":[],"categories_sizes":[],"default_left":[1,1,1,1,1,1,1,1,1,1,1,1,1,1,1,0,0,0,0,0,0,0,0,0,0,0,0,0,0,0,0],"id":29,"left_children":[1,3,5,7,9,11,13,15,17,19,21,23,25,27,29,-1,-1,-1,-1,-1,-1,-1,-1,-1,-1,-1,-1,-1,-1,-1,-1],"loss_changes":[4.231295E4,1.6833002E4,9.65767E3,6.7981875E3,3.1794883E3,5.8364365E3,3.058838E3,4.73237E3,1.469626E3,5.8278516E2,2.5443267E3,3.1291406E2,3.3770725E3,2.0131299E3,3.9663867E2,0E0,0E0,0E0,0E0,0E0,0E0,0E0,0E0,0E0,0E0,0E0,0E0,0E0,0E0,0E0,0E0],"parents":[2147483647,0,0,1,1,2,2,3,3,4,4,5,5,6,6,7,7,8,8,9,9,10,10,11,11,12,12,13,13,14,14],"right_children":[2,4,6,8,10,12,14,16,18,20,22,24,26,28,30,-1,-1,-1,-1,-1,-1,-1,-1,-1,-1,-1,-1,-1,-1,-1,-1],"split_conditions":[2.0658277E-2,9.999602E-1,1.8314617E0,6.1577296E-1,1.4931813E-1,-6.4506435E-1,4.5597637E-1,-9.3981755E-1,4.4271708E0,2.4331164E-2,9.270037E0,-9.935644E-1,3.137498E0,-3.101172E-1,8.05892E0,-6.0299873E-2,2.9381825E-2,-9.484383E-2,-1.3001635E-2,9.8080896E-2,6.442913E-2,-3.2541165E-4,9.692531E-2,-8.870738E-2,-5.407665E-2,-2.5190508E-2,2.8268242E-2,-8.4124625E-2,-3.1917598E-2,-9.516455E-2,-5.7894703E-2],"split_indices":[3,12,9,8,8,12,8,12,5,4,5,12,5,12,5,0,0,0,0,0,0,0,0,0,0,0,0,0,0,0,0],"split_type":[0,0,0,0,0,0,0,0,0,0,0,0,0,0,0,0,0,0,0,0,0,0,0,0,0,0,0,0,0,0,0],"sum_hessian":[2.5611942E5,1.3186523E5,1.2425418E5,7.6114414E4,5.575083E4,5.886561E4,6.5388574E4,6.614868E4,9.965731E3,4.40933E4,1.1657524E4,1.1450467E4,4.7415145E4,3.472421E4,3.0664363E4,6.527298E3,5.9621383E4,6.7039204E3,3.2618108E3,3.8134938E4,5.958365E3,7.4467837E3,4.2107407E3,7.414156E3,4.036311E3,2.2375834E4,2.503931E4,1.0657054E4,2.4067156E4,2.7471182E4,3.1931826E3],"tree_param":{"num_deleted":"0","num_feature":"14","num_nodes":"31","size_leaf_vector":"0"}},{"base_weights":[4.284893E-4,3.90392E-1,-3.97275E-1,6.9355285E-1,-1.2744929E-2,5.5799402E-2,-5.9142727E-1,2.906703E-1,9.181084E-1,1.3167283E-1,-7.22089E-1,2.9287E-1,-4.74974E-1,-7.705553E-1,-1.5446079E-1,5.7122856E-1,-1.799463E-2,9.331501E-1,1.2572102E-1,3.524952E-1,-2.4812822E-1,-5.5721426E-1,-9.365681E-1,-6.7497486E-1,3.9546287E-1,-7.7157706E-1,-2.2405384E-1,-5.4136246E-1,-9.0043145E-1,2.2646561E-1,-4.661802E-1],"categories":[],"categories_nodes":[],"categories_segments":[],"categories_sizes":[],"default_left":[1,1,1,1,1,1,1,1,1,1,1,1,1,1,1,0,0,0,0,0,0,0,0,0,0,0,0,0,0,0,0],"id":30,"left_children":[1,3,5,7,9,11,13,15,17,19,21,23,25,27,29,-1,-1,-1,-1,-1,-1,-1,-1,-1,-1,-1,-1,-1,-1,-1,-1],"loss_changes":[3.8275734E4,1.5229402E4,1.074818E4,6.434367E3,5.479428E3,4.6123086E3,6.6948223E3,2.2045095E3,5.4421094E2,3.727246E3,3.1942676E2,2.516138E3,8.420925E2,1.805293E3,2.9532046E3,0E0,0E0,0E0,0E0,0E0,0E0,0E0,0E0,0E0,0E0,0E0,0E0,0E0,0E0,0E0,0E0],"parents":[2147483647,0,0,1,1,2,2,3,3,4,4,5,5,6,6,7,7,8,8,9,9,10,10,11,11,12,12,13,13,14,14],"right_children":[2,4,6,8,10,12,14,16,18,20,22,24,26,28,30,-1,-1,-1,-1,-1,-1,-1,-1,-1,-1,-1,-1,-1,-1,-1,-1],"split_conditions":[2.0729603E-2,1.3622648E-1,1.5E0,9.998617E-1,1.6446938E-1,-3.9415796E0,4.625146E0,1.5E0,2.6974934E-1,-4.3521967E0,2.8973613E0,-9.456483E-1,6.2079334E-1,1.5156642E0,-5.5996222E0,5.7122856E-2,-1.799463E-3,9.331501E-2,1.2572102E-2,3.524952E-2,-2.4812823E-2,-5.572143E-2,-9.365681E-2,-6.7497484E-2,3.954629E-2,-7.7157706E-2,-2.2405384E-2,-5.4136246E-2,-9.004315E-2,2.2646561E-2,-4.6618022E-2],"split_indices":[4,8,2,12,3,11,5,2,3,11,9,12,6,9,10,0,0,0,0,0,0,0,0,0,0,0,0,0,0,0,0],"split_type":[0,0,0,0,0,0,0,0,0,0,0,0,0,0,0,0,0,0,0,0,0,0,0,0,0,0,0,0,0,0,0],"sum_hessian":[2.4679517E5,1.2461015E5,1.22185016E5,7.1123914E4,5.3486234E4,3.6652754E4,8.553226E4,2.5455553E4,4.5668363E4,4.443947E4,9.046768E3,2.5336586E4,1.1316168E4,6.0663414E4,2.4868846E4,1.3334461E4,1.2121092E4,4.4817426E4,8.5093805E2,2.810111E4,1.6338359E4,5.116896E3,3.929871E3,2.4277747E3,2.290881E4,5.1850474E3,6.1311206E3,2.194397E4,3.8719445E4,1.1192138E4,1.3676707E4],"tree_param":{"num_deleted":"0","num_feature":"14","num_nodes":"31","size_leaf_vector":"0"}},{"base_weights":[3.5645414E-4,-1.9748966E-1,7.121288E-1,-7.8714985E-1,-6.0576502E-2,3.2482085E-1,9.001353E-1,-9.0965056E-1,-5.9035105E-1,8.9272015E-2,-5.9656924E-1,5.86858E-1,3.6565687E-3,9.686913E-1,5.654703E-1,-9.232618E-1,-4.1814926E-1,-2.5525627E-1,-7.399469E-1,3.7465128E-1,-1.09868534E-1,-7.396883E-1,8.3681196E-1,-1.2436388E-1,6.646624E-1,2.5283518E-1,-4.496738E-1,9.926268E-1,8.1381404E-1,6.786384E-1,8.9157894E-2],"categories":[],"categories_nodes":[],"categories_segments":[],"categories_sizes":[],"default_left":[1,1,1,1,1,1,1,1,1,1,1,1,1,1,1,0,0,0,0,0,0,0,0,0,0,0,0,0,0,0,0],"id":31,"left_children":[1,3,5,7,9,11,13,15,17,19,21,23,25,27,29,-1,-1,-1,-1,-1,-1,-1,-1,-1,-1,-1,-1,-1,-1,-1,-1],"loss_changes":[3.350856E4,1.5031924E4,3.7683477E3,8.453164E2,1.2136897E4,1.4234833E3,7.9883594E2,1.4427148E2,6.747324E2,6.71147E3,6.773665E3,5.155261E2,8.587127E2,1.0638672E2,3.1938306E2,0E0,0E0,0E0,0E0,0E0,0E0,0E0,0E0,0E0,0E0,0E0,0E0,0E0,0E0,0E0,0E0],"parents":[2147483647,0,0,1,1,2,2,3,3,4,4,5,5,6,6,7,7,8,8,9,9,10,10,11,11,12,12,13,13,14,14],"right_children":[2,4,6,8,10,12,14,16,18,20,22,24,26,28,30,-1,-1,-1,-1,-1,-1,-1,-1,-1,-1,-1,-1,-1,-1,-1,-1],"split_conditions":[8.6496687E-1,-7.161987E-1,9.9974954E-1,-9.937682E-1,5.911422E-1,2.2031981E-2,1.01697475E-1,2.4735668E1,1.5E0,8.480106E-3,1.2112686E1,1.2772608E1,2.9129522E0,4.2075075E-2,3.7620008E0,-9.232619E-2,-4.1814927E-2,-2.5525628E-2,-7.399469E-2,3.746513E-2,-1.0986853E-2,-7.396883E-2,8.3681196E-2,-1.2436388E-2,6.646624E-2,2.528352E-2,-4.496738E-2,9.926268E-2,8.13814E-2,6.7863844E-2,8.915789E-3],"split_indices":[6,12,12,12,8,7,8,5,2,4,5,0,9,7,9,0,0,0,0,0,0,0,0,0,0,0,0,0,0,0,0],"split_type":[0,0,0,0,0,0,0,0,0,0,0,0,0,0,0,0,0,0,0,0,0,0,0,0,0,0,0,0,0,0,0],"sum_hessian":[2.3794877E5,1.861944E5,5.1754363E4,3.508499E4,1.5110942E5,1.6913648E4,3.4840715E4,2.1622238E4,1.3462748E4,1.1809438E5,3.301504E4,9.313754E3,7.5998955E3,2.891549E4,5.925226E3,2.1038729E4,5.8350903E2,4.156004E3,9.306744E3,4.8537137E4,6.955724E4,3.0018283E4,2.9967559E3,9.183537E2,8.3954E3,4.904512E3,2.6953833E3,2.5040244E4,3.875245E3,4.7873613E3,1.1378646E3],"tree_param":{"num_deleted":"0","num_feature":"14","num_nodes":"31","size_leaf_vector":"0"}},{"base_weights":[3.1965948E-4,5.975747E-1,-2.1387038E-1,8.538476E-1,2.413352E-1,-3.517573E-2,-6.743508E-1,4.9164876E-1,9.5780313E-1,3.7724292E-1,-3.5148475E-1,-7.342403E-1,7.301963E-2,-7.968049E-1,-2.7862486E-1,2.6659894E-1,7.515168E-1,8.2358E-1,9.9002653E-1,4.4347504E-1,-4.2285612E-1,-4.6092268E-2,-5.784724E-1,-8.570428E-1,-4.9480447E-1,-3.2567322E-2,6.652218E-1,-4.40842E-1,-9.156035E-1,-5.88359E-1,6.422758E-2],"categories":[],"categories_nodes":[],"categories_segments":[],"categories_sizes":[],"default_left":[1,1,1,1,1,1,1,1,1,1,1,1,1,1,1,0,0,0,0,0,0,0,0,0,0,0,0,0,0,0,0],"id":32,"left_children":[1,3,5,7,9,11,13,15,17,19,21,23,25,27,29,-1,-1,-1,-1,-1,-1,-1,-1,-1,-1,-1,-1,-1,-1,-1,-1],"loss_changes":[2.94449E4,5.54651E3,1.394035E4,1.3300078E3,2.0483203E3,9.231564E3,2.2949277E3,4.6077307E2,1.17927734E2,1.0961177E3,3.2866577E2,4.805713E2,6.6090054E3,1.5291543E3,1.1887908E3,0E0,0E0,0E0,0E0,0E0,0E0,0E0,0E0,0E0,0E0,0E0,0E0,0E0,0E0,0E0,0E0],"parents":[2147483647,0,0,1,1,2,2,3,3,4,4,5,5,6,6,7,7,8,8,9,9,10,10,11,11,12,12,13,13,14,14],"right_children":[2,4,6,8,10,12,14,16,18,20,22,24,26,28,30,-1,-1,-1,-1,-1,-1,-1,-1,-1,-1,-1,-1,-1,-1,-1,-1],"split_conditions":[4.4393778E-2,9.606804E-2,3.1819859E0,9.9913E-1,-3.4847174E0,-8.4963197E-1,5.765377E0,9.2505485E-1,8.997942E-1,7.88082E-1,-4.505609E0,-9.936352E-1,8.562972E0,1.5E0,9.929347E-1,2.6659895E-2,7.515168E-2,8.2358E-2,9.900265E-2,4.4347506E-2,-4.2285614E-2,-4.6092267E-3,-5.784724E-2,-8.570428E-2,-4.948045E-2,-3.2567324E-3,6.652218E-2,-4.4084202E-2,-9.156036E-2,-5.88359E-2,6.422758E-3],"split_indices":[7,8,9,12,11,12,5,6,6,8,10,12,5,2,12,0,0,0,0,0,0,0,0,0,0,0,0,0,0,0,0],"split_type":[0,0,0,0,0,0,0,0,0,0,0,0,0,0,0,0,0,0,0,0,0,0,0,0,0,0,0,0,0,0,0],"sum_hessian":[2.3016922E5,6.0755277E4,1.6941394E5,3.5334684E4,2.5420594E4,1.2205154E5,4.7362402E4,7.881146E3,2.7453535E4,2.067995E4,4.740646E3,1.6357538E4,1.05694E5,3.616915E4,1.1193257E4,4.224601E3,3.656545E3,5.3200415E3,2.2133494E4,1.9099352E4,1.5805968E3,2.021753E3,2.7188928E3,1.0810461E4,5.5470767E3,8.970156E4,1.5992437E4,9.051709E3,2.7117438E4,5.8802773E3,5.31298E3],"tree_param":{"num_deleted":"0","num_feature":"14","num_nodes":"31","size_leaf_vector":"0"}},{"base_weights":[3.2628575E-4,-1.6768692E-1,6.8548334E-1,1.10365935E-1,-4.2265388E-1,3.046229E-1,8.8436675E-1,2.5847468E-1,-3.8740835E-1,-2.4504475E-1,-7.998845E-1,5.443335E-1,2.127E-2,9.6261734E-1,5.6005114E-1,1.0451453E-1,5.7584745E-1,-6.790283E-1,1.8632796E-2,-4.9582377E-1,6.1676204E-3,-8.759166E-1,3.5191515E-1,6.449209E-4,6.447012E-1,2.434458E-1,-4.2702362E-1,9.8930156E-1,8.305256E-1,6.3189167E-1,-1.7145652E-1],"categories":[],"categories_nodes":[],"categories_segments":[],"categories_sizes":[],"default_left":[1,1,1,1,1,1,1,1,1,1,1,1,1,1,1,0,0,0,0,0,0,0,0,0,0,0,0,0,0,0,0],"id":33,"left_children":[1,3,5,7,9,11,13,15,17,19,21,23,25,27,29,-1,-1,-1,-1,-1,-1,-1,-1,-1,-1,-1,-1,-1,-1,-1,-1],"loss_changes":[2.5667639E4,1.2694619E4,3.325748E3,6.31497E3,6.258211E3,1.0232379E3,7.315039E2,3.2255498E3,2.3259607E3,4.001046E3,2.618836E3,4.453291E2,6.8784375E2,8.1083984E1,2.9489343E2,0E0,0E0,0E0,0E0,0E0,0E0,0E0,0E0,0E0,0E0,0E0,0E0,0E0,0E0,0E0,0E0],"parents":[2147483647,0,0,1,1,2,2,3,3,4,4,5,5,6,6,7,7,8,8,9,9,10,10,11,11,12,12,13,13,14,14],"right_children":[2,4,6,8,10,12,14,16,18,20,22,24,26,28,30,-1,-1,-1,-1,-1,-1,-1,-1,-1,-1,-1,-1,-1,-1,-1,-1],"split_conditions":[8.72246E-1,1.6667523E0,9.9974954E-1,2.1127957E-1,5.735396E-1,2.07497E-2,9.377922E-2,9.9995947E-1,2.9772263E0,3.2703278E0,1.3381002E1,1.421014E1,5.6419586E1,3.342767E-2,5.243149E-1,1.0451454E-2,5.7584744E-2,-6.7902826E-2,1.8632796E-3,-4.9582377E-2,6.1676203E-4,-8.759166E-2,3.5191517E-2,6.4492095E-5,6.447012E-2,2.434458E-2,-4.2702362E-2,9.893016E-2,8.305256E-2,6.318917E-2,-1.7145652E-2],"split_indices":[6,9,12,3,8,7,8,12,5,5,5,0,0,7,8,0,0,0,0,0,0,0,0,0,0,0,0,0,0,0,0],"split_type":[0,0,0,0,0,0,0,0,0,0,0,0,0,0,0,0,0,0,0,0,0,0,0,0,0,0,0,0,0,0,0],"sum_hessian":[2.2297103E5,1.7906238E5,4.390866E4,8.565373E4,9.340865E4,1.5063909E4,2.884475E4,6.601267E4,1.9641059E4,6.3508836E4,2.9899816E4,8.1598906E3,6.904018E3,2.3236342E4,5.6084087E3,4.4450633E4,2.1562037E4,1.1430772E4,8.210286E3,3.1781344E4,3.172749E4,2.8048527E4,1.8512883E3,1.271768E3,6.8881226E3,4.6165146E3,2.2875032E3,1.9325795E4,3.910548E3,5.1069927E3,5.0141577E2],"tree_param":{"num_deleted":"0","num_feature":"14","num_nodes":"31","size_leaf_vector":"0"}},{"base_weights":[3.2415864E-4,3.2341084E-1,-3.2977802E-1,7.4304186E-2,7.325222E-1,-8.359765E-2,-6.0177386E-1,3.0780327E-1,-3.3958414E-1,2.888702E-1,8.825512E-1,-2.7279475E-1,4.2788455E-1,-4.2084613E-1,-8.548739E-1,4.888782E-1,-2.2463286E-1,-5.8965737E-1,-6.097879E-2,6.487693E-1,9.70923E-2,7.151016E-1,9.8172754E-1,-7.603773E-1,-1.5432592E-1,1.8733129E-2,5.856492E-1,-6.0082775E-1,-1.6760394E-1,-5.2030903E-1,-9.0247715E-1],"categories":[],"categories_nodes":[],"categories_segments":[],"categories_sizes":[],"default_left":[1,1,1,1,1,1,1,1,1,1,1,1,1,1,1,0,0,0,0,0,0,0,0,0,0,0,0,0,0,0,0],"id":34,"left_children":[1,3,5,7,9,11,13,15,17,19,21,23,25,27,29,-1,-1,-1,-1,-1,-1,-1,-1,-1,-1,-1,-1,-1,-1,-1,-1],"loss_changes":[2.3074531E4,1.1142938E4,7.1656973E3,6.5679404E3,2.7540215E3,5.4362456E3,2.3278242E3,4.1890483E3,1.7077759E3,7.2179663E2,5.128242E2,2.3685793E3,9.7911743E2,1.351312E3,3.370547E2,0E0,0E0,0E0,0E0,0E0,0E0,0E0,0E0,0E0,0E0,0E0,0E0,0E0,0E0,0E0,0E0],"parents":[2147483647,0,0,1,1,2,2,3,3,4,4,5,5,6,6,7,7,8,8,9,9,10,10,11,11,12,12,13,13,14,14],"right_children":[2,4,6,8,10,12,14,16,18,20,22,24,26,28,30,-1,-1,-1,-1,-1,-1,-1,-1,-1,-1,-1,-1,-1,-1,-1,-1],"split_conditions":[1.9229919E-2,6.998672E0,2.0652166E-1,1.5E0,9.99076E-1,9.9993885E-1,3.1730442E0,-3.9028554E0,3.2881427E0,4.9709633E-2,1.2510561E1,-9.634625E-1,2.7141466E0,3.8100212E0,1.5E0,4.888782E-2,-2.2463286E-2,-5.896574E-2,-6.097879E-3,6.487694E-2,9.709231E-3,7.151016E-2,9.8172754E-2,-7.603773E-2,-1.5432592E-2,1.8733129E-3,5.856492E-2,-6.0082775E-2,-1.6760394E-2,-5.2030902E-2,-9.024771E-2],"split_indices":[3,5,8,2,12,12,9,11,5,8,5,12,5,5,2,0,0,0,0,0,0,0,0,0,0,0,0,0,0,0,0],"split_type":[0,0,0,0,0,0,0,0,0,0,0,0,0,0,0,0,0,0,0,0,0,0,0,0,0,0,0,0,0,0,0],"sum_hessian":[2.1635225E5,1.0933799E5,1.07014266E5,6.7959086E4,4.1378902E4,5.617354E4,5.0840727E4,4.3447832E4,2.4511256E4,1.0457596E4,3.0921307E4,4.1005926E4,1.5167612E4,2.964894E4,2.1191787E4,3.2421697E4,1.1026136E4,1.2916462E4,1.1594794E4,3.6345151E3,6.823081E3,1.150479E4,1.9416516E4,8.0146387E3,3.299129E4,4.221241E3,1.094637E4,1.7330568E4,1.2318371E4,2.641156E3,1.855063E4],"tree_param":{"num_deleted":"0","num_feature":"14","num_nodes":"31","size_leaf_vector":"0"}},{"base_weights":[3.439359E-4,3.39789E-1,-2.9597935E-1,8.9728616E-2,7.231202E-1,-2.3086792E-2,-5.479415E-1,3.9017057E-1,-1.8992095E-1,9.1541636E-1,3.524036E-1,-3.7661088E-1,1.8665203E-1,-3.978636E-1,-8.76437E-1,4.418775E-1,-8.558622E-1,4.057319E-2,-5.092077E-1,7.854813E-1,9.829436E-1,6.445313E-2,7.6163566E-1,-7.642491E-1,-2.0704865E-1,5.187072E-1,-2.8848547E-2,2.1777175E-4,-5.453324E-1,-2.2724265E-1,-9.071846E-1],"categories":[],"categories_nodes":[],"categories_segments":[],"categories_sizes":[],"default_left":[1,1,1,1,1,1,1,1,1,1,1,1,1,1,1,0,0,0,0,0,0,0,0,0,0,0,0,0,0,0,0],"id":35,"left_children":[1,3,5,7,9,11,13,15,17,19,21,23,25,27,29,-1,-1,-1,-1,-1,-1,-1,-1,-1,-1,-1,-1,-1,-1,-1,-1],"loss_changes":[2.1111643E4,9.377125E3,7.7051943E3,4.97445E3,2.752875E3,3.9890317E3,2.872123E3,1.8393062E3,2.2567437E3,2.2235156E2,1.5545486E3,1.3165586E3,2.4162385E3,2.3479155E3,3.6450098E2,0E0,0E0,0E0,0E0,0E0,0E0,0E0,0E0,0E0,0E0,0E0,0E0,0E0,0E0,0E0,0E0],"parents":[2147483647,0,0,1,1,2,2,3,3,4,4,5,5,6,6,7,7,8,8,9,9,10,10,11,11,12,12,13,13,14,14],"right_children":[2,4,6,8,10,12,14,16,18,20,22,24,26,28,30,-1,-1,-1,-1,-1,-1,-1,-1,-1,-1,-1,-1,-1,-1,-1,-1],"split_conditions":[1.2356378E-2,9.9996436E-1,1.485799E-1,1.5E0,1.0858685E-1,9.430983E-1,4.2129893E0,7.484778E-1,-4.6070538E0,7.7930975E0,7.0462074E0,-9.91397E-1,1.5E0,1.5E0,5E-1,4.418775E-2,-8.558622E-2,4.0573194E-3,-5.0920773E-2,7.8548126E-2,9.829436E-2,6.4453133E-3,7.616357E-2,-7.642491E-2,-2.0704865E-2,5.1870722E-2,-2.8848548E-3,2.1777176E-5,-5.453324E-2,-2.2724265E-2,-9.071846E-2],"split_indices":[4,12,8,2,8,12,9,8,11,5,5,12,2,2,2,0,0,0,0,0,0,0,0,0,0,0,0,0,0,0,0],"split_type":[0,0,0,0,0,0,0,0,0,0,0,0,0,0,0,0,0,0,0,0,0,0,0,0,0,0,0,0,0,0,0],"sum_hessian":[2.0988558E5,9.782485E4,1.12060734E5,5.9204746E4,3.86201E4,5.3796484E4,5.826425E4,2.8541135E4,3.0663611E4,2.5428496E4,1.31916045E4,2.0031578E4,3.3764906E4,3.999443E4,1.826982E4,2.7404566E4,1.1365688E3,1.7808484E4,1.2855128E4,8.70024E3,1.6728256E4,7.743885E3,5.44772E3,6.0947627E3,1.3936814E4,1.3288243E4,2.0476664E4,1.0811246E4,2.9183182E4,8.265574E2,1.7443264E4],"tree_param":{"num_deleted":"0","num_feature":"14","num_nodes":"31","size_leaf_vector":"0"}},{"base_weights":[3.6430062E-4,-2.0051655E-1,4.4836628E-1,2.1421741E-1,-4.5212305E-1,9.581209E-2,7.594097E-1,2.9173017E-1,-8.644937E-1,-2.8861424E-1,-7.9555815E-1,5.4556125E-1,-6.628145E-2,5.1451755E-1,9.327132E-1,4.5176467E-1,-1.5368581E-1,-5.038676E-1,-9.691358E-1,-5.128091E-1,-7.173192E-2,-6.681056E-1,-9.4933903E-1,4.477286E-2,6.407572E-1,4.3389797E-1,-3.109813E-1,7.1927404E-1,1.1507256E-1,9.51373E-1,2.742541E-1],"categories":[],"categories_nodes":[],"categories_segments":[],"categories_sizes":[],"default_left":[1,1,1,1,1,1,1,1,1,1,1,1,1,1,1,0,0,0,0,0,0,0,0,0,0,0,0,0,0,0,0],"id":36,"left_children":[1,3,5,7,9,11,13,15,17,19,21,23,25,27,29,-1,-1,-1,-1,-1,-1,-1,-1,-1,-1,-1,-1,-1,-1,-1,-1],"loss_changes":[1.8338531E4,1.4680947E4,6.9176826E3,4.442157E3,4.917002E3,2.1557317E3,1.4219141E3,3.5330415E3,1.3391699E2,2.8845317E3,5.5291797E2,3.7344165E2,2.6606108E3,1.1360518E3,2.4086328E2,0E0,0E0,0E0,0E0,0E0,0E0,0E0,0E0,0E0,0E0,0E0,0E0,0E0,0E0,0E0,0E0],"parents":[2147483647,0,0,1,1,2,2,3,3,4,4,5,5,6,6,7,7,8,8,9,9,10,10,11,11,12,12,13,13,14,14],"right_children":[2,4,6,8,10,12,14,16,18,20,22,24,26,28,30,-1,-1,-1,-1,-1,-1,-1,-1,-1,-1,-1,-1,-1,-1,-1,-1],"split_conditions":[6.201929E0,1.5E0,9.9990547E-1,6.6996896E-1,2.6159635E0,2.1797657E-2,1.0780567E1,-3.9839358E0,7.708167E-1,2.6544695E0,5.6322634E-1,-4.3376878E-1,5.349271E-1,1.6065733E-1,5.9982114E0,4.517647E-2,-1.5368581E-2,-5.0386764E-2,-9.691358E-2,-5.1280912E-2,-7.1731918E-3,-6.681056E-2,-9.4933905E-2,4.4772862E-3,6.407572E-2,4.3389797E-2,-3.1098131E-2,7.1927406E-2,1.1507257E-2,9.51373E-2,2.7425412E-2],"split_indices":[5,2,12,8,9,7,5,11,8,5,8,12,6,8,9,0,0,0,0,0,0,0,0,0,0,0,0,0,0,0,0],"split_type":[0,0,0,0,0,0,0,0,0,0,0,0,0,0,0,0,0,0,0,0,0,0,0,0,0,0,0,0,0,0,0],"sum_hessian":[2.0377075E5,1.4068788E5,6.3082875E4,5.3123023E4,8.756485E4,2.9569004E4,3.351387E4,4.9562363E4,3.5606636E3,5.9323082E4,2.8241766E4,7.8329946E3,2.1736008E4,1.3890052E4,1.962382E4,3.6461875E4,1.3100485E4,8.0212616E2,2.7585376E3,2.9169117E4,3.0153965E4,1.5445766E4,1.2796001E4,1.2513909E3,6.581604E3,7.140229E3,1.4595779E4,9.182354E3,4.7076978E3,1.9082602E4,5.4121796E2],"tree_param":{"num_deleted":"0","num_feature":"14","num_nodes":"31","size_leaf_vector":"0"}},{"base_weights":[3.399306E-4,3.179748E-1,-2.6082554E-1,1.0765536E-1,7.0857286E-1,-1.3070395E-2,-4.9913117E-1,2.0258465E-1,-6.1693054E-1,9.02812E-1,3.4127066E-1,-6.659358E-1,8.4185265E-2,-3.565044E-1,-8.3903176E-1,2.7399617E-1,-4.4940853E-1,6.196438E-1,-7.5399894E-1,7.743928E-1,9.7162294E-1,1.16038196E-1,7.889521E-1,-2.639017E-1,-7.586296E-1,3.5319063E-1,-9.446631E-2,-4.362926E-1,2.5741762E-1,-1.7920198E-1,-8.7383723E-1],"categories":[],"categories_nodes":[],"categories_segments":[],"categories_sizes":[],"default_left":[1,1,1,1,1,1,1,1,1,1,1,1,1,1,1,0,0,0,0,0,0,0,0,0,0,0,0,0,0,0,0],"id":37,"left_children":[1,3,5,7,9,11,13,15,17,19,21,23,25,27,29,-1,-1,-1,-1,-1,-1,-1,-1,-1,-1,-1,-1,-1,-1,-1,-1],"loss_changes":[1.6430441E4,7.341711E3,6.417432E3,3.99595E3,2.2312832E3,3.3837837E3,2.6855996E3,2.3916033E3,1.1410667E3,1.8003516E2,1.0910322E3,2.5729028E2,2.229111E3,1.9118911E3,3.7591895E2,0E0,0E0,0E0,0E0,0E0,0E0,0E0,0E0,0E0,0E0,0E0,0E0,0E0,0E0,0E0,0E0],"parents":[2147483647,0,0,1,1,2,2,3,3,4,4,5,5,6,6,7,7,8,8,9,9,10,10,11,11,12,12,13,13,14,14],"right_children":[2,4,6,8,10,12,14,16,18,20,22,24,26,28,30,-1,-1,-1,-1,-1,-1,-1,-1,-1,-1,-1,-1,-1,-1,-1,-1],"split_conditions":[9.524863E-3,9.999769E-1,1.4857964E-1,7.002517E-1,1.07041895E-1,-9.659338E-1,4.2129893E0,2.4237037E-1,3.1706515E-1,7.785002E0,8.515879E0,1.4690545E-1,1.5E0,8.519615E0,5E-1,2.7399618E-2,-4.4940855E-2,6.196438E-2,-7.53999E-2,7.743928E-2,9.71623E-2,1.160382E-2,7.889521E-2,-2.639017E-2,-7.586297E-2,3.5319064E-2,-9.446631E-3,-4.362926E-2,2.5741762E-2,-1.7920198E-2,-8.7383725E-2],"split_indices":[4,12,8,8,8,12,9,3,6,5,5,7,2,5,2,0,0,0,0,0,0,0,0,0,0,0,0,0,0,0,0],"split_type":[0,0,0,0,0,0,0,0,0,0,0,0,0,0,0,0,0,0,0,0,0,0,0,0,0,0,0,0,0,0,0],"sum_hessian":[1.980619E5,8.936911E4,1.0869279E5,5.8090996E4,3.1278111E4,5.3290363E4,5.5402426E4,5.136261E4,6.728387E3,2.045795E4,1.0820163E4,6.9085127E3,4.638185E4,3.902787E4,1.6374556E4,4.629283E4,5.069781E3,6.7103827E2,6.057349E3,7.14178E3,1.3316169E4,7.199361E3,3.6208025E3,1.2951222E3,5.6133906E3,1.8509746E4,2.7872105E4,3.4539277E4,4.488595E3,8.2077295E2,1.5553783E4],"tree_param":{"num_deleted":"0","num_feature":"14","num_nodes":"31","size_leaf_vector":"0"}},{"base_weights":[2.6687604E-4,-1.1597285E-1,6.2648433E-1,-6.927294E-1,-1.832761E-2,2.7011293E-1,8.524345E-1,-8.5744077E-1,-5.087563E-1,1.9127329E-1,-2.5044194E-1,5.043747E-1,1.4260335E-2,9.463781E-1,5.2265495E-1,-9.02792E-1,-6.353593E-1,-1.8377236E-1,-6.527718E-1,1.0560413E-1,7.622263E-1,-1.3039732E-1,-7.5934273E-1,6.655561E-1,3.007562E-1,4.853945E-1,-2.7101302E-1,9.696353E-1,7.7978015E-1,6.399753E-1,9.880404E-2],"categories":[],"categories_nodes":[],"categories_segments":[],"categories_sizes":[],"default_left":[1,1,1,1,1,1,1,1,1,1,1,1,1,1,1,0,0,0,0,0,0,0,0,0,0,0,0,0,0,0,0],"id":38,"left_children":[1,3,5,7,9,11,13,15,17,19,21,23,25,27,29,-1,-1,-1,-1,-1,-1,-1,-1,-1,-1,-1,-1,-1,-1,-1,-1],"loss_changes":[1.4047894E4,9.167021E3,2.4327021E3,7.1372266E2,6.7735195E3,7.027574E2,5.7234766E2,1.2465039E2,5.2104517E2,3.5779998E3,4.0353486E3,2.0068188E2,7.535012E2,5.4998047E1,2.0390002E2,0E0,0E0,0E0,0E0,0E0,0E0,0E0,0E0,0E0,0E0,0E0,0E0,0E0,0E0,0E0,0E0],"parents":[2147483647,0,0,1,1,2,2,3,3,4,4,5,5,6,6,7,7,8,8,9,9,10,10,11,11,12,12,13,13,14,14],"right_children":[2,4,6,8,10,12,14,16,18,20,22,24,26,28,30,-1,-1,-1,-1,-1,-1,-1,-1,-1,-1,-1,-1,-1,-1,-1,-1],"split_conditions":[8.889187E-1,-8.342414E-1,9.997611E-1,-9.980645E-1,-5.3462934E0,-4.532588E0,8.741219E-2,6.7628655E0,1.8519492E-1,9.798336E0,7.021955E-1,2.0780021E-2,5E-1,4.0279992E-2,3.5003977E0,-9.02792E-2,-6.353593E-2,-1.8377235E-2,-6.527718E-2,1.0560413E-2,7.622263E-2,-1.3039732E-2,-7.5934276E-2,6.655561E-2,3.0075619E-2,4.8539452E-2,-2.7101303E-2,9.696353E-2,7.7978015E-2,6.399753E-2,9.880404E-3],"split_indices":[6,12,12,12,10,11,8,5,7,5,8,7,2,7,9,0,0,0,0,0,0,0,0,0,0,0,0,0,0,0,0],"split_type":[0,0,0,0,0,0,0,0,0,0,0,0,0,0,0,0,0,0,0,0,0,0,0,0,0,0,0,0,0,0,0],"sum_hessian":[1.9298652E5,1.6277308E5,3.0213443E4,2.3566693E4,1.3920638E5,1.1724154E4,1.848929E4,1.2432342E4,1.1134352E4,7.315083E4,6.605555E4,6.11981E3,5.6043447E3,1.4388575E4,4.1007144E3,1.0321523E4,2.110818E3,3.4197212E3,7.71463E3,6.360791E4,9.542921E3,5.3448777E4,1.2606774E4,3.4145974E3,2.7052126E3,2.1133713E3,3.4909731E3,1.2621753E4,1.7668221E3,3.2113223E3,8.8939197E2],"tree_param":{"num_deleted":"0","num_feature":"14","num_nodes":"31","size_leaf_vector":"0"}},{"base_weights":[2.7723945E-4,2.9452077E-1,-2.2770898E-1,8.873988E-2,6.375058E-1,-8.7433904E-2,-6.093759E-1,3.2574895E-1,-1.3319595E-1,8.6477005E-1,3.089983E-1,1.9277537E-1,-2.690329E-1,-7.6207066E-1,-1.4714822E-1,4.5242977E-1,-1.0509471E-1,3.4578796E-2,-4.9660224E-1,9.591245E-1,7.189733E-1,1.756023E-1,8.5634905E-1,-6.009896E-1,2.6889744E-1,-5.3461593E-1,-1.0640255E-4,-5.887597E-1,-9.008642E-1,5.181293E-1,-6.6155136E-1],"categories":[],"categories_nodes":[],"categories_segments":[],"categories_sizes":[],"default_left":[1,1,1,1,1,1,1,1,1,1,1,1,1,1,1,0,0,0,0,0,0,0,0,0,0,0,0,0,0,0,0],"id":39,"left_children":[1,3,5,7,9,11,13,15,17,19,21,23,25,27,29,-1,-1,-1,-1,-1,-1,-1,-1,-1,-1,-1,-1,-1,-1,-1,-1],"loss_changes":[1.2657799E4,5.8138745E3,5.6917915E3,2.7082385E3,2.3058525E3,3.9560195E3,2.0165059E3,1.3589558E3,1.6211648E3,2.504707E2,9.222125E2,1.8473846E3,3.3691113E3,5.1608887E2,2.4287964E3,0E0,0E0,0E0,0E0,0E0,0E0,0E0,0E0,0E0,0E0,0E0,0E0,0E0,0E0,0E0,0E0],"parents":[2147483647,0,0,1,1,2,2,3,3,4,4,5,5,6,6,7,7,8,8,9,9,10,10,11,11,12,12,13,13,14,14],"right_children":[2,4,6,8,10,12,14,16,18,20,22,24,26,28,30,-1,-1,-1,-1,-1,-1,-1,-1,-1,-1,-1,-1,-1,-1,-1,-1],"split_conditions":[6.9284188E-3,9.999541E-1,4.181589E-1,1.5E0,1.0159698E-1,1.5E0,5.7982936E0,-3.4558501E0,-4.2576566E0,3.3481564E-2,1.1759195E1,-9.8365104E-1,3.2678866E0,2.3940816E0,5.059916E-1,4.5242976E-2,-1.0509471E-2,3.4578796E-3,-4.9660224E-2,9.591245E-2,7.189733E-2,1.756023E-2,8.563491E-2,-6.0098957E-2,2.6889745E-2,-5.3461593E-2,-1.0640255E-5,-5.8875974E-2,-9.008642E-2,5.181293E-2,-6.6155136E-2],"split_indices":[4,12,8,2,8,2,5,11,11,7,5,12,5,9,6,0,0,0,0,0,0,0,0,0,0,0,0,0,0,0,0],"split_type":[0,0,0,0,0,0,0,0,0,0,0,0,0,0,0,0,0,0,0,0,0,0,0,0,0,0,0,0,0,0,0],"sum_hessian":[1.8868531E5,8.2372914E4,1.063124E5,5.1484812E4,3.0888102E4,7.7741195E4,2.8571203E4,2.4896717E4,2.6588096E4,1.8256484E4,1.2631618E4,3.0570504E4,4.717069E4,2.1476043E4,7.095159E3,1.923964E4,5.657076E3,1.8190805E4,8.397292E3,1.1080197E4,7.176286E3,1.0157446E4,2.4741716E3,2.6745603E3,2.7895943E4,2.3732379E4,2.343831E4,9.552772E3,1.19232705E4,3.0938613E3,4.0012976E3],"tree_param":{"num_deleted":"0","num_feature":"14","num_nodes":"31","size_leaf_vector":"0"}},{"base_weights":[1.8702564E-4,-1.3500363E-1,4.512461E-1,1.9719034E-1,-3.4419698E-1,1.0278804E-1,7.322786E-1,-3.363043E-1,3.1249815E-1,-2.2743261E-1,-7.9238254E-1,-5.853538E-1,2.0580101E-1,5.3005344E-1,9.245044E-1,-6.183394E-1,-1.17947675E-1,4.6315816E-1,9.520827E-3,-4.3803817E-1,-1.2159874E-2,-4.5013434E-1,-8.478252E-1,-2.3206152E-1,-7.1710813E-1,1.0152274E-1,7.385445E-1,7.737819E-1,2.3546493E-1,9.4536376E-1,5.12042E-1],"categories":[],"categories_nodes":[],"categories_segments":[],"categories_sizes":[],"default_left":[1,1,1,1,1,1,1,1,1,1,1,1,1,1,1,0,0,0,0,0,0,0,0,0,0,0,0,0,0,0,0],"id":40,"left_children":[1,3,5,7,9,11,13,15,17,19,21,23,25,27,29,-1,-1,-1,-1,-1,-1,-1,-1,-1,-1,-1,-1,-1,-1,-1,-1],"loss_changes":[1.1227624E4,9.844668E3,4.15787E3,3.367485E3,4.5487812E3,1.3439233E3,9.131533E2,5.99084E2,2.0546274E3,3.1265032E3,3.405127E2,1.14739136E2,9.159633E2,8.2236255E2,1.0317578E2,0E0,0E0,0E0,0E0,0E0,0E0,0E0,0E0,0E0,0E0,0E0,0E0,0E0,0E0,0E0,0E0],"parents":[2147483647,0,0,1,1,2,2,3,3,4,4,5,5,6,6,7,7,8,8,9,9,10,10,11,11,12,12,13,13,14,14],"right_children":[2,4,6,8,10,12,14,16,18,20,22,24,26,28,30,-1,-1,-1,-1,-1,-1,-1,-1,-1,-1,-1,-1,-1,-1,-1,-1],"split_conditions":[7.7147584E0,1.5E0,9.9976254E-1,5.608367E-1,3.5287986E0,-9.962611E-1,1.371166E1,5.902551E-1,2.281188E0,3.0143366E0,9.148961E-2,5.5060003E-2,5E-1,9.3613856E-2,5.226836E0,-6.1833944E-2,-1.1794767E-2,4.6315815E-2,9.520827E-4,-4.380382E-2,-1.2159874E-3,-4.5013435E-2,-8.4782526E-2,-2.3206152E-2,-7.171082E-2,1.0152275E-2,7.3854454E-2,7.737819E-2,2.3546493E-2,9.453638E-2,5.12042E-2],"split_indices":[5,2,12,6,9,12,5,12,9,5,8,8,13,8,9,0,0,0,0,0,0,0,0,0,0,0,0,0,0,0,0],"split_type":[0,0,0,0,0,0,0,0,0,0,0,0,0,0,0,0,0,0,0,0,0,0,0,0,0,0,0,0,0,0,0],"sum_hessian":[1.8412088E5,1.4166267E5,4.245819E4,5.4738816E4,8.692386E4,1.8955828E4,2.3502365E4,9.728064E3,4.5010754E4,6.8959555E4,1.7964307E4,2.4675498E3,1.648828E4,1.1455118E4,1.2047246E4,4.2442495E3,5.4838145E3,3.0061629E4,1.4949124E4,3.4857113E4,3.4102438E4,2.505702E3,1.54586045E4,6.7101636E2,1.7965336E3,1.37902E4,2.6980786E3,6.267807E3,5.187311E3,1.1466082E4,5.811639E2],"tree_param":{"num_deleted":"0","num_feature":"14","num_nodes":"31","size_leaf_vector":"0"}},{"base_weights":[1.7732872E-4,-1.2614265E-1,4.4732013E-1,1.4934395E-1,-3.1209227E-1,7.682032E-1,7.09898E-2,-2.7927265E-1,2.6042253E-1,-5.170091E-1,-6.9882184E-2,6.245338E-1,9.468114E-1,-7.7828355E-2,7.4660194E-1,-7.579118E-1,-1.6512664E-1,2.9681456E-1,-8.242604E-1,-7.0781535E-1,-1.3321064E-1,4.8016936E-1,-2.804887E-1,5.3299385E-1,8.77655E-1,9.737892E-1,7.9381174E-1,1.6313215E-1,-4.1099712E-1,4.3923244E-1,9.188676E-1],"categories":[],"categories_nodes":[],"categories_segments":[],"categories_sizes":[],"default_left":[1,1,1,1,1,1,1,1,1,1,1,1,1,1,1,0,0,0,0,0,0,0,0,0,0,0,0,0,0,0,0],"id":41,"left_children":[1,3,5,7,9,11,13,15,17,19,21,23,25,27,29,-1,-1,-1,-1,-1,-1,-1,-1,-1,-1,-1,-1,-1,-1,-1,-1],"loss_changes":[1.0151383E4,7.178712E3,4.7806255E3,2.6887334E3,4.15245E3,5.483779E2,1.8320957E3,6.3492126E2,1.770645E3,3.3188057E3,4.442083E3,2.7400098E2,3.8539062E1,1.1989064E3,1.7375903E2,0E0,0E0,0E0,0E0,0E0,0E0,0E0,0E0,0E0,0E0,0E0,0E0,0E0,0E0,0E0,0E0],"parents":[2147483647,0,0,1,1,2,2,3,3,4,4,5,5,6,6,7,7,8,8,9,9,10,10,11,11,12,12,13,13,14,14],"right_children":[2,4,6,8,10,12,14,16,18,20,22,24,26,28,30,-1,-1,-1,-1,-1,-1,-1,-1,-1,-1,-1,-1,-1,-1,-1,-1],"split_conditions":[9.999857E-1,1.5E0,9.602626E-2,5.811756E-1,3.5951087E0,8.8938177E-1,1.073869E1,-9.774759E-1,7.0531374E-1,6.0367906E-1,4.6458203E-1,9.250279E0,5.189272E-2,3.8639092E-1,1.4732362E1,-7.579118E-2,-1.6512664E-2,2.9681457E-2,-8.242604E-2,-7.078154E-2,-1.3321064E-2,4.8016936E-2,-2.8048871E-2,5.3299386E-2,8.776551E-2,9.7378924E-2,7.9381175E-2,1.6313216E-2,-4.1099712E-2,4.3923244E-2,9.188676E-2],"split_indices":[12,2,8,6,5,6,5,12,8,6,6,5,8,8,5,0,0,0,0,0,0,0,0,0,0,0,0,0,0,0,0],"split_type":[0,0,0,0,0,0,0,0,0,0,0,0,0,0,0,0,0,0,0,0,0,0,0,0,0,0,0,0,0,0,0],"sum_hessian":[1.7972234E5,1.4013442E5,3.9587926E4,5.647146E4,8.366295E4,2.1367555E4,1.822037E4,1.1622488E4,4.4848973E4,4.531988E4,3.834308E4,1.18445205E4,9.523035E3,1.493213E4,3.288239E3,2.236927E3,9.385562E3,4.33938E4,1.4551733E3,3.0270156E4,1.5049722E4,1.0615852E4,2.7727227E4,8.70097E3,3.1435513E3,8.091013E3,1.4320215E3,8.665451E3,6.2666787E3,1.182278E3,2.1059612E3],"tree_param":{"num_deleted":"0","num_feature":"14","num_nodes":"31","size_leaf_vector":"0"}},{"base_weights":[1.06406325E-4,2.1257497E-1,-2.438076E-1,4.7646087E-1,-6.259588E-4,-1.2224659E-1,-6.074888E-1,2.0198408E-1,7.444539E-1,8.2046196E-2,-6.133982E-1,-6.63813E-1,-4.9026806E-2,-8.1531185E-1,-2.762925E-1,1.015802E-1,6.088486E-1,5.9643525E-1,9.3675435E-1,1.5678307E-1,-4.8897153E-1,-3.8779405E-1,-7.523602E-1,-7.401303E-1,-3.2057112E-1,1.8660857E-1,-2.095512E-1,-7.0160896E-1,-9.33702E-1,7.1531E-1,-5.288139E-1],"categories":[],"categories_nodes":[],"categories_segments":[],"categories_sizes":[],"default_left":[1,1,1,1,1,1,1,1,1,1,1,1,1,1,1,0,0,0,0,0,0,0,0,0,0,0,0,0,0,0,0],"id":42,"left_children":[1,3,5,7,9,11,13,15,17,19,21,23,25,27,29,-1,-1,-1,-1,-1,-1,-1,-1,-1,-1,-1,-1,-1,-1,-1,-1],"loss_changes":[9.1036875E3,5.282007E3,3.615412E3,3.0864463E3,2.6307974E3,2.4305078E3,1.4099111E3,8.467018E2,6.036738E2,1.9528428E3,1.9324756E2,1.9098804E2,2.0424376E3,1.6879102E2,1.9786697E3,0E0,0E0,0E0,0E0,0E0,0E0,0E0,0E0,0E0,0E0,0E0,0E0,0E0,0E0,0E0,0E0],"parents":[2147483647,0,0,1,1,2,2,3,3,4,4,5,5,6,6,7,7,8,8,9,9,10,10,11,11,12,12,13,13,14,14],"right_children":[2,4,6,8,10,12,14,16,18,20,22,24,26,28,30,-1,-1,-1,-1,-1,-1,-1,-1,-1,-1,-1,-1,-1,-1,-1,-1],"split_conditions":[3.4591235E-2,1.1502209E-1,4.3861684E-1,9.999064E-1,2.0044786E-1,-9.775871E-1,4.0746E0,9.268341E-1,9.088966E-1,5.690223E0,1.5695384E0,6.668064E0,1.5E0,2.9842646E0,3.6980742E-1,1.015802E-2,6.088486E-2,5.9643526E-2,9.3675435E-2,1.5678307E-2,-4.8897155E-2,-3.8779404E-2,-7.523602E-2,-7.401303E-2,-3.2057114E-2,1.8660856E-2,-2.0955121E-2,-7.0160896E-2,-9.33702E-2,7.1531E-2,-5.288139E-2],"split_indices":[4,8,8,12,3,12,5,6,6,9,9,5,2,9,6,0,0,0,0,0,0,0,0,0,0,0,0,0,0,0,0],"split_type":[0,0,0,0,0,0,0,0,0,0,0,0,0,0,0,0,0,0,0,0,0,0,0,0,0,0,0,0,0,0,0],"sum_hessian":[1.7566327E5,9.388344E4,8.1779836E4,4.195415E4,5.192929E4,6.1293664E4,2.0486168E4,2.0727217E4,2.1226934E4,4.5756867E4,6.172421E3,7.29899E3,5.3994676E4,1.258667E4,7.8994985E3,1.6625672E4,4.1015454E3,1.199679E4,9.230144E3,4.0461805E4,5.295062E3,2.3541921E3,3.8182288E3,5.970367E3,1.328623E3,2.1878639E4,3.2116037E4,6.4239644E3,6.1627056E3,1.6029993E3,6.2964995E3],"tree_param":{"num_deleted":"0","num_feature":"14","num_nodes":"31","size_leaf_vector":"0"}},{"base_weights":[-2.5612264E-6,2.1637256E-1,-2.2010791E-1,1.0067599E-1,6.857324E-1,-1.0640437E-1,-7.039849E-1,4.0348458E-1,-6.770753E-2,3.983989E-1,8.718496E-1,2.9403856E-2,-4.184036E-1,-8.541622E-1,-3.2670483E-1,2.4914658E-2,4.992738E-1,-3.314556E-1,9.521153E-2,5.701661E-1,5.5251453E-2,9.320657E-1,6.250485E-1,-5.200386E-2,4.8585987E-1,-5.813292E-1,-5.488975E-2,-6.4474416E-1,-9.2396206E-1,5.76171E-1,-6.2155044E-1],"categories":[],"categories_nodes":[],"categories_segments":[],"categories_sizes":[],"default_left":[1,1,1,1,1,1,1,1,1,1,1,1,1,1,1,0,0,0,0,0,0,0,0,0,0,0,0,0,0,0,0],"id":43,"left_children":[1,3,5,7,9,11,13,15,17,19,21,23,25,27,29,-1,-1,-1,-1,-1,-1,-1,-1,-1,-1,-1,-1,-1,-1,-1,-1],"loss_changes":[8.1907153E3,4.709446E3,4.6906006E3,3.5476133E3,9.1680664E2,2.925188E3,9.1883105E2,9.0162524E2,1.921374E3,3.9745227E2,1.5408691E2,1.7873666E3,1.23996E3,1.6900195E2,1.2303184E3,0E0,0E0,0E0,0E0,0E0,0E0,0E0,0E0,0E0,0E0,0E0,0E0,0E0,0E0,0E0,0E0],"parents":[2147483647,0,0,1,1,2,2,3,3,4,4,5,5,6,6,7,7,8,8,9,9,10,10,11,11,12,12,13,13,14,14],"right_children":[2,4,6,8,10,12,14,16,18,20,22,24,26,28,30,-1,-1,-1,-1,-1,-1,-1,-1,-1,-1,-1,-1,-1,-1,-1,-1],"split_conditions":[-5.3665495E0,9.0966835E0,6.1920685E-1,1.5E0,9.9996364E-1,3.172642E-1,5.492414E0,9.397905E-1,2.654468E0,-4.7581E0,1.9781273E-2,5E-1,3.976015E0,7.9693794E-1,4.1990012E-1,2.4914658E-3,4.992738E-2,-3.3145558E-2,9.521153E-3,5.701661E-2,5.525145E-3,9.320658E-2,6.250485E-2,-5.200386E-3,4.858599E-2,-5.8132924E-2,-5.488975E-3,-6.447442E-2,-9.239621E-2,5.7617098E-2,-6.2155046E-2],"split_indices":[10,5,8,2,12,7,5,12,5,11,3,13,5,8,6,0,0,0,0,0,0,0,0,0,0,0,0,0,0,0,0],"split_type":[0,0,0,0,0,0,0,0,0,0,0,0,0,0,0,0,0,0,0,0,0,0,0,0,0,0,0,0,0,0,0],"sum_hessian":[1.7198036E5,8.672507E4,8.525529E4,6.9575914E4,1.7149154E4,6.9034484E4,1.6220805E4,2.48629E4,4.4713016E4,6.7427017E3,1.0406453E4,4.809877E4,2.0935713E4,1.1601523E4,4.6192812E3,5.0209185E3,1.9841982E4,1.7072873E4,2.764014E4,4.4930044E3,2.2496973E3,8.363177E3,2.0432771E3,4.081959E4,7.279179E3,1.445599E4,6.479722E3,2.9027458E3,8.698778E3,1.1369034E3,3.482378E3],"tree_param":{"num_deleted":"0","num_feature":"14","num_nodes":"31","size_leaf_vector":"0"}},{"base_weights":[-9.398128E-5,1.6594876E-1,-2.7274826E-1,7.151813E-2,6.98544E-1,-1.6229033E-1,-6.9219273E-1,3.6081618E-1,-8.551329E-2,8.375692E-1,3.8302705E-1,2.2230612E-2,-3.6659256E-1,-8.7735915E-1,-4.044706E-1,3.915019E-1,-7.267695E-1,8.506138E-2,-3.2665414E-1,8.663413E-1,2.354088E-1,5.672527E-1,5.9210933E-3,-2.0568143E-1,2.0937958E-1,-5.248159E-1,-1.16897196E-1,-6.4899683E-1,-9.402917E-1,3.596064E-1,-6.1291635E-1],"categories":[],"categories_nodes":[],"categories_segments":[],"categories_sizes":[],"default_left":[1,1,1,1,1,1,1,1,1,1,1,1,1,1,1,0,0,0,0,0,0,0,0,0,0,0,0,0,0,0,0],"id":44,"left_children":[1,3,5,7,9,11,13,15,17,19,21,23,25,27,29,-1,-1,-1,-1,-1,-1,-1,-1,-1,-1,-1,-1,-1,-1,-1,-1],"loss_changes":[7.6384424E3,5.2738325E3,2.9585762E3,4.046438E3,6.924033E2,1.9056285E3,7.088218E2,1.0461377E3,2.3747832E3,1.897041E2,3.3569025E2,1.1329878E3,9.4768774E2,1.1577197E2,8.3065784E2,0E0,0E0,0E0,0E0,0E0,0E0,0E0,0E0,0E0,0E0,0E0,0E0,0E0,0E0,0E0,0E0],"parents":[2147483647,0,0,1,1,2,2,3,3,4,4,5,5,6,6,7,7,8,8,9,9,10,10,11,11,12,12,13,13,14,14],"right_children":[2,4,6,8,10,12,14,16,18,20,22,24,26,28,30,-1,-1,-1,-1,-1,-1,-1,-1,-1,-1,-1,-1,-1,-1,-1,-1],"split_conditions":[-4.6168222E0,1.0549061E1,5.562191E-1,1.5E0,1.5239969E-2,1.5E0,4.245886E0,7.5220793E-1,7.6029405E-2,3.694745E0,6.878591E-1,9.5508146E-1,4.7321653E0,7.0562744E-1,4.1990012E-1,3.915019E-2,-7.267695E-2,8.506138E-3,-3.2665413E-2,8.663413E-2,2.354088E-2,5.672527E-2,5.9210934E-4,-2.0568144E-2,2.0937959E-2,-5.248159E-2,-1.168972E-2,-6.489968E-2,-9.402917E-2,3.596064E-2,-6.1291635E-2],"split_indices":[11,5,8,2,3,2,5,8,4,9,6,12,5,8,6,0,0,0,0,0,0,0,0,0,0,0,0,0,0,0,0],"split_type":[0,0,0,0,0,0,0,0,0,0,0,0,0,0,0,0,0,0,0,0,0,0,0,0,0,0,0,0,0,0,0],"sum_hessian":[1.6872034E5,1.0486151E5,6.385884E4,8.9070234E4,1.579127E4,5.054859E4,1.3310249E4,3.1336988E4,5.773325E4,1.096024E4,4.831029E3,2.6560586E4,2.3988002E4,8.0971807E3,5.2130684E3,3.0477715E4,