{"learner":{"attributes":{"best_iteration":"455","best_msg":"[455]\tvalidation_0-auc:0.995397\tvalidation_0-error:0.032115\tvalidation_0-logloss:0.084636\tvalidation_1-auc:0.995264\tvalidation_1-error:0.032552\tvalidation_1-logloss:0.085732","best_score":"0.085732"},"feature_names":[],"feature_types":[],"gradient_booster":{"model":{"gbtree_model_param":{"num_parallel_tree":"1","num_trees":"466","size_leaf_vector":"0"},"tree_info":[0,0,0,0,0,0,0,0,0,0,0,0,0,0,0,0,0,0,0,0,0,0,0,0,0,0,0,0,0,0,0,0,0,0,0,0,0,0,0,0,0,0,0,0,0,0,0,0,0,0,0,0,0,0,0,0,0,0,0,0,0,0,0,0,0,0,0,0,0,0,0,0,0,0,0,0,0,0,0,0,0,0,0,0,0,0,0,0,0,0,0,0,0,0,0,0,0,0,0,0,0,0,0,0,0,0,0,0,0,0,0,0,0,0,0,0,0,0,0,0,0,0,0,0,0,0,0,0,0,0,0,0,0,0,0,0,0,0,0,0,0,0,0,0,0,0,0,0,0,0,0,0,0,0,0,0,0,0,0,0,0,0,0,0,0,0,0,0,0,0,0,0,0,0,0,0,0,0,0,0,0,0,0,0,0,0,0,0,0,0,0,0,0,0,0,0,0,0,0,0,0,0,0,0,0,0,0,0,0,0,0,0,0,0,0,0,0,0,0,0,0,0,0,0,0,0,0,0,0,0,0,0,0,0,0,0,0,0,0,0,0,0,0,0,0,0,0,0,0,0,0,0,0,0,0,0,0,0,0,0,0,0,0,0,0,0,0,0,0,0,0,0,0,0,0,0,0,0,0,0,0,0,0,0,0,0,0,0,0,0,0,0,0,0,0,0,0,0,0,0,0,0,0,0,0,0,0,0,0,0,0,0,0,0,0,0,0,0,0,0,0,0,0,0,0,0,0,0,0,0,0,0,0,0,0,0,0,0,0,0,0,0,0,0,0,0,0,0,0,0,0,0,0,0,0,0,0,0,0,0,0,0,0,0,0,0,0,0,0,0,0,0,0,0,0,0,0,0,0,0,0,0,0,0,0,0,0,0,0,0,0,0,0,0,0,0,0,0,0,0,0,0,0,0,0,0,0,0,0,0,0,0,0,0,0,0,0,0,0,0,0,0,0,0,0,0,0,0,0,0,0,0,0,0,0,0,0,0,0,0,0,0,0,0,0,0,0,0,0,0,0,0,0,0,0,0,0,0,0,0,0,0,0,0,0,0],"trees":[{"base_weights":[2.4293398E-8,-1.4909935E0,1.7915745E0,-1.7283037E0,1.0898925E0,1.9101949E0,-1.0770434E0,-9.5352566E-1,-1.9223421E0,1.532106E0,-1.3192931E0,1.9303147E0,6.7792326E-1,-1.3537872E0,1.0328065E0,1.1890721E-1,-1.6251879E0,-1.645548E0,-1.9598987E0,1.7907681E0,-2.9776844E-1,-1.457045E-1,-1.8044765E0,1.9656706E0,1.5241925E0,1.0669765E0,-4.5966253E-1,-7.3726696E-1,-1.8304381E0,1.5790005E0,-6.405656E-1],"categories":[],"categories_nodes":[],"categories_segments":[],"categories_sizes":[],"default_left":[1,1,1,1,1,1,1,1,1,1,1,1,1,1,1,0,0,0,0,0,0,0,0,0,0,0,0,0,0,0,0],"id":0,"left_children":[1,3,5,7,9,11,13,15,17,19,21,23,25,27,29,-1,-1,-1,-1,-1,-1,-1,-1,-1,-1,-1,-1,-1,-1,-1,-1],"loss_changes":[2.6706022E6,3.3420062E5,1.54525E5,7.512275E4,4.8954293E4,1.0810375E4,1.0530584E4,7.2093266E4,4.151125E3,1.8376156E4,4.0576162E3,6.158E3,3.1017283E3,4.6835293E3,1.9127214E3,0E0,0E0,0E0,0E0,0E0,0E0,0E0,0E0,0E0,0E0,0E0,0E0,0E0,0E0,0E0,0E0],"parents":[2147483647,0,0,1,1,2,2,3,3,4,4,5,5,6,6,7,7,8,8,9,9,10,10,11,11,12,12,13,13,14,14],"right_children":[2,4,6,8,10,12,14,16,18,20,22,24,26,28,30,-1,-1,-1,-1,-1,-1,-1,-1,-1,-1,-1,-1,-1,-1,-1,-1],"split_conditions":[7.5022066E-1,6.8024673E0,1.7695308E-1,5.3281073E-2,3.0028915E0,6.973021E-2,1.0222837E1,7.930641E-2,1.4048368E-1,1.1979821E-1,2.3955602E-2,3.3116367E-2,4.2674653E-2,5.181072E-1,-5.0172157E0,1.18907215E-2,-1.6251878E-1,-1.645548E-1,-1.9598988E-1,1.7907682E-1,-2.9776845E-2,-1.45704495E-2,-1.8044765E-1,1.9656706E-1,1.5241925E-1,1.06697656E-1,-4.5966253E-2,-7.37267E-2,-1.8304382E-1,1.5790005E-1,-6.405656E-2],"split_indices":[6,5,8,8,9,3,5,3,8,3,3,8,8,8,10,0,0,0,0,0,0,0,0,0,0,0,0,0,0,0,0],"split_type":[0,0,0,0,0,0,0,0,0,0,0,0,0,0,0,0,0,0,0,0,0,0,0,0,0,0,0,0,0,0,0],"sum_hessian":[9.997645E5,5.45656E5,4.5410853E5,4.9970856E5,4.5947418E4,4.3607662E5,1.8031895E4,1.00084805E5,3.9962375E5,3.8821902E4,7.125517E3,4.2907047E5,7.006157E3,1.5941275E4,2.090619E3,3.8543617E4,6.154119E4,4.7749848E4,3.518739E5,3.4013887E4,4.8080137E3,2.084562E3,5.040955E3,3.9470462E5,3.4365836E4,5.2207334E3,1.785424E3,6.9519204E3,8.989355E3,1.576199E3,5.1441986E2],"tree_param":{"num_deleted":"0","num_feature":"13","num_nodes":"31","size_leaf_vector":"0"}},{"base_weights":[9.251734E-6,-1.3648609E0,1.6145318E0,-1.5712546E0,1.0584629E0,1.7326406E0,-9.855589E-1,-8.887648E-1,-1.750703E0,1.423459E0,-1.1813583E0,1.7690594E0,1.0585638E0,-1.2661015E0,7.928833E-1,4.0208232E-1,-1.3403487E0,-1.7738254E0,-1.4104316E0,1.6659025E0,-1.08864024E-1,4.6918747E-1,-1.4977648E0,1.7867727E0,1.2673912E0,1.3177934E0,5.1484544E-2,-7.4275255E-1,-1.6961752E0,1.2581776E0,-1.0244125E0],"categories":[],"categories_nodes":[],"categories_segments":[],"categories_sizes":[],"default_left":[1,1,1,1,1,1,1,1,1,1,1,1,1,1,1,0,0,0,0,0,0,0,0,0,0,0,0,0,0,0,0],"id":1,"left_children":[1,3,5,7,9,11,13,15,17,19,21,23,25,27,29,-1,-1,-1,-1,-1,-1,-1,-1,-1,-1,-1,-1,-1,-1,-1,-1],"loss_changes":[2.184377E6,2.6867E5,1.394545E5,6.0622875E4,3.4468723E4,1.0661625E4,9.845869E3,6.007589E4,3.081375E3,1.3468227E4,3.086209E3,3.65975E3,5.8132383E3,3.8349473E3,2.2751802E3,0E0,0E0,0E0,0E0,0E0,0E0,0E0,0E0,0E0,0E0,0E0,0E0,0E0,0E0,0E0,0E0],"parents":[2147483647,0,0,1,1,2,2,3,3,4,4,5,5,6,6,7,7,8,8,9,9,10,10,11,11,12,12,13,13,14,14],"right_children":[2,4,6,8,10,12,14,16,18,20,22,24,26,28,30,-1,-1,-1,-1,-1,-1,-1,-1,-1,-1,-1,-1,-1,-1,-1,-1],"split_conditions":[7.434273E-1,7.131839E0,1.6798925E-1,5.7947364E-2,3.0874202E0,1.2326956E-1,8.93919E0,2.61636E-1,4.747001E0,9.9473946E-2,1.4326924E-1,5.9994414E-2,3.7097678E-2,5.320652E-1,-4.7368135E0,4.020823E-2,-1.3403487E-1,-1.7738254E-1,-1.4104317E-1,1.6659026E-1,-1.0886403E-2,4.6918746E-2,-1.4977649E-1,1.7867728E-1,1.2673913E-1,1.3177934E-1,5.1484546E-3,-7.4275255E-2,-1.6961752E-1,1.2581776E-1,-1.0244125E-1],"split_indices":[6,5,8,8,9,7,5,7,5,3,8,8,8,8,10,0,0,0,0,0,0,0,0,0,0,0,0,0,0,0,0],"split_type":[0,0,0,0,0,0,0,0,0,0,0,0,0,0,0,0,0,0,0,0,0,0,0,0,0,0,0,0,0,0,0],"sum_hessian":[9.912685E5,5.3716506E5,4.5410347E5,4.9500588E5,4.2159156E4,4.3437247E5,1.9731008E4,1.0305734E5,3.9194853E5,3.6251977E4,5.907177E3,4.1210578E5,2.2266688E4,1.7042852E4,2.6881577E3,2.6709285E4,7.6348055E4,3.6700525E5,2.4943283E4,3.1299672E4,4.9523066E3,9.501584E2,4.9570186E3,3.980486E5,1.4057181E4,1.7708168E4,4.5585205E3,7.688988E3,9.353863E3,2.1404353E3,5.477223E2],"tree_param":{"num_deleted":"0","num_feature":"13","num_nodes":"31","size_leaf_vector":"0"}},{"base_weights":[5.731118E-5,-1.2421404E0,1.506376E0,-1.4526772E0,8.1318617E-1,1.6037115E0,-8.900482E-1,-7.908274E-1,-1.614088E0,1.2184696E0,-1.2648553E0,1.1478888E0,1.6477121E0,-1.1048225E0,9.724721E-1,2.1176265E-1,-1.3429713E0,-1.3391362E0,-1.6491071E0,1.4971564E0,-2.390822E-1,-6.574326E-2,-1.554473E0,1.3103861E0,2.2176175E-1,1.2046398E0,1.6610197E0,-6.0540175E-1,-1.555439E0,1.4422975E0,-2.0374218E-1],"categories":[],"categories_nodes":[],"categories_segments":[],"categories_sizes":[],"default_left":[1,1,1,1,1,1,1,1,1,1,1,1,1,1,1,0,0,0,0,0,0,0,0,0,0,0,0,0,0,0,0],"id":2,"left_children":[1,3,5,7,9,11,13,15,17,19,21,23,25,27,29,-1,-1,-1,-1,-1,-1,-1,-1,-1,-1,-1,-1,-1,-1,-1,-1],"loss_changes":[1.8141926E6,2.2993519E5,1.0221356E5,5.1490062E4,4.158374E4,8.44375E3,6.843087E3,5.2314758E4,3.7288125E3,1.678302E4,2.7984346E3,5.578953E3,2.2623125E3,3.4504219E3,9.778428E2,0E0,0E0,0E0,0E0,0E0,0E0,0E0,0E0,0E0,0E0,0E0,0E0,0E0,0E0,0E0,0E0],"parents":[2147483647,0,0,1,1,2,2,3,3,4,4,5,5,6,6,7,7,8,8,9,9,10,10,11,11,12,12,13,13,14,14],"right_children":[2,4,6,8,10,12,14,16,18,20,22,24,26,28,30,-1,-1,-1,-1,-1,-1,-1,-1,-1,-1,-1,-1,-1,-1,-1,-1],"split_conditions":[7.523198E-1,6.354951E0,1.817325E-1,4.9763773E-2,-5.567117E0,8.265643E-1,1.1129181E1,5.897007E-2,1.2563318E-1,1.0321464E-1,2.0309395E-1,5.0861496E-2,1.5089142E1,5.45864E-1,-5.2483044E0,2.1176266E-2,-1.3429713E-1,-1.3391362E-1,-1.6491072E-1,1.4971565E-1,-2.390822E-2,-6.574326E-3,-1.554473E-1,1.310386E-1,2.2176174E-2,1.2046398E-1,1.6610198E-1,-6.0540177E-2,-1.5554391E-1,1.4422975E-1,-2.0374218E-2],"split_indices":[6,5,8,8,10,6,5,3,8,3,8,8,0,8,10,0,0,0,0,0,0,0,0,0,0,0,0,0,0,0,0],"split_type":[0,0,0,0,0,0,0,0,0,0,0,0,0,0,0,0,0,0,0,0,0,0,0,0,0,0,0,0,0,0,0],"sum_hessian":[9.695605E5,5.313657E5,4.3819478E5,4.8199316E5,4.9372547E4,4.2109166E5,1.7103117E4,9.450213E4,3.8749103E5,4.13152E4,8.057349E3,3.707208E4,3.8401956E5,1.5335168E4,1.7679496E3,3.3561445E4,6.0940684E4,4.3781258E4,3.4370978E5,3.4683598E4,6.6316E3,1.5677169E3,6.4896323E3,3.1538031E4,5.534047E3,1.1200285E4,3.7281928E5,7.274805E3,8.0603623E3,1.263166E3,5.0478357E2],"tree_param":{"num_deleted":"0","num_feature":"13","num_nodes":"31","size_leaf_vector":"0"}},{"base_weights":[9.9361125E-5,-1.1696064E0,1.3890798E0,-1.3687258E0,6.855836E-1,1.4995099E0,-7.3319805E-1,-7.6764023E-1,-1.5108752E0,1.1487828E0,-1.0287352E0,1.515435E0,1.9159824E-1,-1.04236E0,6.186396E-1,5.0578535E-1,-1.1224294E0,-1.2795373E0,-1.5493308E0,1.3781087E0,-3.0804995E-1,-6.9275595E-2,-1.455482E0,1.5516472E0,1.2211428E0,5.15165E-1,-5.6669796E-1,-1.2558221E0,-1.3260317E-1,1.0206327E0,-9.2713606E-1],"categories":[],"categories_nodes":[],"categories_segments":[],"categories_sizes":[],"default_left":[1,1,1,1,1,1,1,1,1,1,1,1,1,1,1,0,0,0,0,0,0,0,0,0,0,0,0,0,0,0,0],"id":3,"left_children":[1,3,5,7,9,11,13,15,17,19,21,23,25,27,29,-1,-1,-1,-1,-1,-1,-1,-1,-1,-1,-1,-1,-1,-1,-1,-1],"loss_changes":[1.5250608E6,1.8823375E5,1.00570125E5,3.9317438E4,3.922107E4,8.4955E3,8.871267E3,3.9764484E4,3.3088125E3,1.2991496E4,4.301914E3,4.2926875E3,1.2044823E3,3.354537E3,2.456187E3,0E0,0E0,0E0,0E0,0E0,0E0,0E0,0E0,0E0,0E0,0E0,0E0,0E0,0E0,0E0,0E0],"parents":[2147483647,0,0,1,1,2,2,3,3,4,4,5,5,6,6,7,7,8,8,9,9,10,10,11,11,12,12,13,13,14,14],"right_children":[2,4,6,8,10,12,14,16,18,20,22,24,26,28,30,-1,-1,-1,-1,-1,-1,-1,-1,-1,-1,-1,-1,-1,-1,-1,-1],"split_conditions":[7.423705E-1,6.1317434E0,1.3675064E-1,4.7405392E-2,2.6027825E0,8.517055E-2,7.738843E0,2.2248128E-1,1.51804E-1,1.3526368E-1,2.7964106E-2,2.7059827E-2,3.7037425E-2,8.690486E-1,-4.726741E0,5.0578535E-2,-1.1224294E-1,-1.2795374E-1,-1.5493308E-1,1.3781087E-1,-3.0804995E-2,-6.9275596E-3,-1.4554821E-1,1.5516472E-1,1.2211428E-1,5.15165E-2,-5.6669798E-2,-1.255822E-1,-1.3260317E-2,1.02063276E-1,-9.271361E-2],"split_indices":[6,5,8,8,9,3,5,7,8,3,3,8,8,6,10,0,0,0,0,0,0,0,0,0,0,0,0,0,0,0,0],"split_type":[0,0,0,0,0,0,0,0,0,0,0,0,0,0,0,0,0,0,0,0,0,0,0,0,0,0,0,0,0,0,0],"sum_hessian":[9.386712E5,5.0955688E5,4.291143E5,4.6016697E5,4.9389902E4,4.0789053E5,2.1223803E4,8.801172E4,3.7215525E5,3.8883996E4,1.0505907E4,4.0298366E5,4.906863E3,1.7273602E4,3.9502E3,1.9177719E4,6.8834E4,5.3050836E4,3.191044E5,3.3595625E4,5.28837E3,3.2346255E3,7.2712812E3,3.5882634E5,4.4157312E4,3.4395286E3,1.4673342E3,1.3990532E4,3.2830698E3,3.1352017E3,8.149983E2],"tree_param":{"num_deleted":"0","num_feature":"13","num_nodes":"31","size_leaf_vector":"0"}},{"base_weights":[1.6527386E-4,-1.072494E0,1.3372062E0,-1.2733785E0,6.0252047E-1,1.4154238E0,-8.053949E-1,-7.1816593E-1,-1.438629E0,1.0688927E0,-9.364971E-1,1.4497432E0,8.687483E-1,-9.648746E-1,9.537563E-1,6.0294177E-2,-1.2559432E0,-1.2407907E0,-1.4662937E0,1.3415983E0,-2.2912519E-2,4.7564432E-1,-1.2423593E0,1.4646659E0,9.249151E-1,1.0684527E0,-1.2270158E-1,-5.114201E-1,-1.3919318E0,1.4642545E0,2.6459855E-1],"categories":[],"categories_nodes":[],"categories_segments":[],"categories_sizes":[],"default_left":[1,1,1,1,1,1,1,1,1,1,1,1,1,1,1,0,0,0,0,0,0,0,0,0,0,0,0,0,0,0,0],"id":4,"left_children":[1,3,5,7,9,11,13,15,17,19,21,23,25,27,29,-1,-1,-1,-1,-1,-1,-1,-1,-1,-1,-1,-1,-1,-1,-1,-1],"loss_changes":[1.29335E6,1.6836738E5,6.7276125E4,4.0991375E4,3.846105E4,7.2649375E3,3.9676025E3,4.290224E4,1.882625E3,1.2244008E4,5.383165E3,2.852625E3,4.5302656E3,2.5098262E3,4.132611E2,0E0,0E0,0E0,0E0,0E0,0E0,0E0,0E0,0E0,0E0,0E0,0E0,0E0,0E0,0E0,0E0],"parents":[2147483647,0,0,1,1,2,2,3,3,4,4,5,5,6,6,7,7,8,8,9,9,10,10,11,11,12,12,13,13,14,14],"right_children":[2,4,6,8,10,12,14,16,18,20,22,24,26,28,30,-1,-1,-1,-1,-1,-1,-1,-1,-1,-1,-1,-1,-1,-1,-1,-1],"split_conditions":[7.593803E-1,5.8716874E0,2.1781562E-1,6.470516E-2,2.4565496E0,1.0915767E-1,1.2934568E1,8.9204244E-2,1.6457543E-1,8.095567E-2,1.2677461E-1,7.5553834E-2,4.5671932E-2,5.629776E-1,1.9261061E0,6.0294177E-3,-1.2559432E-1,-1.2407907E-1,-1.4662938E-1,1.3415983E-1,-2.291252E-3,4.7564432E-2,-1.2423593E-1,1.464666E-1,9.249151E-2,1.06845275E-1,-1.2270158E-2,-5.1142007E-2,-1.3919318E-1,1.4642546E-1,2.6459856E-2],"split_indices":[6,5,8,8,9,7,5,3,8,3,8,8,8,8,9,0,0,0,0,0,0,0,0,0,0,0,0,0,0,0,0],"split_type":[0,0,0,0,0,0,0,0,0,0,0,0,0,0,0,0,0,0,0,0,0,0,0,0,0,0,0,0,0,0,0],"sum_hessian":[9.017966E5,5.00369E5,4.0142762E5,4.467862E5,5.3582805E4,3.8728962E5,1.4137998E4,1.024793E5,3.4430688E5,4.1121855E4,1.2460951E4,3.644108E5,2.2878828E4,1.2963238E4,1.1747598E3,4.1870496E4,6.0608805E4,4.224514E4,3.0206175E5,3.2903227E4,8.218628E3,2.218368E3,1.0242583E4,3.5433403E5,1.0076768E4,1.9042988E4,3.8358413E3,6.288368E3,6.6748696E3,6.742096E2,5.005501E2],"tree_param":{"num_deleted":"0","num_feature":"13","num_nodes":"31","size_leaf_vector":"0"}},{"base_weights":[2.0922045E-4,-1.0492686E0,1.2248619E0,-1.20237E0,8.578844E-1,1.3426229E0,-6.226169E-1,-6.8460226E-1,-1.3656831E0,1.2207192E0,-4.0227443E-1,1.3763044E0,6.9014174E-1,-9.237523E-1,5.3001815E-1,9.1869526E-2,-1.1142677E0,-1.3882905E0,-1.0769799E0,1.3108251E0,-9.9694276E-1,3.0671492E-1,-1.2861781E0,1.4071075E0,1.148725E0,8.579593E-1,-2.8330785E-1,-4.9531505E-1,-1.3245457E0,8.8155544E-1,-8.459328E-1],"categories":[],"categories_nodes":[],"categories_segments":[],"categories_sizes":[],"default_left":[1,1,1,1,1,1,1,1,1,1,1,1,1,1,1,0,0,0,0,0,0,0,0,0,0,0,0,0,0,0,0],"id":5,"left_children":[1,3,5,7,9,11,13,15,17,19,21,23,25,27,29,-1,-1,-1,-1,-1,-1,-1,-1,-1,-1,-1,-1,-1,-1,-1,-1],"loss_changes":[1.1067695E6,1.3540569E5,8.645975E4,3.6297625E4,1.5757314E4,8.20925E3,8.266215E3,3.434168E4,2.1284375E3,5.348121E3,4.8289097E3,2.48875E3,2.996338E3,3.24154E3,2.387038E3,0E0,0E0,0E0,0E0,0E0,0E0,0E0,0E0,0E0,0E0,0E0,0E0,0E0,0E0,0E0,0E0],"parents":[2147483647,0,0,1,1,2,2,3,3,4,4,5,5,6,6,7,7,8,8,9,9,10,10,11,11,12,12,13,13,14,14],"right_children":[2,4,6,8,10,12,14,16,18,20,22,24,26,28,30,-1,-1,-1,-1,-1,-1,-1,-1,-1,-1,-1,-1,-1,-1,-1,-1],"split_conditions":[7.317533E-1,7.493726E0,1.223453E-1,7.017799E-2,7.661583E-2,1.3576026E-1,7.191411E0,6.0663685E-2,4.673065E0,-5.0794716E0,1.9078612E0,2.5112005E-2,1.1181055E-1,5.00877E-1,-4.726741E0,9.186952E-3,-1.1142677E-1,-1.3882905E-1,-1.07697986E-1,1.3108252E-1,-9.9694274E-2,3.0671492E-2,-1.2861781E-1,1.4071076E-1,1.1487251E-1,8.579593E-2,-2.8330786E-2,-4.9531505E-2,-1.3245457E-1,8.8155545E-2,-8.459328E-2],"split_indices":[6,5,8,8,3,7,5,3,5,10,9,8,3,8,10,0,0,0,0,0,0,0,0,0,0,0,0,0,0,0,0],"split_type":[0,0,0,0,0,0,0,0,0,0,0,0,0,0,0,0,0,0,0,0,0,0,0,0,0,0,0,0,0,0,0],"sum_hessian":[8.6113244E5,4.6373253E5,3.973999E5,4.2927203E5,3.4460516E4,3.735872E5,2.3812723E4,1.0293426E5,3.2633778E5,2.6756584E4,7.703934E3,3.5524794E5,1.8339232E4,1.888029E4,4.9324336E3,3.666882E4,6.626544E4,3.026355E5,2.3702266E4,2.5712277E4,1.0443065E3,4.275311E3,3.428623E3,3.1289238E5,4.2355574E4,1.5642643E4,2.696589E3,9.1265205E3,9.753768E3,3.9289885E3,1.0034454E3],"tree_param":{"num_deleted":"0","num_feature":"13","num_nodes":"31","size_leaf_vector":"0"}},{"base_weights":[2.7014822E-4,-1.0021036E0,1.1577954E0,-1.1837013E0,4.5043823E-1,1.2818755E0,-5.714412E-1,-6.8482447E-1,-1.3031305E0,9.267957E-1,-8.752992E-1,1.3237413E0,7.341842E-1,-8.298013E-1,6.222626E-1,1.2078017E-1,-1.0550557E0,-1.0891834E0,-1.3404006E0,1.1525016E0,-2.8100234E-1,-7.530073E-2,-1.2646983E0,1.3502725E0,1.0978239E0,9.472179E-1,1.0859298E-1,-2.5085798E-1,-1.1564572E0,9.114299E-1,-6.939106E-1],"categories":[],"categories_nodes":[],"categories_segments":[],"categories_sizes":[],"default_left":[1,1,1,1,1,1,1,1,1,1,1,1,1,1,1,0,0,0,0,0,0,0,0,0,0,0,0,0,0,0,0],"id":6,"left_children":[1,3,5,7,9,11,13,15,17,19,21,23,25,27,29,-1,-1,-1,-1,-1,-1,-1,-1,-1,-1,-1,-1,-1,-1,-1,-1],"loss_changes":[9.4968156E5,1.1570603E5,8.150309E4,2.3229562E4,3.0785395E4,8.12575E3,7.843843E3,2.2463188E4,2.5070625E3,9.776428E3,4.0141074E3,1.9720625E3,3.354413E3,3.9535977E3,1.7230363E3,0E0,0E0,0E0,0E0,0E0,0E0,0E0,0E0,0E0,0E0,0E0,0E0,0E0,0E0,0E0,0E0],"parents":[2147483647,0,0,1,1,2,2,3,3,4,4,5,5,6,6,7,7,8,8,9,9,10,10,11,11,12,12,13,13,14,14],"right_children":[2,4,6,8,10,12,14,16,18,20,22,24,26,28,30,-1,-1,-1,-1,-1,-1,-1,-1,-1,-1,-1,-1,-1,-1,-1,-1],"split_conditions":[7.257105E-1,5.6253242E0,1.141064E-1,4.470653E-2,2.328381E0,1.1315237E-1,7.935726E0,3.343531E-1,1.4626053E-1,1.474219E-1,3.5395354E-2,2.6950082E-2,2.9887665E-2,6.58669E-2,-4.734289E0,1.2078017E-2,-1.0550558E-1,-1.0891835E-1,-1.3404006E-1,1.1525016E-1,-2.8100235E-2,-7.530073E-3,-1.2646984E-1,1.3502726E-1,1.0978239E-1,9.472179E-2,1.08592985E-2,-2.5085798E-2,-1.1564572E-1,9.114299E-2,-6.9391064E-2],"split_indices":[6,5,8,8,9,7,5,7,8,3,3,8,8,7,10,0,0,0,0,0,0,0,0,0,0,0,0,0,0,0,0],"split_type":[0,0,0,0,0,0,0,0,0,0,0,0,0,0,0,0,0,0,0,0,0,0,0,0,0,0,0,0,0,0,0],"sum_hessian":[8.1849644E5,4.3864575E5,3.798507E5,3.899003E5,4.874542E4,3.544198E5,2.5430865E4,7.531269E4,3.1458762E5,3.5860504E4,1.2884919E4,3.2925038E5,2.5169457E4,2.09063E4,4.5245654E3,2.3713648E4,5.1599035E4,4.6676055E4,2.679116E5,3.021429E4,5.6462153E3,4.2188076E3,8.666111E3,2.946431E5,3.4607258E4,1.8775344E4,6.394114E3,7.5416836E3,1.3364616E4,3.7098152E3,8.147502E2],"tree_param":{"num_deleted":"0","num_feature":"13","num_nodes":"31","size_leaf_vector":"0"}},{"base_weights":[3.2933927E-4,-8.947999E-1,1.1828992E0,-1.0931206E0,4.2246282E-1,1.2425299E0,-6.545586E-1,-5.9510636E-1,-1.2655865E0,8.2930577E-1,-9.9135774E-1,1.2841835E0,8.354691E-1,-2.3491143E-1,-1.1414086E0,-9.6074295E-1,3.1494993E-1,-1.0660026E0,-1.2931421E0,1.1506575E0,-5.429747E-2,-7.124987E-2,-1.2382345E0,1.2918454E0,6.1667144E-1,1.0305046E0,1.8427333E-1,3.8005495E-1,-7.3817533E-1,-5.9052163E-1,-1.2840351E0],"categories":[],"categories_nodes":[],"categories_segments":[],"categories_sizes":[],"default_left":[1,1,1,1,1,1,1,1,1,1,1,1,1,1,1,0,0,0,0,0,0,0,0,0,0,0,0,0,0,0,0],"id":7,"left_children":[1,3,5,7,9,11,13,15,17,19,21,23,25,27,29,-1,-1,-1,-1,-1,-1,-1,-1,-1,-1,-1,-1,-1,-1,-1,-1],"loss_changes":[8.206212E5,1.1527009E5,3.6595656E4,3.2938344E4,3.321237E4,5.4839062E3,2.1447031E3,3.282575E4,1.56525E3,1.2731457E4,2.9308018E3,1.5000938E3,3.814086E3,1.7457605E3,3.8109766E2,0E0,0E0,0E0,0E0,0E0,0E0,0E0,0E0,0E0,0E0,0E0,0E0,0E0,0E0,0E0,0E0],"parents":[2147483647,0,0,1,1,2,2,3,3,4,4,5,5,6,6,7,7,8,8,9,9,10,10,11,11,12,12,13,13,14,14],"right_children":[2,4,6,8,10,12,14,16,18,20,22,24,26,28,30,-1,-1,-1,-1,-1,-1,-1,-1,-1,-1,-1,-1,-1,-1,-1,-1],"split_conditions":[7.726922E-1,5.3660803E0,2.5315535E-1,6.998241E-2,-5.6651373E0,3.3113703E-2,-4.7878575E0,6.264504E-1,1.6823642E-1,6.485123E-2,2.2035374E-1,6.872315E-2,7.825503E-2,5.3753175E-2,4.970623E0,-9.60743E-2,3.1494994E-2,-1.0660026E-1,-1.2931421E-1,1.1506575E-1,-5.429747E-3,-7.1249874E-3,-1.2382346E-1,1.2918454E-1,6.1667144E-2,1.0305046E-1,1.8427333E-2,3.8005497E-2,-7.3817536E-2,-5.9052166E-2,-1.2840351E-1],"split_indices":[6,5,8,8,10,8,10,6,8,3,8,3,7,7,9,0,0,0,0,0,0,0,0,0,0,0,0,0,0,0,0],"split_type":[0,0,0,0,0,0,0,0,0,0,0,0,0,0,0,0,0,0,0,0,0,0,0,0,0,0,0,0,0,0,0],"sum_hessian":[7.7522725E5,4.4123844E5,3.3398878E5,3.835006E5,5.7737836E4,3.2349094E5,1.0497857E4,9.8648016E4,2.8485256E5,4.4836137E4,1.2901696E4,2.9345975E5,3.0031197E4,5.638852E3,4.8590054E3,7.037367E4,2.8274344E4,3.4561926E4,2.5029064E5,3.287848E4,1.1957657E4,2.7296394E3,1.0172057E4,2.901286E5,3.3311567E3,2.3109299E4,6.9218975E3,2.5378977E3,3.1009543E3,1.00034973E3,3.8586555E3],"tree_param":{"num_deleted":"0","num_feature":"13","num_nodes":"31","size_leaf_vector":"0"}},{"base_weights":[3.9581495E-4,-8.474046E-1,1.1431398E0,-1.043971E0,3.7682876E-1,1.2174777E0,-1.8354708E-1,-5.310189E-1,-1.2142916E0,7.8111446E-1,-9.4791555E-1,8.9962727E-1,1.2531692E0,2.4525541E-1,-9.1206783E-1,4.8396772E-1,-8.494914E-1,-9.759904E-1,-1.2489284E0,1.0975305E0,-8.367457E-2,-2.8824335E-2,-1.1762079E0,9.9355626E-1,2.8453746E-1,8.4411174E-1,1.2647952E0,6.7258674E-1,-4.7024298E-1,2.4945799E-1,-1.0790461E0],"categories":[],"categories_nodes":[],"categories_segments":[],"categories_sizes":[],"default_left":[1,1,1,1,1,1,1,1,1,1,1,1,1,1,1,0,0,0,0,0,0,0,0,0,0,0,0,0,0,0,0],"id":8,"left_children":[1,3,5,7,9,11,13,15,17,19,21,23,25,27,29,-1,-1,-1,-1,-1,-1,-1,-1,-1,-1,-1,-1,-1,-1,-1,-1],"loss_changes":[7.0961556E5,1.01188875E5,3.0766906E4,3.1653719E4,3.1158049E4,3.3501562E3,5.171387E3,2.9195057E4,2.243875E3,1.21968125E4,2.8542021E3,1.7229258E3,1.262E3,3.186586E3,1.189855E3,0E0,0E0,0E0,0E0,0E0,0E0,0E0,0E0,0E0,0E0,0E0,0E0,0E0,0E0,0E0,0E0],"parents":[2147483647,0,0,1,1,2,2,3,3,4,4,5,5,6,6,7,7,8,8,9,9,10,10,11,11,12,12,13,13,14,14],"right_children":[2,4,6,8,10,12,14,16,18,20,22,24,26,28,30,-1,-1,-1,-1,-1,-1,-1,-1,-1,-1,-1,-1,-1,-1,-1,-1],"split_conditions":[7.7601886E-1,5.254448E0,1.0201008E-1,5.9521712E-2,2.904159E0,8.4600174E-1,4.7799844E-1,1.9614324E-1,1.496431E-1,5.394589E-2,2.2035374E-1,4.7434703E-2,1.5089142E1,6.60405E-2,1.6090059E0,4.8396774E-2,-8.494914E-2,-9.7599044E-2,-1.24892846E-1,1.0975305E-1,-8.367457E-3,-2.8824336E-3,-1.1762079E-1,9.935563E-2,2.8453747E-2,8.4411174E-2,1.2647952E-1,6.725868E-2,-4.70243E-2,2.49458E-2,-1.0790461E-1],"split_indices":[6,5,8,8,9,6,8,7,8,4,8,3,0,7,9,0,0,0,0,0,0,0,0,0,0,0,0,0,0,0,0],"split_type":[0,0,0,0,0,0,0,0,0,0,0,0,0,0,0,0,0,0,0,0,0,0,0,0,0,0,0,0,0,0,0],"sum_hessian":[7.324523E5,4.204909E5,3.119614E5,3.6231647E5,5.8174414E4,2.9540894E5,1.655247E4,9.0316305E4,2.720002E5,4.4572254E4,1.3602158E4,2.9825344E4,2.655836E5,1.0419995E4,6.1324766E3,2.1570285E4,6.8746016E4,3.452155E4,2.3747862E5,3.263224E4,1.1940017E4,2.7066155E3,1.0895543E4,2.5873627E4,3.9517183E3,7.341722E3,2.5824188E5,6.5237476E3,3.8962473E3,7.707226E2,5.361754E3],"tree_param":{"num_deleted":"0","num_feature":"13","num_nodes":"31","size_leaf_vector":"0"}},{"base_weights":[4.5832925E-4,-8.8185066E-1,1.0126904E0,-1.0049406E0,7.921257E-1,1.1420271E0,-4.8844728E-1,-5.465044E-1,-1.1802658E0,1.0878712E0,-3.2256758E-1,1.1981016E0,6.3368946E-1,-6.959932E-1,6.527961E-1,-4.8714955E-5,-1.0078713E0,-9.9094325E-1,-1.2227032E0,1.1829141E0,-3.9013603E-1,2.3090497E-1,-1.0476831E0,1.2290845E0,9.747396E-1,3.2796612E-1,1.004644E0,-2.9865175E-1,-1.148974E0,9.0729845E-1,-3.775868E-1],"categories":[],"categories_nodes":[],"categories_segments":[],"categories_sizes":[],"default_left":[1,1,1,1,1,1,1,1,1,1,1,1,1,1,1,0,0,0,0,0,0,0,0,0,0,0,0,0,0,0,0],"id":9,"left_children":[1,3,5,7,9,11,13,15,17,19,21,23,25,27,29,-1,-1,-1,-1,-1,-1,-1,-1,-1,-1,-1,-1,-1,-1,-1,-1],"loss_changes":[6.1673875E5,7.602444E4,6.244003E4,2.7623281E4,8.331757E3,8.43925E3,6.0431284E3,2.397125E4,1.9962188E3,2.8062012E3,2.127279E3,1.8442812E3,3.336038E3,3.884954E3,1.0299089E3,0E0,0E0,0E0,0E0,0E0,0E0,0E0,0E0,0E0,0E0,0E0,0E0,0E0,0E0,0E0,0E0],"parents":[2147483647,0,0,1,1,2,2,3,3,4,4,5,5,6,6,7,7,8,8,9,9,10,10,11,11,12,12,13,13,14,14],"right_children":[2,4,6,8,10,12,14,16,18,20,22,24,26,28,30,-1,-1,-1,-1,-1,-1,-1,-1,-1,-1,-1,-1,-1,-1,-1,-1],"split_conditions":[7.161619E-1,8.169996E0,1.1136325E-1,7.862371E-2,6.8509676E-2,9.838793E-2,8.648739E0,1.1822608E-1,1.8025371E0,1.924842E-1,1.733626E0,2.5056994E-2,4.6080923E0,5.121973E-1,-4.8634396E0,-4.8714955E-6,-1.00787126E-1,-9.9094324E-2,-1.2227032E-1,1.18291415E-1,-3.9013606E-2,2.3090497E-2,-1.0476831E-1,1.2290845E-1,9.7473964E-2,3.2796614E-2,1.004644E-1,-2.9865175E-2,-1.1489739E-1,9.072985E-2,-3.7758682E-2],"split_indices":[6,5,8,8,4,7,5,3,9,3,9,8,5,8,10,0,0,0,0,0,0,0,0,0,0,0,0,0,0,0,0],"split_type":[0,0,0,0,0,0,0,0,0,0,0,0,0,0,0,0,0,0,0,0,0,0,0,0,0,0,0,0,0,0,0],"sum_hessian":[6.9055644E5,3.6895666E5,3.215998E5,3.4368534E5,2.5271299E4,2.9608925E5,2.5510541E4,9.507902E4,2.4860633E5,1.9972348E4,5.298951E3,2.6667147E5,2.9417777E4,2.158542E4,3.9251228E3,4.352629E4,5.1552734E4,4.5526547E4,2.0307978E5,1.8765814E4,1.2065328E3,3.0055386E3,2.2934126E3,2.3418311E5,3.2488375E4,1.6127848E4,1.3289931E4,1.1499795E4,1.0085625E4,3.1477537E3,7.7736896E2],"tree_param":{"num_deleted":"0","num_feature":"13","num_nodes":"31","size_leaf_vector":"0"}},{"base_weights":[5.231752E-4,9.3011713E-1,-8.935013E-1,1.10458E0,-6.0192865E-1,-1.0416931E0,7.812251E-2,1.1424297E0,1.595509E-1,-8.3794343E-1,8.844438E-1,-5.709304E-1,-1.1599005E0,6.015466E-1,-8.828933E-1,1.1945832E0,8.7047297E-1,-6.295392E-1,4.7317228E-1,-3.7188947E-1,-1.1155076E0,1.0848299E0,-2.6281247E-1,-9.155794E-1,1.5758355E-1,-1.0436575E0,-1.21208E0,8.469333E-1,-2.9938892E-1,1.1728635E-1,-1.0778874E0],"categories":[],"categories_nodes":[],"categories_segments":[],"categories_sizes":[],"default_left":[1,1,1,1,1,1,1,1,1,1,1,1,1,1,1,0,0,0,0,0,0,0,0,0,0,0,0,0,0,0,0],"id":10,"left_children":[1,3,5,7,9,11,13,15,17,19,21,23,25,27,29,-1,-1,-1,-1,-1,-1,-1,-1,-1,-1,-1,-1,-1,-1,-1,-1],"loss_changes":[5.4018194E5,8.517091E4,4.770675E4,1.0232344E4,1.1429084E4,1.59969375E4,2.2056582E4,3.9002188E3,2.7268604E3,3.6363945E3,1.026646E3,1.4487521E4,1.3925E3,6.275999E3,3.0155312E3,0E0,0E0,0E0,0E0,0E0,0E0,0E0,0E0,0E0,0E0,0E0,0E0,0E0,0E0,0E0,0E0],"parents":[2147483647,0,0,1,1,2,2,3,3,4,4,5,5,6,6,7,7,8,8,9,9,10,10,11,11,12,12,13,13,14,14],"right_children":[2,4,6,8,10,12,14,16,18,20,22,24,26,28,30,-1,-1,-1,-1,-1,-1,-1,-1,-1,-1,-1,-1,-1,-1,-1,-1],"split_conditions":[1.4088374E-1,1.6808438E-1,5.00043E0,6.0126893E-2,9.35091E0,3.69419E-2,2.0139976E0,2.5674671E-2,6.396841E-1,5.3915006E-1,-5.0115504E0,6.1085105E-1,2.7211185E0,1.7002387E-1,1.0095626E-1,1.1945832E-1,8.70473E-2,-6.295392E-2,4.731723E-2,-3.7188947E-2,-1.1155076E-1,1.08482994E-1,-2.6281247E-2,-9.155794E-2,1.5758356E-2,-1.0436576E-1,-1.21208005E-1,8.4693335E-2,-2.9938892E-2,1.1728635E-2,-1.0778874E-1],"split_indices":[7,8,5,4,5,8,9,8,6,8,10,6,9,3,8,0,0,0,0,0,0,0,0,0,0,0,0,0,0,0,0],"split_type":[0,0,0,0,0,0,0,0,0,0,0,0,0,0,0,0,0,0,0,0,0,0,0,0,0,0,0,0,0,0,0],"sum_hessian":[6.499741E5,3.1864822E5,3.313259E5,2.860718E5,3.257639E4,2.8747953E5,4.384637E4,2.750553E5,1.1016504E4,2.8112898E4,4.4634927E3,5.769889E4,2.2978066E5,2.838607E4,1.54603E4,2.3079253E5,4.4262777E4,3.1329097E3,7.8835947E3,1.049434E4,1.7618559E4,3.7998452E3,6.636475E2,3.9168574E4,1.8530316E4,7.119542E4,1.5858523E5,2.2309672E4,6.076399E3,2.5224326E3,1.2937867E4],"tree_param":{"num_deleted":"0","num_feature":"13","num_nodes":"31","size_leaf_vector":"0"}},{"base_weights":[5.184149E-4,-7.3068297E-1,1.0530999E0,-9.382271E-1,2.530918E-1,1.1232848E0,-4.046993E-2,-5.068041E-1,-1.1372099E0,6.334253E-1,-9.053474E-1,8.5378474E-1,1.165125E0,2.4133813E-1,-8.7232995E-1,1.24025844E-1,-8.83499E-1,-9.3797743E-1,-1.1618973E0,9.916512E-1,-7.978162E-2,-1.6528884E-1,-1.0976949E0,9.301325E-1,3.078346E-1,6.322095E-1,1.1750495E0,6.2347716E-1,-3.2616878E-1,3.0763546E-1,-1.0507706E0],"categories":[],"categories_nodes":[],"categories_segments":[],"categories_sizes":[],"default_left":[1,1,1,1,1,1,1,1,1,1,1,1,1,1,1,0,0,0,0,0,0,0,0,0,0,0,0,0,0,0,0],"id":11,"left_children":[1,3,5,7,9,11,13,15,17,19,21,23,25,27,29,-1,-1,-1,-1,-1,-1,-1,-1,-1,-1,-1,-1,-1,-1,-1,-1],"loss_changes":[4.7027647E5,7.361764E4,1.9224188E4,2.5559438E4,2.7676367E4,2.6529375E3,3.541571E3,2.2333148E4,1.001125E3,1.2082084E4,2.2099424E3,1.3182715E3,1.0767812E3,2.4474827E3,8.052417E2,0E0,0E0,0E0,0E0,0E0,0E0,0E0,0E0,0E0,0E0,0E0,0E0,0E0,0E0,0E0,0E0],"parents":[2147483647,0,0,1,1,2,2,3,3,4,4,5,5,6,6,7,7,8,8,9,9,10,10,11,11,12,12,13,13,14,14],"right_children":[2,4,6,8,10,12,14,16,18,20,22,24,26,28,30,-1,-1,-1,-1,-1,-1,-1,-1,-1,-1,-1,-1,-1,-1,-1,-1],"split_conditions":[7.853728E-1,4.7542763E0,9.326002E-2,8.774483E-2,3.0027313E0,8.6474013E-1,5.3977525E-1,4.5950066E-2,1.5672593E-1,5.4164883E-2,2.5677007E-1,4.6432298E-2,1.36825485E1,5.3848103E-2,1.599992E0,1.2402585E-2,-8.83499E-2,-9.379774E-2,-1.1618973E-1,9.916512E-2,-7.978163E-3,-1.6528884E-2,-1.09769486E-1,9.301325E-2,3.078346E-2,6.322095E-2,1.17504954E-1,6.2347718E-2,-3.261688E-2,3.0763546E-2,-1.05077066E-1],"split_indices":[6,5,8,8,9,6,8,3,7,3,8,3,0,7,9,0,0,0,0,0,0,0,0,0,0,0,0,0,0,0,0],"split_type":[0,0,0,0,0,0,0,0,0,0,0,0,0,0,0,0,0,0,0,0,0,0,0,0,0,0,0,0,0,0,0],"sum_hessian":[6.1102525E5,3.605563E5,2.5046892E5,2.9774247E5,6.2813844E4,2.3536334E5,1.510559E4,9.398125E4,2.037612E5,4.728869E4,1.5525153E4,3.163267E4,2.0373067E5,1.1283727E4,3.8218625E3,3.51381E4,5.884315E4,2.246914E4,1.8129206E5,3.1477793E4,1.5810896E4,3.203091E3,1.23220625E4,2.775114E4,3.8815308E3,3.725916E3,2.0000475E5,6.7430786E3,4.5406484E3,5.019461E2,3.3199165E3],"tree_param":{"num_deleted":"0","num_feature":"13","num_nodes":"31","size_leaf_vector":"0"}},{"base_weights":[5.565463E-4,8.8437665E-1,-8.1295717E-1,1.0386134E0,-5.9432524E-1,-9.757858E-1,2.7035843E-3,1.086395E0,2.1817644E-1,-7.916084E-1,9.405643E-1,-5.194849E-1,-1.1043423E0,4.9685794E-1,-8.4782714E-1,5.505031E-1,1.1182644E0,5.938506E-1,-4.0560138E-1,-3.8657293E-1,-1.0735788E0,1.1325235E0,-3.7556165E-3,-8.6827695E-1,1.3148782E-1,-9.4017E-1,-1.1465055E0,8.875678E-1,-8.270336E-3,-5.442071E-2,-1.0410947E0],"categories":[],"categories_nodes":[],"categories_segments":[],"categories_sizes":[],"default_left":[1,1,1,1,1,1,1,1,1,1,1,1,1,1,1,0,0,0,0,0,0,0,0,0,0,0,0,0,0,0,0],"id":12,"left_children":[1,3,5,7,9,11,13,15,17,19,21,23,25,27,29,-1,-1,-1,-1,-1,-1,-1,-1,-1,-1,-1,-1,-1,-1,-1,-1],"loss_changes":[4.127222E5,6.274797E4,3.9697766E4,9.766375E3,7.869799E3,1.4615297E4,2.0905977E4,4.0200938E3,3.2135308E3,2.629539E3,5.3660254E2,1.243574E4,1.3445156E3,6.2093164E3,2.8028877E3,0E0,0E0,0E0,0E0,0E0,0E0,0E0,0E0,0E0,0E0,0E0,0E0,0E0,0E0,0E0,0E0],"parents":[2147483647,0,0,1,1,2,2,3,3,4,4,5,5,6,6,7,7,8,8,9,9,10,10,11,11,12,12,13,13,14,14],"right_children":[2,4,6,8,10,12,14,16,18,20,22,24,26,28,30,-1,-1,-1,-1,-1,-1,-1,-1,-1,-1,-1,-1,-1,-1,-1,-1],"split_conditions":[1.3208815E-1,2.1781479E-1,4.57423E0,4.618983E-2,1.1103436E1,3.8228676E-2,2.0139976E0,1.524526E1,3.0108344E-2,6.0371923E-1,3.8702893E0,6.0464287E-1,1.6312903E-1,4.177941E-2,1.3672009E-1,5.505031E-2,1.1182644E-1,5.938506E-2,-4.0560137E-2,-3.8657293E-2,-1.0735788E-1,1.1325236E-1,-3.7556165E-4,-8.6827695E-2,1.3148782E-2,-9.4017E-2,-1.1465055E-1,8.8756785E-2,-8.2703365E-4,-5.4420712E-3,-1.04109466E-1],"split_indices":[7,8,5,4,5,8,9,0,8,8,9,6,8,4,8,0,0,0,0,0,0,0,0,0,0,0,0,0,0,0,0],"split_type":[0,0,0,0,0,0,0,0,0,0,0,0,0,0,0,0,0,0,0,0,0,0,0,0,0,0,0,0,0,0,0],"sum_hessian":[5.740207E5,2.7512184E5,2.9889884E5,2.4913589E5,2.5985957E4,2.4915945E5,4.973938E4,2.3542464E5,1.3711249E4,2.3026756E4,2.9592012E3,5.4768438E4,1.9439102E5,3.1461064E4,1.8278314E4,1.3215826E4,2.2220881E5,8.557492E3,5.1537563E3,9.451933E3,1.3574822E4,2.459118E3,5.0008322E2,3.5660926E4,1.910751E4,3.97271E4,1.546639E5,1.7739242E4,1.3721821E4,3.5805671E3,1.4697747E4],"tree_param":{"num_deleted":"0","num_feature":"13","num_nodes":"31","size_leaf_vector":"0"}},{"base_weights":[5.211239E-4,-6.682393E-1,1.000423E0,-8.790205E-1,1.8171465E-1,1.077799E0,4.8647054E-2,-4.7358975E-1,-1.0944341E0,5.3605247E-1,-8.6665094E-1,8.059365E-1,1.1215072E0,2.9498938E-1,-7.905193E-1,3.6161205E-1,-7.2897506E-1,-9.232075E-1,-1.1199653E0,9.1973025E-1,-9.279292E-2,-2.2558866E-1,-1.0652566E0,6.0310626E-1,1.0030955E0,6.80383E-1,1.1334453E0,4.928752E-1,-6.554065E-1,-1.6565986E-1,-1.0226381E0],"categories":[],"categories_nodes":[],"categories_segments":[],"categories_sizes":[],"default_left":[1,1,1,1,1,1,1,1,1,1,1,1,1,1,1,0,0,0,0,0,0,0,0,0,0,0,0,0,0,0,0],"id":13,"left_children":[1,3,5,7,9,11,13,15,17,19,21,23,25,27,29,-1,-1,-1,-1,-1,-1,-1,-1,-1,-1,-1,-1,-1,-1,-1,-1],"loss_changes":[3.6059866E5,5.7891344E4,1.5916141E4,2.2612766E4,2.3853623E4,2.3741094E3,3.359467E3,1.9163117E4,7.3815625E2,1.1579287E4,2.0649941E3,1.1065938E3,9.06E2,2.3630435E3,5.347439E2,0E0,0E0,0E0,0E0,0E0,0E0,0E0,0E0,0E0,0E0,0E0,0E0,0E0,0E0,0E0,0E0],"parents":[2147483647,0,0,1,1,2,2,3,3,4,4,5,5,6,6,7,7,8,8,9,9,10,10,11,11,12,12,13,13,14,14],"right_children":[2,4,6,8,10,12,14,16,18,20,22,24,26,28,30,-1,-1,-1,-1,-1,-1,-1,-1,-1,-1,-1,-1,-1,-1,-1,-1],"split_conditions":[7.8771245E-1,4.5034876E0,7.6705605E-2,9.759689E-2,-5.6308293E0,8.663091E-1,-4.710326E0,1.5E0,2.1852516E-1,4.7077343E-2,2.5956392E-1,5.0084596E0,1.4777663E1,3.7476763E-2,4.9858837E0,3.6161207E-2,-7.289751E-2,-9.2320755E-2,-1.1199653E-1,9.197303E-2,-9.279292E-3,-2.2558866E-2,-1.0652566E-1,6.031063E-2,1.0030955E-1,6.803831E-2,1.1334453E-1,4.928752E-2,-6.554065E-2,-1.6565986E-2,-1.0226381E-1],"split_indices":[6,5,8,8,10,6,10,2,8,3,8,5,0,3,9,0,0,0,0,0,0,0,0,0,0,0,0,0,0,0,0],"split_type":[0,0,0,0,0,0,0,0,0,0,0,0,0,0,0,0,0,0,0,0,0,0,0,0,0,0,0,0,0,0,0],"sum_hessian":[5.3925556E5,3.2313484E5,2.1612069E5,2.5892392E5,6.4210914E4,1.998717E5,1.6248993E4,8.983965E4,1.6908428E5,4.7990918E4,1.6219994E4,2.768598E4,1.7218572E5,1.2561993E4,3.687E3,2.103786E4,6.880179E4,2.1945068E4,1.4713922E5,2.9805318E4,1.81856E4,3.837002E3,1.2382993E4,1.3648722E4,1.403726E4,4.538585E3,1.6764712E5,1.0397557E4,2.1644365E3,9.9911487E2,2.6878853E3],"tree_param":{"num_deleted":"0","num_feature":"13","num_nodes":"31","size_leaf_vector":"0"}},{"base_weights":[5.925286E-4,8.158485E-1,-7.681223E-1,9.927699E-1,-4.0233836E-1,-1.6271937E-1,-9.68291E-1,1.0471247E0,2.9274175E-1,-7.144258E-1,4.5912662E-1,-5.828871E-1,5.958568E-1,-1.0142804E0,3.710958E-1,1.1079494E0,7.7727747E-1,-2.8452286E-2,8.121046E-1,-3.4008682E-1,-1.059132E0,7.061697E-1,-4.9039823E-1,-9.164518E-1,-5.1079478E-2,8.7972516E-1,6.369175E-2,-8.1669277E-1,-1.1094744E0,8.759966E-1,-5.720798E-1],"categories":[],"categories_nodes":[],"categories_segments":[],"categories_sizes":[],"default_left":[1,1,1,1,1,1,1,1,1,1,1,1,1,1,1,0,0,0,0,0,0,0,0,0,0,0,0,0,0,0,0],"id":14,"left_children":[1,3,5,7,9,11,13,15,17,19,21,23,25,27,29,-1,-1,-1,-1,-1,-1,-1,-1,-1,-1,-1,-1,-1,-1,-1,-1],"loss_changes":[3.1754806E5,5.2998766E4,3.1603516E4,8.1698125E3,8.384584E3,2.0655047E4,1.2072984E4,3.2695E3,2.5810874E3,2.9536182E3,1.9458649E3,7.397992E3,3.4895215E3,3.5631562E3,3.0991692E3,0E0,0E0,0E0,0E0,0E0,0E0,0E0,0E0,0E0,0E0,0E0,0E0,0E0,0E0,0E0,0E0],"parents":[2147483647,0,0,1,1,2,2,3,3,4,4,5,5,6,6,7,7,8,8,9,9,10,10,11,11,12,12,13,13,14,14],"right_children":[2,4,6,8,10,12,14,16,18,20,22,24,26,28,30,-1,-1,-1,-1,-1,-1,-1,-1,-1,-1,-1,-1,-1,-1,-1,-1],"split_conditions":[1.441178E-1,1.1987296E-1,3.595656E-2,3.844447E-2,5.8464994E0,3.4025075E0,9.57227E0,2.3426395E-2,8.311604E-1,5.713801E-1,-4.8634396E0,5.730777E-1,8.765027E-2,2.549551E0,7.552041E-2,1.1079494E-1,7.772775E-2,-2.8452286E-3,8.121046E-2,-3.400868E-2,-1.059132E-1,7.0616975E-2,-4.9039822E-2,-9.164518E-2,-5.107948E-3,8.7972514E-2,6.369175E-3,-8.166928E-2,-1.10947445E-1,8.759966E-2,-5.720798E-2],"split_indices":[7,8,8,4,5,5,5,8,6,8,10,6,4,9,3,0,0,0,0,0,0,0,0,0,0,0,0,0,0,0,0],"split_type":[0,0,0,0,0,0,0,0,0,0,0,0,0,0,0,0,0,0,0,0,0,0,0,0,0,0,0,0,0,0,0],"sum_hessian":[5.066972E5,2.4590453E5,2.6079266E5,2.1472019E5,3.1184346E4,6.480228E4,1.9599038E5,1.9924869E5,1.5471499E4,2.2891494E4,8.292853E3,4.170341E4,2.3098871E4,1.8948444E5,6.5059346E3,1.6259583E5,3.665286E4,9.560106E3,5.9113936E3,1.0975005E4,1.191649E4,6.5809155E3,1.7119368E3,2.562805E4,1.6075358E4,1.5063187E4,8.0356846E3,6.1611414E4,1.2787302E5,4.237557E3,2.268378E3],"tree_param":{"num_deleted":"0","num_feature":"13","num_nodes":"31","size_leaf_vector":"0"}},{"base_weights":[6.2769995E-4,-7.120696E-1,8.1861037E-1,-8.992324E-1,1.0264077E-1,9.69403E-1,-2.7794933E-1,-5.732759E-1,-1.0685312E0,5.034446E-1,-7.1996933E-1,5.807388E-1,1.0700876E0,2.699139E-2,-8.909963E-1,-1.7786852E-1,-9.1576624E-1,-9.6788275E-1,-1.1067733E0,8.227276E-1,-1.5539443E-1,-9.615053E-2,-9.8694915E-1,7.394042E-1,1.3107154E-1,6.3777274E-1,1.0907811E0,3.917894E-1,-5.7076013E-1,-9.852236E-1,6.904199E-1],"categories":[],"categories_nodes":[],"categories_segments":[],"categories_sizes":[],"default_left":[1,1,1,1,1,1,1,1,1,1,1,1,1,1,1,0,0,0,0,0,0,0,0,0,0,0,0,0,0,0,0],"id":15,"left_children":[1,3,5,7,9,11,13,15,17,19,21,23,25,27,29,-1,-1,-1,-1,-1,-1,-1,-1,-1,-1,-1,-1,-1,-1,-1,-1],"loss_changes":[2.774912E5,3.8786758E4,3.664683E4,1.14140625E4,1.56679E4,7.623703E3,5.0088213E3,9.575777E3,5.229219E2,6.7215093E3,2.5927793E3,2.860164E3,1.3836719E3,3.9021394E3,1.3269355E3,0E0,0E0,0E0,0E0,0E0,0E0,0E0,0E0,0E0,0E0,0E0,0E0,0E0,0E0,0E0,0E0],"parents":[2147483647,0,0,1,1,2,2,3,3,4,4,5,5,6,6,7,7,8,8,9,9,10,10,11,11,12,12,13,13,14,14],"right_children":[2,4,6,8,10,12,14,16,18,20,22,24,26,28,30,-1,-1,-1,-1,-1,-1,-1,-1,-1,-1,-1,-1,-1,-1,-1,-1],"split_conditions":[7.0097065E-1,4.5042696E0,8.54169E-2,9.961821E-2,2.204997E0,8.4600174E-1,5.3265417E-1,1.2413581E-1,3.012165E0,6.981546E-2,2.7934812E-2,3.372134E-2,1.6779465E1,1.0695595E-2,1.33735895E1,-1.7786851E-2,-9.157663E-2,-9.678828E-2,-1.10677324E-1,8.227276E-2,-1.5539444E-2,-9.615053E-3,-9.869491E-2,7.394042E-2,1.3107154E-2,6.3777275E-2,1.0907811E-1,3.917894E-2,-5.7076015E-2,-9.852236E-2,6.904199E-2],"split_indices":[6,5,8,8,9,6,8,3,9,4,3,3,0,4,5,0,0,0,0,0,0,0,0,0,0,0,0,0,0,0,0],"split_type":[0,0,0,0,0,0,0,0,0,0,0,0,0,0,0,0,0,0,0,0,0,0,0,0,0,0,0,0,0,0,0],"sum_hessian":[4.7599038E5,2.5436539E5,2.2162498E5,2.0684656E5,4.751882E4,1.9483281E5,2.6792182E4,7.071023E4,1.3613634E5,3.1951395E4,1.5567426E4,4.0088633E4,1.5474417E5,1.7892889E4,8.899293E3,3.2820383E4,3.7889844E4,3.749103E4,9.8645305E4,2.1521508E4,1.0429886E4,4.666095E3,1.0901331E4,2.9632234E4,1.0456399E4,7.070213E3,1.4767395E5,1.1111852E4,6.7810376E3,8.399211E3,5.0008246E2],"tree_param":{"num_deleted":"0","num_feature":"13","num_nodes":"31","size_leaf_vector":"0"}},{"base_weights":[5.7995773E-4,8.123225E-1,-6.730644E-1,9.735047E-1,-2.1824363E-1,-2.5518608E-1,-1.0024272E0,1.0049545E0,-1.387118E-2,-5.865818E-1,4.0231565E-1,1.9026461E-1,-7.7390397E-1,-1.0285684E0,-5.3815665E-3,1.0710748E0,7.18683E-1,2.1691418E-1,-1.058364E0,-1.9369991E-1,-9.9406576E-1,5.8840746E-1,-6.7903554E-1,6.100133E-1,-2.6351714E-1,-9.167685E-1,-2.7979437E-1,-8.109107E-1,-1.0879385E0,6.3704944E-1,-6.8645406E-1],"categories":[],"categories_nodes":[],"categories_segments":[],"categories_sizes":[],"default_left":[1,1,1,1,1,1,1,1,1,1,1,1,1,1,1,0,0,0,0,0,0,0,0,0,0,0,0,0,0,0,0],"id":16,"left_children":[1,3,5,7,9,11,13,15,17,19,21,23,25,27,29,-1,-1,-1,-1,-1,-1,-1,-1,-1,-1,-1,-1,-1,-1,-1,-1],"loss_changes":[2.4451388E5,3.3685375E4,3.3632133E4,5.4455E3,6.2695664E3,2.4887768E4,3.5617188E3,3.2161094E3,1.3053403E3,2.7553418E3,2.056318E3,1.1037723E4,3.5125059E3,1.7198906E3,1.5284779E3,0E0,0E0,0E0,0E0,0E0,0E0,0E0,0E0,0E0,0E0,0E0,0E0,0E0,0E0,0E0,0E0],"parents":[2147483647,0,0,1,1,2,2,3,3,4,4,5,5,6,6,7,7,8,8,9,9,10,10,11,11,12,12,13,13,14,14],"right_children":[2,4,6,8,10,12,14,16,18,20,22,24,26,28,30,-1,-1,-1,-1,-1,-1,-1,-1,-1,-1,-1,-1,-1,-1,-1,-1],"split_conditions":[1.1568166E-1,9.477633E-2,1.7986166E0,6.961611E-2,4.9149756E0,1.4368969E-1,8.969287E0,2.2802977E-2,1.7223527E-1,5.157333E-1,-4.6065683E0,7.6286204E-2,3.7316391E0,1.7986599E-1,3.7227668E-2,1.0710748E-1,7.18683E-2,2.1691417E-2,-1.0583641E-1,-1.9369991E-2,-9.940658E-2,5.8840748E-2,-6.7903556E-2,6.100133E-2,-2.6351715E-2,-9.167685E-2,-2.7979437E-2,-8.109107E-2,-1.08793855E-1,6.3704945E-2,-6.864541E-2],"split_indices":[7,8,9,4,5,3,5,8,4,8,10,4,5,8,4,0,0,0,0,0,0,0,0,0,0,0,0,0,0,0,0],"split_type":[0,0,0,0,0,0,0,0,0,0,0,0,0,0,0,0,0,0,0,0,0,0,0,0,0,0,0,0,0,0,0],"sum_hessian":[4.4714934E5,2.0278856E5,2.4436077E5,1.7536177E5,2.742681E4,1.0770813E5,1.3665264E5,1.6994856E5,5.4131914E3,1.7211082E4,1.0215729E4,5.7946773E4,4.9761355E4,1.3316131E5,3.4913286E3,1.3805838E5,3.1890195E4,4.4342227E3,9.789689E2,8.763293E3,8.447789E3,8.716197E3,1.4995314E3,3.0102021E4,2.7844752E4,3.8599902E4,1.1161454E4,2.8541129E4,1.0462018E5,1.7966646E3,1.6946641E3],"tree_param":{"num_deleted":"0","num_feature":"13","num_nodes":"31","size_leaf_vector":"0"}},{"base_weights":[5.3910527E-4,-5.433225E-1,9.3673855E-1,-1.2481007E-1,-9.497797E-1,1.0206203E0,2.4223211E-1,3.0736095E-1,-6.9245857E-1,-9.819511E-1,3.3186644E-1,5.870157E-1,1.0463079E0,3.8278377E-1,-7.383028E-1,6.901102E-1,-1.9015661E-1,-8.5166335E-1,-1.7609756E-1,-7.187827E-1,-1.0618879E0,8.488141E-1,-7.065238E-1,6.459249E-1,-2.583885E-1,8.4552556E-1,1.078044E0,-4.1886175E-1,5.331389E-1,-4.052304E-2,-9.686888E-1],"categories":[],"categories_nodes":[],"categories_segments":[],"categories_sizes":[],"default_left":[1,1,1,1,1,1,1,1,1,1,1,1,1,1,1,0,0,0,0,0,0,0,0,0,0,0,0,0,0,0,0],"id":17,"left_children":[1,3,5,7,9,11,13,15,17,19,21,23,25,27,29,-1,-1,-1,-1,-1,-1,-1,-1,-1,-1,-1,-1,-1,-1,-1,-1],"loss_changes":[2.1425327E5,4.52774E4,9.007656E3,3.2172E4,5.5679297E3,1.5360312E3,2.2968755E3,1.4178449E4,4.6598516E3,2.7702812E3,1.7758938E3,3.8455396E2,8.290156E2,1.7570505E3,3.358739E2,0E0,0E0,0E0,0E0,0E0,0E0,0E0,0E0,0E0,0E0,0E0,0E0,0E0,0E0,0E0,0E0],"parents":[2147483647,0,0,1,1,2,2,3,3,4,4,5,5,6,6,7,7,8,8,9,9,10,10,11,11,12,12,13,13,14,14],"right_children":[2,4,6,8,10,12,14,16,18,20,22,24,26,28,30,-1,-1,-1,-1,-1,-1,-1,-1,-1,-1,-1,-1,-1,-1,-1,-1],"split_conditions":[8.063073E-1,1.9761014E0,4.841063E-2,1.0883998E-1,9.899404E0,1.7255285E1,-4.528905E0,5.0259408E-2,3.8425617E0,2.1967141E-1,5.261255E-2,1.8062307E-1,8.771256E-1,1.432814E1,5.215872E0,6.9011025E-2,-1.901566E-2,-8.5166335E-2,-1.7609756E-2,-7.187828E-2,-1.0618879E-1,8.488141E-2,-7.065238E-2,6.4592496E-2,-2.583885E-2,8.455256E-2,1.0780441E-1,-4.1886177E-2,5.331389E-2,-4.052304E-3,-9.686888E-2],"split_indices":[6,9,8,3,5,0,10,4,5,8,3,7,6,0,9,0,0,0,0,0,0,0,0,0,0,0,0,0,0,0,0],"split_type":[0,0,0,0,0,0,0,0,0,0,0,0,0,0,0,0,0,0,0,0,0,0,0,0,0,0,0,0,0,0,0],"sum_hessian":[4.207931E5,2.661692E5,1.5462389E5,1.3114047E5,1.3502872E5,1.3796067E5,1.6663219E4,7.445539E4,5.6685082E4,1.3172248E5,3.3062207E3,7.717292E3,1.3024338E5,1.4574669E4,2.08855E3,4.2081188E4,3.2374203E4,4.3326098E4,1.3358984E4,3.0691053E4,1.0103144E5,2.207454E3,1.0987666E3,7.214789E3,5.0250305E2,1.7780523E4,1.1246287E5,2.301582E3,1.2273087E4,5.187042E2,1.5698457E3],"tree_param":{"num_deleted":"0","num_feature":"13","num_nodes":"31","size_leaf_vector":"0"}},{"base_weights":[5.6018686E-4,-5.153084E-1,9.160727E-1,-1.23188905E-1,-9.331476E-1,1.0099049E0,2.7494773E-1,2.540825E-1,-6.940428E-1,-9.6946335E-1,1.4115421E-1,6.333205E-1,1.0369878E0,3.8063568E-1,-8.563134E-1,6.6472834E-1,-1.5404193E-1,-8.774846E-1,-2.9854205E-1,-1.0273957E0,-6.0161024E-1,8.3601654E-1,-5.3422743E-1,7.675864E-1,2.8201625E-1,8.3636296E-1,1.0676459E0,5.440348E-1,-2.7473527E-1,-3.7164268E-1,-1.0850204E0],"categories":[],"categories_nodes":[],"categories_segments":[],"categories_sizes":[],"default_left":[1,1,1,1,1,1,1,1,1,1,1,1,1,1,1,0,0,0,0,0,0,0,0,0,0,0,0,0,0,0,0],"id":18,"left_children":[1,3,5,7,9,11,13,15,17,19,21,23,25,27,29,-1,-1,-1,-1,-1,-1,-1,-1,-1,-1,-1,-1,-1,-1,-1,-1],"loss_changes":[1.8717728E5,4.1532234E4,8.592383E3,2.8163752E4,4.787922E3,1.270125E3,2.1807651E3,1.3195795E4,3.7749805E3,2.5290938E3,1.8840369E3,3.942124E2,7.140625E2,1.786315E3,1.7235596E2,0E0,0E0,0E0,0E0,0E0,0E0,0E0,0E0,0E0,0E0,0E0,0E0,0E0,0E0,0E0,0E0],"parents":[2147483647,0,0,1,1,2,2,3,3,4,4,5,5,6,6,7,7,8,8,9,9,10,10,11,11,12,12,13,13,14,14],"right_children":[2,4,6,8,10,12,14,16,18,20,22,24,26,28,30,-1,-1,-1,-1,-1,-1,-1,-1,-1,-1,-1,-1,-1,-1,-1,-1],"split_conditions":[8.078675E-1,2.0793824E0,4.0683255E-2,1.2621453E-1,8.623559E0,1.872379E1,6.3225585E-1,3.1271204E-2,3.177777E0,6.585105E-1,1.796138E-2,6.205237E-2,8.771256E-1,1.742405E-2,-5.326001E0,6.6472836E-2,-1.5404194E-2,-8.774846E-2,-2.9854206E-2,-1.0273957E-1,-6.0161024E-2,8.360165E-2,-5.3422745E-2,7.6758645E-2,2.8201625E-2,8.36363E-2,1.0676459E-1,5.440348E-2,-2.7473528E-2,-3.7164267E-2,-1.08502045E-1],"split_indices":[6,9,8,3,5,0,8,4,5,6,4,7,6,4,10,0,0,0,0,0,0,0,0,0,0,0,0,0,0,0,0],"split_type":[0,0,0,0,0,0,0,0,0,0,0,0,0,0,0,0,0,0,0,0,0,0,0,0,0,0,0,0,0,0,0],"sum_hessian":[3.9632144E5,2.534878E5,1.4283364E5,1.30769234E5,1.2271856E5,1.2459755E5,1.8236096E4,7.873479E4,5.203445E4,1.1870592E5,4.01264E3,8.361178E3,1.1623637E5,1.6678566E4,1.5575294E3,3.9245848E4,3.9488938E4,3.5546152E4,1.6488295E4,1.0255324E5,1.6152677E4,1.977679E3,2.0349609E3,6.048356E3,2.3128215E3,1.5411664E4,1.008247E5,1.3350219E4,3.3283481E3,5.0018127E2,1.0573481E3],"tree_param":{"num_deleted":"0","num_feature":"13","num_nodes":"31","size_leaf_vector":"0"}},{"base_weights":[5.822306E-4,7.684362E-1,-5.719527E-1,9.789391E-1,1.0652944E-1,-2.312401E-2,-8.3682156E-1,1.0128256E0,4.8894146E-1,3.9923015E-1,-5.387035E-1,-4.2761776E-1,5.069863E-1,-8.964328E-1,2.3995152E-1,7.051232E-1,1.0398574E0,6.1041516E-1,-4.5596638E-1,5.621682E-1,-5.557529E-1,-2.2566918E-1,-8.85319E-1,-7.9679316E-1,2.9739833E-2,7.412369E-1,1.6962525E-1,-7.073882E-1,-1.0395858E0,7.31371E-1,-4.4055083E-1],"categories":[],"categories_nodes":[],"categories_segments":[],"categories_sizes":[],"default_left":[1,1,1,1,1,1,1,1,1,1,1,1,1,1,1,0,0,0,0,0,0,0,0,0,0,0,0,0,0,0,0],"id":19,"left_children":[1,3,5,7,9,11,13,15,17,19,21,23,25,27,29,-1,-1,-1,-1,-1,-1,-1,-1,-1,-1,-1,-1,-1,-1,-1,-1],"loss_changes":[1.6435094E5,2.2249258E4,3.1131984E4,2.0111953E3,7.2772314E3,1.4948516E4,9.272039E3,9.417969E2,9.000022E2,4.124941E3,1.3045281E3,6.6764956E3,2.3842798E3,3.7033203E3,2.5345364E3,0E0,0E0,0E0,0E0,0E0,0E0,0E0,0E0,0E0,0E0,0E0,0E0,0E0,0E0,0E0,0E0],"parents":[2147483647,0,0,1,1,2,2,3,3,4,4,5,5,6,6,7,7,8,8,9,9,10,10,11,11,12,12,13,13,14,14],"right_children":[2,4,6,8,10,12,14,16,18,20,22,24,26,28,30,-1,-1,-1,-1,-1,-1,-1,-1,-1,-1,-1,-1,-1,-1,-1,-1],"split_conditions":[1.01356514E-1,3.420561E-2,4.1742712E-2,3.2536156E-2,1.7321957E-2,3.1436467E0,8.609665E0,1.9587051E1,1.2556994E-1,-4.7509427E0,3.1959352E-1,5.727372E-1,5.990406E-2,3.267177E0,5.261255E-2,7.051232E-2,1.0398574E-1,6.1041515E-2,-4.559664E-2,5.6216817E-2,-5.557529E-2,-2.2566918E-2,-8.8531904E-2,-7.967932E-2,2.9739833E-3,7.4123695E-2,1.6962526E-2,-7.073882E-2,-1.03958584E-1,7.31371E-2,-4.4055086E-2],"split_indices":[7,8,8,4,4,5,5,0,4,10,8,6,4,9,3,0,0,0,0,0,0,0,0,0,0,0,0,0,0,0,0],"split_type":[0,0,0,0,0,0,0,0,0,0,0,0,0,0,0,0,0,0,0,0,0,0,0,0,0,0,0,0,0,0,0],"sum_hessian":[3.7384297E5,1.5968348E5,2.141595E5,1.21153234E5,3.8530242E4,6.971199E4,1.444475E5,1.1331566E5,7.837581E3,2.6506383E4,1.2023861E4,3.954097E4,3.0171025E4,1.3687039E5,7.5771177E3,9.153085E3,1.0416257E5,6.9450996E3,8.9248126E2,2.2643404E4,3.8629775E3,6.3188506E3,5.7050103E3,2.1879371E4,1.7661598E4,1.7806012E4,1.2365013E4,5.8983727E4,7.788666E4,4.399778E3,3.1773398E3],"tree_param":{"num_deleted":"0","num_feature":"13","num_nodes":"31","size_leaf_vector":"0"}},{"base_weights":[6.254812E-4,-4.6081388E-1,8.874835E-1,-1.344213E-1,-9.410675E-1,1.0104368E0,4.006252E-1,3.6303887E-1,-5.1580596E-1,-9.8082834E-1,-2.3372172E-1,1.037296E0,7.4653655E-1,6.103962E-1,-2.1340653E-2,2.1014994E-3,7.3677903E-1,-7.183916E-1,-6.295659E-2,-6.5462136E-1,-1.0304844E0,5.5123585E-1,-6.4952624E-1,9.294889E-1,1.0537037E0,8.285921E-1,3.5802743E-1,-8.259899E-2,7.1507794E-1,1.711216E-1,-7.2892183E-1],"categories":[],"categories_nodes":[],"categories_segments":[],"categories_sizes":[],"default_left":[1,1,1,1,1,1,1,1,1,1,1,1,1,1,1,0,0,0,0,0,0,0,0,0,0,0,0,0,0,0,0],"id":20,"left_children":[1,3,5,7,9,11,13,15,17,19,21,23,25,27,29,-1,-1,-1,-1,-1,-1,-1,-1,-1,-1,-1,-1,-1,-1,-1,-1],"loss_changes":[1.4436761E5,3.6372973E4,7.226836E3,2.6211104E4,2.6404375E3,6.824531E2,2.1549111E3,8.0875596E3,7.174121E3,1.4392422E3,1.6317133E3,1.5377344E2,2.8367627E2,1.1796919E3,1.1011237E3,0E0,0E0,0E0,0E0,0E0,0E0,0E0,0E0,0E0,0E0,0E0,0E0,0E0,0E0,0E0,0E0],"parents":[2147483647,0,0,1,1,2,2,3,3,4,4,5,5,6,6,7,7,8,8,9,9,10,10,11,11,12,12,13,13,14,14],"right_children":[2,4,6,8,10,12,14,16,18,20,22,24,26,28,30,-1,-1,-1,-1,-1,-1,-1,-1,-1,-1,-1,-1,-1,-1,-1,-1],"split_conditions":[8.153739E-1,2.7222722E0,2.5756262E-2,3.7338555E-2,6.73938E0,6.948747E-2,5.200604E-2,3.7428017E0,3.6448889E0,1.5E0,8.576779E-3,8.984891E-1,4.5695543E-2,1.2813495E1,-5.0889864E0,2.1014994E-4,7.3677905E-2,-7.183916E-2,-6.2956586E-3,-6.5462135E-2,-1.03048444E-1,5.5123586E-2,-6.495263E-2,9.294889E-2,1.05370365E-1,8.285921E-2,3.5802744E-2,-8.259899E-3,7.15078E-2,1.711216E-2,-7.289218E-2],"split_indices":[6,9,8,3,5,7,7,5,5,2,4,6,3,0,10,0,0,0,0,0,0,0,0,0,0,0,0,0,0,0,0],"split_type":[0,0,0,0,0,0,0,0,0,0,0,0,0,0,0,0,0,0,0,0,0,0,0,0,0,0,0,0,0,0,0],"sum_hessian":[3.5277562E5,2.3204252E5,1.2073311E5,1.3815211E5,9.389041E4,9.638944E4,2.4343672E4,5.995269E4,7.8199414E4,8.889321E4,4.9971953E3,8.748269E4,8.906754E3,1.6259951E4,8.0837217E3,3.0499236E4,2.9453455E4,5.4028684E4,2.417073E4,1.1745745E4,7.714747E4,1.7303352E3,3.26686E3,1.1563312E4,7.5919375E4,7.3526875E3,1.5540664E3,2.1338735E3,1.4126077E4,6.3557217E3,1.7279996E3],"tree_param":{"num_deleted":"0","num_feature":"13","num_nodes":"31","size_leaf_vector":"0"}},{"base_weights":[6.89225E-4,-4.3368906E-1,8.701659E-1,-3.3319768E-2,-8.2495624E-1,9.987812E-1,3.829847E-1,-3.9907768E-1,4.2740017E-1,-8.941462E-1,5.183313E-1,1.0268855E0,7.232716E-1,4.5179105E-1,-7.6292735E-1,-7.4342513E-1,4.428634E-2,7.37897E-1,6.6069186E-2,-9.708797E-1,-5.738702E-1,9.078578E-1,-3.380205E-1,1.0458604E0,9.2031926E-1,8.061487E-1,3.491679E-1,6.4253277E-1,9.143514E-2,-4.0420538E-1,-1.0018462E0],"categories":[],"categories_nodes":[],"categories_segments":[],"categories_sizes":[],"default_left":[1,1,1,1,1,1,1,1,1,1,1,1,1,1,1,0,0,0,0,0,0,0,0,0,0,0,0,0,0,0,0],"id":21,"left_children":[1,3,5,7,9,11,13,15,17,19,21,23,25,27,29,-1,-1,-1,-1,-1,-1,-1,-1,-1,-1,-1,-1,-1,-1,-1,-1],"loss_changes":[1.2597927E5,3.48446E4,6.9625938E3,1.8526277E4,1.04560625E4,6.799844E2,1.8304565E3,9.356681E3,5.4585684E3,2.62875E3,1.8386952E3,1.6035156E2,2.5213672E2,1.5050342E3,1.1231006E2,0E0,0E0,0E0,0E0,0E0,0E0,0E0,0E0,0E0,0E0,0E0,0E0,0E0,0E0,0E0,0E0],"parents":[2147483647,0,0,1,1,2,2,3,3,4,4,5,5,6,6,7,7,8,8,9,9,10,10,11,11,12,12,13,13,14,14],"right_children":[2,4,6,8,10,12,14,16,18,20,22,24,26,28,30,-1,-1,-1,-1,-1,-1,-1,-1,-1,-1,-1,-1,-1,-1,-1,-1],"split_conditions":[8.18261E-1,1.1805457E-1,2.5756262E-2,3.1350174E0,1.0141815E1,6.948747E-2,6.0375506E-1,5.821892E-1,2.7809903E-2,4.0983734E0,4.0525965E-2,1.4797004E-2,4.478517E-2,4.680466E-2,4.5769196E0,-7.434251E-2,4.428634E-3,7.37897E-2,6.6069188E-3,-9.708797E-2,-5.738702E-2,9.078578E-2,-3.380205E-2,1.0458604E-1,9.2031926E-2,8.061487E-2,3.4916792E-2,6.425328E-2,9.143515E-3,-4.042054E-2,-1.0018462E-1],"split_indices":[6,8,8,5,5,7,8,6,4,5,3,8,3,7,9,0,0,0,0,0,0,0,0,0,0,0,0,0,0,0,0],"split_type":[0,0,0,0,0,0,0,0,0,0,0,0,0,0,0,0,0,0,0,0,0,0,0,0,0,0,0,0,0,0,0],"sum_hessian":[3.335573E5,2.2243328E5,1.1112403E5,1.0993842E5,1.1249486E5,8.791382E4,2.3210215E4,6.1285227E4,4.865319E4,1.0698463E5,5.510224E3,7.977352E4,8.140299E3,2.1896068E4,1.3141448E3,3.449406E4,2.6791172E4,2.6166719E4,2.2486475E4,8.630515E4,2.0679484E4,3.7873997E3,1.7228247E3,6.770869E4,1.2064833E4,6.663045E3,1.4772539E3,1.4317056E4,7.579013E3,5.264316E2,7.8771313E2],"tree_param":{"num_deleted":"0","num_feature":"13","num_nodes":"31","size_leaf_vector":"0"}},{"base_weights":[7.0471875E-4,5.317103E-1,-6.6720164E-1,7.9508865E-1,-1.8053952E-1,-2.4498285E-1,-8.9974993E-1,5.5581793E-2,9.124928E-1,1.57003E-1,-7.574673E-1,-5.636884E-1,1.9616935E-1,-6.434423E-1,-9.911333E-1,2.037488E-1,-8.811062E-1,9.4820976E-1,-2.665957E-1,5.587904E-1,-7.079922E-2,-4.8052725E-1,-9.674738E-1,-7.5359774E-1,-3.3836324E-2,3.87085E-1,-3.4767744E-1,-8.7157446E-1,-3.5983056E-1,-8.267384E-1,-1.033915E0],"categories":[],"categories_nodes":[],"categories_segments":[],"categories_sizes":[],"default_left":[1,1,1,1,1,1,1,1,1,1,1,1,1,1,1,0,0,0,0,0,0,0,0,0,0,0,0,0,0,0,0],"id":22,"left_children":[1,3,5,7,9,11,13,15,17,19,21,23,25,27,29,-1,-1,-1,-1,-1,-1,-1,-1,-1,-1,-1,-1,-1,-1,-1,-1],"loss_changes":[1.1190183E5,3.2973355E4,1.3720695E4,1.114093E4,9.24076E3,6.978399E3,2.1099766E3,2.4403381E3,4.6638906E3,2.7401636E3,1.01820605E3,2.8995332E3,2.161667E3,1.532249E3,4.6633203E2,0E0,0E0,0E0,0E0,0E0,0E0,0E0,0E0,0E0,0E0,0E0,0E0,0E0,0E0,0E0,0E0],"parents":[2147483647,0,0,1,1,2,2,3,3,4,4,5,5,6,6,7,7,8,8,9,9,10,10,11,11,12,12,13,13,14,14],"right_children":[2,4,6,8,10,12,14,16,18,20,22,24,26,28,30,-1,-1,-1,-1,-1,-1,-1,-1,-1,-1,-1,-1,-1,-1,-1,-1],"split_conditions":[3.3861965E-2,3.2697923E-2,6.113058E-2,1.6284172E1,-5.8780417E0,2.9645991E0,1.6826425E0,5.985116E-1,-4.8675985E0,1.715476E-2,3.878551E0,6.4471734E-1,1.2070067E-1,3.1784303E0,2.8963554E-1,2.0374881E-2,-8.811062E-2,9.4820976E-2,-2.6659569E-2,5.5879038E-2,-7.0799217E-3,-4.8052724E-2,-9.674738E-2,-7.535978E-2,-3.3836325E-3,3.87085E-2,-3.4767743E-2,-8.715745E-2,-3.5983056E-2,-8.267384E-2,-1.03391506E-1],"split_indices":[3,4,8,0,10,5,9,8,10,8,9,6,4,5,8,0,0,0,0,0,0,0,0,0,0,0,0,0,0,0,0],"split_type":[0,0,0,0,0,0,0,0,0,0,0,0,0,0,0,0,0,0,0,0,0,0,0,0,0,0,0,0,0,0,0],"sum_hessian":[3.1551344E5,1.7577069E5,1.3974277E5,1.28319945E5,4.7450734E4,4.9632035E4,9.0110734E4,1.7581135E4,1.1073881E5,2.9936531E4,1.7514205E4,2.8814814E4,2.081722E4,2.3685852E4,6.642488E4,1.5180619E4,2.4005156E3,1.07483125E5,3.2556853E3,1.0831305E4,1.9105227E4,7.554805E3,9.959399E3,2.1211701E4,7.603112E3,1.540843E4,5.4087915E3,1.3125699E4,1.0560151E4,1.372088E4,5.2704004E4],"tree_param":{"num_deleted":"0","num_feature":"13","num_nodes":"31","size_leaf_vector":"0"}},{"base_weights":[5.687583E-4,-3.8332516E-1,8.516491E-1,-9.450423E-2,-8.880727E-1,9.896541E-1,3.954791E-1,1.7068572E-1,-6.691016E-1,-5.980906E-1,-1.0066649E0,1.0145408E0,7.2756124E-1,-2.2752413E-1,5.053033E-1,4.2862144E-1,-2.7149847E-1,-7.8978616E-1,-2.7276242E-1,-1.2571977E-1,-8.648509E-1,-8.913007E-1,-1.0380163E0,8.97083E-1,1.0310407E0,7.879274E-1,3.4392586E-1,1.433138E-1,-7.149365E-1,2.0423192E-1,7.46967E-1],"categories":[],"categories_nodes":[],"categories_segments":[],"categories_sizes":[],"default_left":[1,1,1,1,1,1,1,1,1,1,1,1,1,1,1,0,0,0,0,0,0,0,0,0,0,0,0,0,0,0,0],"id":23,"left_children":[1,3,5,7,9,11,13,15,17,19,21,23,25,27,29,-1,-1,-1,-1,-1,-1,-1,-1,-1,-1,-1,-1,-1,-1,-1,-1],"loss_changes":[9.766409E4,3.0030836E4,5.8492344E3,1.9965607E4,2.5777188E3,4.645625E2,1.4768718E3,1.0225325E4,1.9788848E3,2.7423984E3,1.9153125E2,1.2533594E2,1.4307642E2,5.848795E2,1.3348975E3,0E0,0E0,0E0,0E0,0E0,0E0,0E0,0E0,0E0,0E0,0E0,0E0,0E0,0E0,0E0,0E0],"parents":[2147483647,0,0,1,1,2,2,3,3,4,4,5,5,6,6,7,7,8,8,9,9,10,10,11,11,12,12,13,13,14,14],"right_children":[2,4,6,8,10,12,14,16,18,20,22,24,26,28,30,-1,-1,-1,-1,-1,-1,-1,-1,-1,-1,-1,-1,-1,-1,-1,-1],"split_conditions":[8.30099E-1,2.7954972E0,2.3560839E-2,1.6756317E-1,4.011392E-2,6.885269E-2,1.2812642E1,8.7607E-2,3.9899693E0,3.1991512E-1,2.8185284E-1,8.996178E-1,5.821856E-2,1.6726818E0,9.0266544E-1,4.2862143E-2,-2.7149847E-2,-7.897862E-2,-2.7276242E-2,-1.2571977E-2,-8.648509E-2,-8.913007E-2,-1.0380163E-1,8.97083E-2,1.0310407E-1,7.879274E-2,3.4392588E-2,1.433138E-2,-7.149365E-2,2.0423193E-2,7.4696705E-2],"split_indices":[6,9,8,3,3,7,0,4,5,8,8,6,3,9,6,0,0,0,0,0,0,0,0,0,0,0,0,0,0,0,0],"split_type":[0,0,0,0,0,0,0,0,0,0,0,0,0,0,0,0,0,0,0,0,0,0,0,0,0,0,0,0,0,0,0],"sum_hessian":[2.9891672E5,2.0599831E5,9.2918414E4,1.3102555E5,7.4972766E4,7.133598E4,2.1582438E4,8.9650484E4,4.1375062E4,2.1763242E4,5.3209523E4,6.5147164E4,6.188809E3,3.2342632E3,1.8348174E4,5.6621785E4,3.3028695E4,3.1716469E4,9.658596E3,7.855117E3,1.3908125E4,1.1376522E4,4.1833004E4,8.031175E3,5.7115992E4,5.346472E3,8.4233704E2,1.8371843E3,1.397079E3,8.1707144E3,1.0177461E4],"tree_param":{"num_deleted":"0","num_feature":"13","num_nodes":"31","size_leaf_vector":"0"}},{"base_weights":[4.8806233E-4,-3.6071998E-1,8.306013E-1,-2.7260238E-2,-7.792326E-1,9.7851354E-1,3.6916107E-1,-3.2224616E-1,3.903704E-1,-8.640144E-1,3.188312E-1,1.0054091E0,7.0121217E-1,4.386204E-1,-5.6970024E-1,2.6103383E-1,-5.595607E-1,6.841054E-1,1.0415977E-1,-9.524161E-1,-5.6687814E-1,7.5016844E-1,-2.4293017E-1,8.787385E-1,1.0233204E0,7.961223E-1,4.47986E-1,-5.685532E-2,5.590904E-1,-1.4081294E-2,-8.7764686E-1],"categories":[],"categories_nodes":[],"categories_segments":[],"categories_sizes":[],"default_left":[1,1,1,1,1,1,1,1,1,1,1,1,1,1,1,0,0,0,0,0,0,0,0,0,0,0,0,0,0,0,0],"id":24,"left_children":[1,3,5,7,9,11,13,15,17,19,21,23,25,27,29,-1,-1,-1,-1,-1,-1,-1,-1,-1,-1,-1,-1,-1,-1,-1,-1],"loss_changes":[8.5127336E4,2.7607965E4,5.874836E3,1.3564108E4,8.167121E3,4.8545312E2,1.3629609E3,8.931865E3,3.8315688E3,2.1386133E3,1.5239474E3,1.3391406E2,1.3823633E2,1.1614497E3,2.463573E2,0E0,0E0,0E0,0E0,0E0,0E0,0E0,0E0,0E0,0E0,0E0,0E0,0E0,0E0,0E0,0E0],"parents":[2147483647,0,0,1,1,2,2,3,3,4,4,5,5,6,6,7,7,8,8,9,9,10,10,11,11,12,12,13,13,14,14],"right_children":[2,4,6,8,10,12,14,16,18,20,22,24,26,28,30,-1,-1,-1,-1,-1,-1,-1,-1,-1,-1,-1,-1,-1,-1,-1,-1],"split_conditions":[8.308669E-1,1.4880139E-1,2.3560839E-2,3.4025075E0,8.445576E0,6.885269E-2,-4.5103164E0,1.5E0,1.8391749E-2,3.8151073E0,2.684499E-2,8.996173E-1,2.4318356E-2,1.3652893E1,5.768477E0,2.6103383E-2,-5.5956073E-2,6.841054E-2,1.0415978E-2,-9.524161E-2,-5.6687813E-2,7.501685E-2,-2.4293019E-2,8.7873854E-2,1.0233205E-1,7.961223E-2,4.47986E-2,-5.685532E-3,5.5909038E-2,-1.4081293E-3,-8.776469E-2],"split_indices":[6,8,8,5,5,7,10,2,4,5,3,6,3,0,9,0,0,0,0,0,0,0,0,0,0,0,0,0,0,0,0],"split_type":[0,0,0,0,0,0,0,0,0,0,0,0,0,0,0,0,0,0,0,0,0,0,0,0,0,0,0,0,0,0,0],"sum_hessian":[2.8390384E5,1.9782473E5,8.607912E4,1.1010058E5,8.772415E4,6.51837E4,2.0895418E4,6.452484E4,4.557574E4,8.143662E4,6.287531E3,5.9418098E4,5.765601E3,1.945651E4,1.4389082E3,1.8660443E4,4.58644E4,2.2491527E4,2.308421E4,6.276196E4,1.8674658E4,3.556448E3,2.731083E3,7.3671484E3,5.205095E4,4.192203E3,1.5733978E3,3.805513E3,1.5650996E4,5.1348615E2,9.254221E2],"tree_param":{"num_deleted":"0","num_feature":"13","num_nodes":"31","size_leaf_vector":"0"}},{"base_weights":[5.306448E-4,4.7791895E-1,-5.8759254E-1,8.2399577E-1,-1.2497944E-4,-2.8349254E-1,-9.158658E-1,9.431587E-1,3.1623238E-1,2.5521478E-1,-5.9725016E-1,-3.638604E-2,-6.562131E-1,-6.8548864E-1,-1.0004323E0,4.8865995E-1,9.812621E-1,1.0859087E0,1.9689915E-1,3.8113832E-1,-6.276803E-1,-3.6518148E-1,-9.012374E-1,2.2002444E-1,-4.6589735E-1,-8.104357E-1,-3.8290083E-1,-2.9367194E-1,-8.55747E-1,-8.728515E-1,-1.0211955E0],"categories":[],"categories_nodes":[],"categories_segments":[],"categories_sizes":[],"default_left":[1,1,1,1,1,1,1,1,1,1,1,1,1,1,1,0,0,0,0,0,0,0,0,0,0,0,0,0,0,0,0],"id":25,"left_children":[1,3,5,7,9,11,13,15,17,19,21,23,25,27,29,-1,-1,-1,-1,-1,-1,-1,-1,-1,-1,-1,-1,-1,-1,-1,-1],"loss_changes":[7.5774625E4,2.4645305E4,1.207091E4,5.2281562E3,9.53835E3,5.781428E3,1.133207E3,1.2115391E3,1.5084924E3,4.872093E3,1.321585E3,4.15734E3,1.0545361E3,1.0415435E3,1.1178125E2,0E0,0E0,0E0,0E0,0E0,0E0,0E0,0E0,0E0,0E0,0E0,0E0,0E0,0E0,0E0,0E0],"parents":[2147483647,0,0,1,1,2,2,3,3,4,4,5,5,6,6,7,7,8,8,9,9,10,10,11,11,12,12,13,13,14,14],"right_children":[2,4,6,8,10,12,14,16,18,20,22,24,26,28,30,-1,-1,-1,-1,-1,-1,-1,-1,-1,-1,-1,-1,-1,-1,-1,-1],"split_conditions":[3.137857E-2,2.6650697E-2,1.8953123E0,3.7916996E-2,8.0831766E-2,2.2627507E-1,2.1284881E-1,1.9600616E1,6.9286143E-3,-4.719368E0,-5.3844585E0,9.0629846E-2,3.0414042E0,2.442719E-2,8.9054964E-2,4.8865996E-2,9.812621E-2,1.0859086E-1,1.9689916E-2,3.8113832E-2,-6.2768035E-2,-3.651815E-2,-9.012374E-2,2.2002444E-2,-4.6589736E-2,-8.104357E-2,-3.8290083E-2,-2.9367194E-2,-8.55747E-2,-8.728515E-2,-1.0211956E-1],"split_indices":[3,8,9,4,4,3,8,0,8,10,10,4,5,4,3,0,0,0,0,0,0,0,0,0,0,0,0,0,0,0,0],"split_type":[0,0,0,0,0,0,0,0,0,0,0,0,0,0,0,0,0,0,0,0,0,0,0,0,0,0,0,0,0,0,0],"sum_hessian":[2.698861E5,1.489673E5,1.2091878E5,8.641036E4,6.255694E4,6.2771496E4,5.8147285E4,6.998523E4,1.6425129E4,4.3819594E4,1.873735E4,3.7747043E4,2.5024455E4,1.5615746E4,4.253154E4,5.4145127E3,6.4570715E4,2.203685E3,1.4221444E4,3.835041E4,5.4691855E3,1.0626848E4,8.1105015E3,2.3636793E4,1.4110249E4,1.5996248E4,9.028207E3,4.730997E3,1.0884749E4,5.9590425E3,3.6572496E4],"tree_param":{"num_deleted":"0","num_feature":"13","num_nodes":"31","size_leaf_vector":"0"}},{"base_weights":[4.2306716E-4,-3.0978101E-1,8.238966E-1,-3.1274E-2,-7.878399E-1,9.7522175E-1,3.986903E-1,1.797157E-1,-6.04289E-1,-5.0237185E-1,-9.614516E-1,9.9727315E-1,7.075424E-1,-2.8408498E-1,4.9204406E-1,5.0929517E-1,-8.0002934E-2,-2.760455E-1,-7.695343E-1,-7.580689E-1,-9.413547E-2,-7.3914254E-1,-1.0013974E0,8.70725E-1,1.0123272E0,7.893524E-1,4.5536125E-1,-1.5905363E-2,-7.763069E-1,5.377781E-1,-8.469409E-1],"categories":[],"categories_nodes":[],"categories_segments":[],"categories_sizes":[],"default_left":[1,1,1,1,1,1,1,1,1,1,1,1,1,1,1,0,0,0,0,0,0,0,0,0,0,0,0,0,0,0,0],"id":26,"left_children":[1,3,5,7,9,11,13,15,17,19,21,23,25,27,29,-1,-1,-1,-1,-1,-1,-1,-1,-1,-1,-1,-1,-1,-1,-1,-1],"loss_changes":[6.563283E4,2.4848559E4,4.523301E3,1.4257817E4,3.404457E3,3.0535547E2,1.1764434E3,7.3780117E3,1.7212344E3,2.7122222E3,3.786289E2,9.0375E1,8.1128174E1,2.9308948E2,9.94667E2,0E0,0E0,0E0,0E0,0E0,0E0,0E0,0E0,0E0,0E0,0E0,0E0,0E0,0E0,0E0,0E0],"parents":[2147483647,0,0,1,1,2,2,3,3,4,4,5,5,6,6,7,7,8,8,9,9,10,10,11,11,12,12,13,13,14,14],"right_children":[2,4,6,8,10,12,14,16,18,20,22,24,26,28,30,-1,-1,-1,-1,-1,-1,-1,-1,-1,-1,-1,-1,-1,-1,-1,-1],"split_conditions":[8.4785223E-1,-5.7893257E0,2.189902E-2,1.8559524E-1,3.2001975E-1,6.880656E-2,1.2193849E1,2.086894E-2,2.5150135E-2,5.9598505E-1,1.434795E-1,8.996164E-1,2.8988676E-2,2.1116018E0,6.4825004E-1,5.0929517E-2,-8.000294E-3,-2.760455E-2,-7.695343E-2,-7.580689E-2,-9.413547E-3,-7.391425E-2,-1.0013974E-1,8.70725E-2,1.0123272E-1,7.893524E-2,4.5536127E-2,-1.5905363E-3,-7.763069E-2,5.377781E-2,-8.469409E-2],"split_indices":[6,10,8,3,8,7,0,4,8,6,7,6,3,9,8,0,0,0,0,0,0,0,0,0,0,0,0,0,0,0,0],"split_type":[0,0,0,0,0,0,0,0,0,0,0,0,0,0,0,0,0,0,0,0,0,0,0,0,0,0,0,0,0,0,0],"sum_hessian":[2.5693344E5,1.8663012E5,7.030331E4,1.1792852E5,6.870161E4,5.184949E4,1.8453826E4,8.619235E4,3.1736176E4,2.598259E4,4.2719016E4,4.79007E4,3.9487856E3,2.2194028E3,1.6234424E4,3.7986734E4,4.8205617E4,1.0627792E4,2.1108383E4,1.597553E4,1.000706E4,6.5097812E3,3.6209234E4,5.0986787E3,4.2802023E4,2.9799358E3,9.6884985E2,1.4373287E3,7.820742E2,1.5698817E4,5.3560626E2],"tree_param":{"num_deleted":"0","num_feature":"13","num_nodes":"31","size_leaf_vector":"0"}},{"base_weights":[3.8686921E-4,4.4452065E-1,-5.298079E-1,8.2484114E-1,5.0977655E-2,-1.79927E-1,-8.194461E-1,9.4726205E-1,3.6356696E-1,-2.7846518E-1,4.2721534E-1,-4.7787607E-1,1.3555224E-1,-9.172405E-1,-4.759658E-1,-1.3801388E-2,9.636538E-1,6.0813427E-1,2.6500829E-2,-7.297494E-1,1.2994133E-2,5.48072E-1,-3.1870443E-1,-7.490358E-1,-1.2704013E-1,3.9088362E-1,-1.3537961E-1,-7.875044E-1,-1.0003849E0,-1.7050639E-2,-6.917685E-1],"categories":[],"categories_nodes":[],"categories_segments":[],"categories_sizes":[],"default_left":[1,1,1,1,1,1,1,1,1,1,1,1,1,1,1,0,0,0,0,0,0,0,0,0,0,0,0,0,0,0,0],"id":27,"left_children":[1,3,5,7,9,11,13,15,17,19,21,23,25,27,29,-1,-1,-1,-1,-1,-1,-1,-1,-1,-1,-1,-1,-1,-1,-1,-1],"loss_changes":[5.7790508E4,1.998841E4,1.133668E4,3.8347812E3,8.13539E3,4.7626377E3,2.0554375E3,8.455078E2,1.1743334E3,4.6027812E3,2.7624673E3,2.4788608E3,1.7025447E3,5.1308594E2,1.3434993E3,0E0,0E0,0E0,0E0,0E0,0E0,0E0,0E0,0E0,0E0,0E0,0E0,0E0,0E0,0E0,0E0],"parents":[2147483647,0,0,1,1,2,2,3,3,4,4,5,5,6,6,7,7,8,8,9,9,10,10,11,11,12,12,13,13,14,14],"right_children":[2,4,6,8,10,12,14,16,18,20,22,24,26,28,30,-1,-1,-1,-1,-1,-1,-1,-1,-1,-1,-1,-1,-1,-1,-1,-1],"split_conditions":[2.8170453E-2,2.2053756E-2,8.394317E-2,2.9685197E-2,3.930931E0,2.7394361E0,4.25668E0,1.5516508E1,1.5E0,5.7866085E-1,-5.0004225E0,5.727372E-1,2.2066187E-2,3.2163906E0,1.1413767E0,-1.3801389E-3,9.6365385E-2,6.0813427E-2,2.6500828E-3,-7.297494E-2,1.2994133E-3,5.4807197E-2,-3.1870443E-2,-7.490358E-2,-1.2704014E-2,3.9088365E-2,-1.3537961E-2,-7.875044E-2,-1.0003849E-1,-1.7050639E-3,-6.917685E-2],"split_indices":[3,8,8,4,5,5,5,0,2,6,10,6,8,9,9,0,0,0,0,0,0,0,0,0,0,0,0,0,0,0,0],"split_type":[0,0,0,0,0,0,0,0,0,0,0,0,0,0,0,0,0,0,0,0,0,0,0,0,0,0,0,0,0,0,0],"sum_hessian":[2.4541645E5,1.3354695E5,1.118695E5,6.7913836E4,6.563312E4,5.066642E4,6.120308E4,5.3669137E4,1.4244699E4,3.4992816E4,3.0640299E4,2.6056904E4,2.460952E4,4.7638074E4,1.3565005E4,9.0002527E2,5.2769113E4,8.254571E3,5.9901284E3,1.373091E4,2.1261906E4,2.6368281E4,4.272019E3,1.4696727E4,1.1360178E4,1.2669292E4,1.1940227E4,1.8610033E4,2.9028041E4,4.3389956E3,9.226009E3],"tree_param":{"num_deleted":"0","num_feature":"13","num_nodes":"31","size_leaf_vector":"0"}},{"base_weights":[3.3029565E-4,-2.701355E-1,8.014195E-1,-5.4313388E-2,-8.397147E-1,9.617422E-1,3.85913E-1,1.2646031E-1,-5.9035635E-1,-5.80636E-1,-9.852815E-1,9.838733E-1,6.71688E-1,-2.290025E-1,4.8328155E-1,2.1574311E-2,8.178906E-1,-7.635623E-1,-3.0367664E-1,-2.8342035E-1,-9.5414126E-1,-8.854306E-1,-1.0161134E0,1.0077236E0,8.852871E-1,7.613388E-1,4.419182E-1,7.459884E-2,-6.3348526E-1,5.2673775E-1,-6.787137E-1],"categories":[],"categories_nodes":[],"categories_segments":[],"categories_sizes":[],"default_left":[1,1,1,1,1,1,1,1,1,1,1,1,1,1,1,0,0,0,0,0,0,0,0,0,0,0,0,0,0,0,0],"id":28,"left_children":[1,3,5,7,9,11,13,15,17,19,21,23,25,27,29,-1,-1,-1,-1,-1,-1,-1,-1,-1,-1,-1,-1,-1,-1,-1,-1],"loss_changes":[5.0780594E4,2.153873E4,3.9403438E3,1.2313303E4,1.8152305E3,2.7334766E2,9.863491E2,6.8912373E3,1.5909746E3,1.9227842E3,9.4E1,9.235547E1,6.2061157E1,2.766444E2,7.184426E2,0E0,0E0,0E0,0E0,0E0,0E0,0E0,0E0,0E0,0E0,0E0,0E0,0E0,0E0,0E0,0E0],"parents":[2147483647,0,0,1,1,2,2,3,3,4,4,5,5,6,6,7,7,8,8,9,9,10,10,11,11,12,12,13,13,14,14],"right_children":[2,4,6,8,10,12,14,16,18,20,22,24,26,28,30,-1,-1,-1,-1,-1,-1,-1,-1,-1,-1,-1,-1,-1,-1,-1,-1],"split_conditions":[8.559457E-1,3.2573028E0,2.1900117E-2,1.9274345E-1,5.599544E-2,6.988253E-2,1.2398325E1,9.038382E0,3.0414042E0,6.1127114E-1,3.4160486E-1,1.1729198E-2,1.4666514E-2,1.6712897E0,6.011984E-1,2.157431E-3,8.178906E-2,-7.635623E-2,-3.0367663E-2,-2.8342037E-2,-9.5414124E-2,-8.854306E-2,-1.0161134E-1,1.0077236E-1,8.8528715E-2,7.613388E-2,4.419182E-2,7.459884E-3,-6.3348524E-2,5.2673776E-2,-6.787137E-2],"split_indices":[6,9,8,3,3,7,0,5,5,8,8,8,8,9,8,0,0,0,0,0,0,0,0,0,0,0,0,0,0,0,0],"split_type":[0,0,0,0,0,0,0,0,0,0,0,0,0,0,0,0,0,0,0,0,0,0,0,0,0,0,0,0,0,0,0],"sum_hessian":[2.3436936E5,1.7521386E5,5.915549E4,1.27067266E5,4.8146598E4,4.2684434E4,1.6471055E4,9.50228E4,3.2044473E4,1.7322006E4,3.0824592E4,3.965628E4,3.0281553E3,2.2513923E3,1.4219663E4,8.250786E4,1.2514938E4,1.9974578E4,1.2069895E4,9.647107E3,7.6748975E3,7.279436E3,2.3545156E4,3.1923916E4,7.732364E3,2.1765886E3,8.5156665E2,1.286541E3,9.648513E2,1.3707575E4,5.120881E2],"tree_param":{"num_deleted":"0","num_feature":"13","num_nodes":"31","size_leaf_vector":"0"}},{"base_weights":[3.3519758E-4,4.8478734E-1,-4.0926644E-1,7.7062297E-1,5.103232E-3,-9.321042E-2,-7.7153724E-1,4.8570845E-1,9.5605516E-1,4.1528535E-1,-2.0529065E-1,1.76398E-1,-5.203725E-1,-5.5613244E-1,-9.612737E-1,7.560179E-1,2.3138048E-1,9.909655E-1,8.157623E-1,1.2155076E0,2.765554E-1,-5.4539365E-1,1.2523997E-1,4.8047658E-2,8.180898E-1,-3.340257E-1,-8.880465E-1,-3.67174E-1,-7.6787525E-1,-8.133196E-1,-1.00299E0],"categories":[],"categories_nodes":[],"categories_segments":[],"categories_sizes":[],"default_left":[1,1,1,1,1,1,1,1,1,1,1,1,1,1,1,0,0,0,0,0,0,0,0,0,0,0,0,0,0,0,0],"id":29,"left_children":[1,3,5,7,9,11,13,15,17,19,21,23,25,27,29,-1,-1,-1,-1,-1,-1,-1,-1,-1,-1,-1,-1,-1,-1,-1,-1],"loss_changes":[4.457003E4,1.4109123E4,1.393518E4,3.4061758E3,3.316047E3,7.48602E3,2.3171172E3,1.7475952E3,1.9048828E2,1.4458687E3,2.855127E3,3.2820776E3,1.7229697E3,1.0623916E3,1.8526758E2,0E0,0E0,0E0,0E0,0E0,0E0,0E0,0E0,0E0,0E0,0E0,0E0,0E0,0E0,0E0,0E0],"parents":[2147483647,0,0,1,1,2,2,3,3,4,4,5,5,6,6,7,7,8,8,9,9,10,10,11,11,12,12,13,13,14,14],"right_children":[2,4,6,8,10,12,14,16,18,20,22,24,26,28,30,-1,-1,-1,-1,-1,-1,-1,-1,-1,-1,-1,-1,-1,-1,-1,-1],"split_conditions":[3.089606E-2,2.4676722E-2,8.146869E-2,6.174707E0,1.5E0,5.004772E-2,2.5082312E0,1.5E0,1.4403766E-2,7.7437153E-3,2.6476622E0,1.1277575E1,4.101942E0,2.5870788E-1,2.6900458E-1,7.5601794E-2,2.3138048E-2,9.909655E-2,8.157623E-2,1.2155076E-1,2.765554E-2,-5.4539364E-2,1.2523997E-2,4.804766E-3,8.180898E-2,-3.3402573E-2,-8.8804655E-2,-3.67174E-2,-7.6787524E-2,-8.133196E-2,-1.00299E-1],"split_indices":[8,4,3,5,2,4,9,2,8,8,5,5,9,3,8,0,0,0,0,0,0,0,0,0,0,0,0,0,0,0,0],"split_type":[0,0,0,0,0,0,0,0,0,0,0,0,0,0,0,0,0,0,0,0,0,0,0,0,0,0,0,0,0,0,0],"sum_hessian":[2.2460864E5,1.0290208E5,1.2170656E5,6.447933E4,3.8422746E4,6.499992E4,5.6706645E4,2.5422127E4,3.9057203E4,1.3026134E4,2.5396613E4,3.9849207E4,2.5150715E4,2.6558797E4,3.0147846E4,1.2322902E4,1.3099225E4,3.1269957E4,7.787246E3,1.9234614E3,1.1102673E4,1.2516735E4,1.2879878E4,3.320805E4,6.641156E3,1.6692451E4,8.458262E3,1.4035928E4,1.252287E4,6.635253E3,2.3512594E4],"tree_param":{"num_deleted":"0","num_feature":"13","num_nodes":"31","size_leaf_vector":"0"}},{"base_weights":[3.5570373E-4,-2.3253193E-1,7.800134E-1,-3.4324847E-2,-7.8753877E-1,9.53583E-1,3.719557E-1,-2.5817367E-1,3.218187E-1,-3.431813E-1,-8.967071E-1,9.8206717E-1,7.414271E-1,-2.4693858E-2,5.3152484E-1,2.4718E-1,-4.5885175E-1,6.163486E-1,9.7983554E-2,-1.2869415E-1,-9.582525E-1,-6.913064E-1,-9.8473406E-1,1.003439E0,8.860904E-1,8.057948E-1,4.9169913E-1,2.3911993E-1,-4.192951E-1,2.814023E-1,7.226078E-1],"categories":[],"categories_nodes":[],"categories_segments":[],"categories_sizes":[],"default_left":[1,1,1,1,1,1,1,1,1,1,1,1,1,1,1,0,0,0,0,0,0,0,0,0,0,0,0,0,0,0,0],"id":30,"left_children":[1,3,5,7,9,11,13,15,17,19,21,23,25,27,29,-1,-1,-1,-1,-1,-1,-1,-1,-1,-1,-1,-1,-1,-1,-1,-1],"loss_changes":[3.9085203E4,1.8233428E4,3.5062695E3,9.736856E3,2.1155254E3,2.0917773E2,9.352616E2,7.6057686E3,3.1075713E3,1.134938E3,6.323965E2,6.191797E1,6.575879E1,4.4149615E2,5.0342383E2,0E0,0E0,0E0,0E0,0E0,0E0,0E0,0E0,0E0,0E0,0E0,0E0,0E0,0E0,0E0,0E0],"parents":[2147483647,0,0,1,1,2,2,3,3,4,4,5,5,6,6,7,7,8,8,9,9,10,10,11,11,12,12,13,13,14,14],"right_children":[2,4,6,8,10,12,14,16,18,20,22,24,26,28,30,-1,-1,-1,-1,-1,-1,-1,-1,-1,-1,-1,-1,-1,-1,-1,-1],"split_conditions":[8.6474013E-1,-5.452157E0,2.125632E-2,3.971126E0,1.5E0,4.7919482E-2,1.5096312E1,1.5E0,9.6141435E-3,6.409535E-1,3.2026082E-1,1.1729198E-2,1.5329679E-2,1.7063756E0,9.2183995E-1,2.4718E-2,-4.5885175E-2,6.1634865E-2,9.798355E-3,-1.2869415E-2,-9.582525E-2,-6.9130644E-2,-9.847341E-2,1.003439E-1,8.860904E-2,8.057948E-2,4.9169913E-2,2.3911994E-2,-4.192951E-2,2.814023E-2,7.226078E-2],"split_indices":[6,10,8,5,2,7,0,2,4,8,8,8,8,9,6,0,0,0,0,0,0,0,0,0,0,0,0,0,0,0,0],"split_type":[0,0,0,0,0,0,0,0,0,0,0,0,0,0,0,0,0,0,0,0,0,0,0,0,0,0,0,0,0,0,0],"sum_hessian":[2.1525733E5,1.6574822E5,4.9509117E4,1.2213261E5,4.3615605E4,3.4733633E4,1.4775484E4,7.499554E4,4.7137074E4,8.602846E3,3.501276E4,3.0619076E4,4.114557E3,4.2390635E3,1.0536421E4,2.1316201E4,5.3679336E4,2.0353494E4,2.6783578E4,6.3794263E3,2.2234194E3,1.0506322E4,2.4506438E4,2.5034926E4,5.58415E3,3.2695898E3,8.449672E2,2.5407913E3,1.6982721E3,4.5643193E3,5.9721016E3],"tree_param":{"num_deleted":"0","num_feature":"13","num_nodes":"31","size_leaf_vector":"0"}},{"base_weights":[4.0676503E-4,4.295651E-1,-3.8420632E-1,1.5745838E-1,8.992729E-1,-1.0215761E-1,-7.527418E-1,-1.3925853E-1,3.616505E-1,4.528797E-1,9.4723254E-1,9.074939E-2,-6.079185E-1,-5.4437023E-1,-9.581189E-1,-5.5546135E-1,1.0871677E-1,2.6102957E-1,7.982102E-1,5.656514E-1,-7.21137E-2,7.725444E-1,9.860368E-1,2.194943E-1,-5.26431E-1,-4.4642326E-1,-8.971222E-1,-7.3432046E-1,-3.4005964E-1,-8.183808E-1,-9.979682E-1],"categories":[],"categories_nodes":[],"categories_segments":[],"categories_sizes":[],"default_left":[1,1,1,1,1,1,1,1,1,1,1,1,1,1,1,0,0,0,0,0,0,0,0,0,0,0,0,0,0,0,0],"id":31,"left_children":[1,3,5,7,9,11,13,15,17,19,21,23,25,27,29,-1,-1,-1,-1,-1,-1,-1,-1,-1,-1,-1,-1,-1,-1,-1,-1],"loss_changes":[3.417285E4,1.2506143E4,1.134894E4,3.7539575E3,7.679883E2,6.034425E3,2.0251289E3,2.6068633E3,1.6119995E3,2.0630981E2,2.1892969E2,3.55777E3,7.971953E2,9.116831E2,1.3191992E2,0E0,0E0,0E0,0E0,0E0,0E0,0E0,0E0,0E0,0E0,0E0,0E0,0E0,0E0,0E0,0E0],"parents":[2147483647,0,0,1,1,2,2,3,3,4,4,5,5,6,6,7,7,8,8,9,9,10,10,11,11,12,12,13,13,14,14],"right_children":[2,4,6,8,10,12,14,16,18,20,22,24,26,28,30,-1,-1,-1,-1,-1,-1,-1,-1,-1,-1,-1,-1,-1,-1,-1,-1],"split_conditions":[3.3135824E-2,8.662867E-1,9.345356E-2,2.493207E0,2.0635967E1,1.0512146E-1,2.669598E0,5.2260447E-1,8.648772E0,7.855335E-2,9.157627E-1,5.0834E0,4.037377E0,2.960946E0,2.8185117E-1,-5.5546135E-2,1.0871678E-2,2.6102958E-2,7.982102E-2,5.6565143E-2,-7.21137E-3,7.725444E-2,9.860368E-2,2.194943E-2,-5.26431E-2,-4.4642325E-2,-8.9712225E-2,-7.343205E-2,-3.4005966E-2,-8.183808E-2,-9.9796824E-2],"split_indices":[8,6,3,5,0,4,9,6,5,7,6,9,9,5,8,0,0,0,0,0,0,0,0,0,0,0,0,0,0,0,0],"split_type":[0,0,0,0,0,0,0,0,0,0,0,0,0,0,0,0,0,0,0,0,0,0,0,0,0,0,0,0,0,0,0],"sum_hessian":[2.0703103E5,9.784909E4,1.0918194E5,6.1957688E4,3.589141E4,6.184886E4,4.733308E4,2.5256754E4,3.6700934E4,3.483016E3,3.2408393E4,4.477256E4,1.70763E4,2.3497064E4,2.3836012E4,9.429314E3,1.582744E4,2.9827668E4,6.873264E3,2.867074E3,6.159421E2,5.894329E3,2.6514064E4,3.7045457E4,7.727102E3,1.0959124E4,6.1171772E3,1.217511E4,1.1321954E4,5.293828E3,1.8542184E4],"tree_param":{"num_deleted":"0","num_feature":"13","num_nodes":"31","size_leaf_vector":"0"}},{"base_weights":[3.1338824E-4,-1.959899E-1,7.6862025E-1,-3.298342E-2,-7.928644E-1,7.3879205E-2,8.696662E-1,1.0031625E-1,-5.6637794E-1,-5.5061597E-1,-9.843169E-1,2.933026E-1,-2.916782E-1,9.233959E-1,3.6232927E-1,2.5404197E-1,-2.597191E-1,-7.390733E-1,-3.246774E-1,-1.65827E-1,-8.3130014E-1,-9.9540085E-1,-5.7278425E-1,4.433671E-1,-7.420812E-2,-6.630183E-1,-1.44614E-1,9.727772E-1,7.6109666E-1,5.203785E-1,-1.1548772E-1],"categories":[],"categories_nodes":[],"categories_segments":[],"categories_sizes":[],"default_left":[1,1,1,1,1,1,1,1,1,1,1,1,1,1,1,0,0,0,0,0,0,0,0,0,0,0,0,0,0,0,0],"id":32,"left_children":[1,3,5,7,9,11,13,15,17,19,21,23,25,27,29,-1,-1,-1,-1,-1,-1,-1,-1,-1,-1,-1,-1,-1,-1,-1,-1],"loss_changes":[3.0049564E4,1.5439951E4,2.8463203E3,8.862989E3,1.5783027E3,4.1313724E2,9.645781E2,5.519786E3,1.0400708E3,1.623145E3,8.61582E1,1.7753159E2,1.05415344E2,2.5578516E2,2.561788E2,0E0,0E0,0E0,0E0,0E0,0E0,0E0,0E0,0E0,0E0,0E0,0E0,0E0,0E0,0E0,0E0],"parents":[2147483647,0,0,1,1,2,2,3,3,4,4,5,5,6,6,7,7,8,8,9,9,10,10,11,11,12,12,13,13,14,14],"right_children":[2,4,6,8,10,12,14,16,18,20,22,24,26,28,30,-1,-1,-1,-1,-1,-1,-1,-1,-1,-1,-1,-1,-1,-1,-1,-1],"split_conditions":[8.7716866E-1,3.6077158E0,1.7371218E1,2.2628644E-1,5.972791E-1,1.7981166E0,7.6691926E-2,1.2078074E-1,2.8692238E0,2.3335715E-1,8.826822E0,5.313746E-2,1.1674894E1,1.4666559E-2,1.5E0,2.5404198E-2,-2.597191E-2,-7.390733E-2,-3.246774E-2,-1.6582701E-2,-8.313002E-2,-9.9540085E-2,-5.7278425E-2,4.433671E-2,-7.420812E-3,-6.630183E-2,-1.44614E-2,9.727772E-2,7.610967E-2,5.2037846E-2,-1.15487715E-2],"split_indices":[6,9,0,3,8,9,8,4,5,7,5,7,0,8,2,0,0,0,0,0,0,0,0,0,0,0,0,0,0,0,0],"split_type":[0,0,0,0,0,0,0,0,0,0,0,0,0,0,0,0,0,0,0,0,0,0,0,0,0,0,0,0,0,0,0],"sum_hessian":[1.992377E5,1.5869236E5,4.054534E4,1.24651164E5,3.4041195E4,5.1485103E3,3.539683E4,9.972891E4,2.4922262E4,1.5028822E4,1.9012371E4,3.2174531E3,1.9310569E3,3.2006365E4,3.3904639E3,6.9888586E4,2.9840316E4,1.4534957E4,1.0387305E4,6.339548E3,8.689274E3,1.8512352E4,5.0001935E2,2.2844458E3,9.3300714E2,5.4681915E2,1.3842378E3,2.4536018E4,7.470346E3,2.547672E3,8.4279175E2],"tree_param":{"num_deleted":"0","num_feature":"13","num_nodes":"31","size_leaf_vector":"0"}},{"base_weights":[1.9959248E-4,-2.5750563E-1,5.458612E-1,-2.99635E-2,-7.305308E-1,7.591917E-1,6.9833525E-2,3.2135037E-1,-2.487124E-1,-2.7803817E-1,-8.2507807E-1,9.3312514E-1,4.870751E-1,4.4980282E-1,-1.7284867E-1,1.0077599E0,2.3103112E-1,-3.893921E-2,-4.826347E-1,2.4290128E-2,-9.0729374E-1,-4.4029823E-1,-9.064978E-1,9.608435E-1,6.677623E-1,3.1276214E-1,8.145342E-1,5.387423E-1,1.1209661E-1,-3.5392074E-3,-6.521445E-1],"categories":[],"categories_nodes":[],"categories_segments":[],"categories_sizes":[],"default_left":[1,1,1,1,1,1,1,1,1,1,1,1,1,1,1,0,0,0,0,0,0,0,0,0,0,0,0,0,0,0,0],"id":33,"left_children":[1,3,5,7,9,11,13,15,17,19,21,23,25,27,29,-1,-1,-1,-1,-1,-1,-1,-1,-1,-1,-1,-1,-1,-1,-1,-1],"loss_changes":[2.7041035E4,1.4058261E4,6.2642285E3,6.7775386E3,1.8146934E3,2.0156367E3,1.7604541E3,2.0978281E3,2.6669897E3,1.3951779E3,1.0989258E3,1.9049023E2,9.4797363E2,2.2343164E2,9.454387E2,0E0,0E0,0E0,0E0,0E0,0E0,0E0,0E0,0E0,0E0,0E0,0E0,0E0,0E0,0E0,0E0],"parents":[2147483647,0,0,1,1,2,2,3,3,4,4,5,5,6,6,7,7,8,8,9,9,10,10,11,11,12,12,13,13,14,14],"right_children":[2,4,6,8,10,12,14,16,18,20,22,24,26,28,30,-1,-1,-1,-1,-1,-1,-1,-1,-1,-1,-1,-1,-1,-1,-1,-1],"split_conditions":[5.4902277E0,1.7069231E-1,1.5354073E-2,1.5E0,1.5E0,2.0685365E-2,2.6110066E-2,9.595642E-3,7.041386E-2,6.283385E-1,1.1945496E0,2.122579E-2,1.2776016E1,1.5920267E-1,6.0301956E1,1.00775994E-1,2.3103112E-2,-3.8939212E-3,-4.826347E-2,2.429013E-3,-9.072938E-2,-4.4029824E-2,-9.0649776E-2,9.608435E-2,6.677623E-2,3.1276215E-2,8.145342E-2,5.3874232E-2,1.1209661E-2,-3.5392074E-4,-6.521445E-2],"split_indices":[5,8,4,2,2,8,8,8,4,8,9,3,5,4,0,0,0,0,0,0,0,0,0,0,0,0,0,0,0,0,0],"split_type":[0,0,0,0,0,0,0,0,0,0,0,0,0,0,0,0,0,0,0,0,0,0,0,0,0,0,0,0,0,0,0],"sum_hessian":[1.9229684E5,1.3061193E5,6.1684914E4,8.819029E4,4.242164E4,4.2595336E4,1.9089582E4,3.3840883E4,5.434941E4,7.3325938E3,3.5089047E4,2.5984164E4,1.661117E4,7.4399473E3,1.1649634E4,3.9338896E3,2.9906992E4,2.8654361E4,2.5695047E4,4.9535854E3,2.3790083E3,6.129267E3,2.895978E4,2.3524322E4,2.4598418E3,1.0841814E4,5.7693564E3,5.8885283E3,1.5514192E3,8.609402E3,3.0402317E3],"tree_param":{"num_deleted":"0","num_feature":"13","num_nodes":"31","size_leaf_vector":"0"}},{"base_weights":[1.8307375E-4,-1.8978919E-1,6.665993E-1,-9.385032E-4,-6.988664E-1,8.05933E-1,1.1857303E-1,3.276409E-1,-2.0421463E-1,-8.3032227E-1,-3.642665E-1,9.457315E-1,5.428816E-1,3.2898208E-1,-3.4276646E-1,8.691102E-1,2.2966813E-1,-4.5458093E-1,2.8243132E-3,-9.011077E-1,-3.5683572E-1,7.358762E-1,-5.17117E-1,9.6556205E-1,6.954297E-1,6.404654E-1,-3.0994708E-2,4.6191925E-1,-2.1174207E-1,-1.22260876E-1,-7.92712E-1],"categories":[],"categories_nodes":[],"categories_segments":[],"categories_sizes":[],"default_left":[1,1,1,1,1,1,1,1,1,1,1,1,1,1,1,0,0,0,0,0,0,0,0,0,0,0,0,0,0,0,0],"id":34,"left_children":[1,3,5,7,9,11,13,15,17,19,21,23,25,27,29,-1,-1,-1,-1,-1,-1,-1,-1,-1,-1,-1,-1,-1,-1,-1,-1],"loss_changes":[2.3485916E4,1.3878696E4,3.142211E3,7.0332256E3,1.7178438E3,1.2060469E3,8.099713E2,2.1348096E3,3.3721165E3,9.395781E2,1.853411E3,1.0566406E2,6.3777026E2,4.1200446E2,2.5922702E2,0E0,0E0,0E0,0E0,0E0,0E0,0E0,0E0,0E0,0E0,0E0,0E0,0E0,0E0,0E0,0E0],"parents":[2147483647,0,0,1,1,2,2,3,3,4,4,5,5,6,6,7,7,8,8,9,9,10,10,11,11,12,12,13,13,14,14],"right_children":[2,4,6,8,10,12,14,16,18,20,22,24,26,28,30,-1,-1,-1,-1,-1,-1,-1,-1,-1,-1,-1,-1,-1,-1,-1,-1],"split_conditions":[7.472162E0,2.6158935E-1,2.6038881E-2,1.5E0,3.8151069E0,2.1471513E-2,-6.338839E0,1.1518585E-2,2.4934096E0,7.0386213E-1,3.5437852E-1,2.122579E-2,-5.14272E0,1.8798703E-1,6.035829E1,8.691102E-2,2.2966813E-2,-4.5458093E-2,2.8243134E-4,-9.011077E-2,-3.5683572E-2,7.358762E-2,-5.1711705E-2,9.655621E-2,6.954297E-2,6.404654E-2,-3.0994709E-3,4.6191927E-2,-2.1174207E-2,-1.2226088E-2,-7.92712E-2],"split_indices":[5,8,4,2,5,8,10,8,5,6,6,3,10,4,0,0,0,0,0,0,0,0,0,0,0,0,0,0,0,0,0],"split_type":[0,0,0,0,0,0,0,0,0,0,0,0,0,0,0,0,0,0,0,0,0,0,0,0,0,0,0,0,0,0,0],"sum_hessian":[1.8550988E5,1.4435886E5,4.115101E4,1.0529787E5,3.9060996E4,3.2808977E4,8.342035E3,4.0244797E4,6.505307E4,2.8042375E4,1.1018621E4,2.1421785E4,1.1387192E4,5.7292905E3,2.6127446E3,6.1649424E3,3.4079855E4,2.9444943E4,3.5608125E4,2.4394527E4,3.6478474E3,1.3436775E3,9.674944E3,1.9846557E4,1.57523E3,9.732185E3,1.6550078E3,4.5988164E3,1.1304744E3,1.754289E3,8.584557E2],"tree_param":{"num_deleted":"0","num_feature":"13","num_nodes":"31","size_leaf_vector":"0"}},{"base_weights":[1.8216508E-4,4.1383582E-1,-2.8091654E-1,1.8874262E-1,8.951389E-1,-6.858997E-2,-6.865259E-1,4.5585737E-1,2.4201132E-2,4.3637136E-1,9.2952675E-1,6.318396E-2,-5.951626E-1,-4.8026687E-1,-9.363547E-1,5.2312154E-1,-2.856746E-1,-2.0525369E-1,1.8627146E-1,6.1315966E-1,4.598563E-2,7.642441E-1,9.714652E-1,-2.2309717E-2,6.965616E-1,-4.7281048E-1,-9.127312E-1,-3.0109808E-1,-6.7546153E-1,-7.911283E-1,-9.8523325E-1],"categories":[],"categories_nodes":[],"categories_segments":[],"categories_sizes":[],"default_left":[1,1,1,1,1,1,1,1,1,1,1,1,1,1,1,0,0,0,0,0,0,0,0,0,0,0,0,0,0,0,0],"id":35,"left_children":[1,3,5,7,9,11,13,15,17,19,21,23,25,27,29,-1,-1,-1,-1,-1,-1,-1,-1,-1,-1,-1,-1,-1,-1,-1,-1],"loss_changes":[2.0870084E4,7.8673594E3,9.203338E3,2.1747524E3,3.6465625E2,4.8674087E3,1.8916777E3,9.409302E2,1.138751E3,1.1146326E2,1.484668E2,3.0382004E3,5.451172E2,7.032964E2,1.1708789E2,0E0,0E0,0E0,0E0,0E0,0E0,0E0,0E0,0E0,0E0,0E0,0E0,0E0,0E0,0E0,0E0],"parents":[2147483647,0,0,1,1,2,2,3,3,4,4,5,5,6,6,7,7,8,8,9,9,10,10,11,11,12,12,13,13,14,14],"right_children":[2,4,6,8,10,12,14,16,18,20,22,24,26,28,30,-1,-1,-1,-1,-1,-1,-1,-1,-1,-1,-1,-1,-1,-1,-1,-1],"split_conditions":[2.6271839E-2,8.794393E-1,1.1791822E-1,2.026737E-2,2.0764332E1,1.5862423E-1,2.6800447E0,3.201361E-1,2.2326844E0,4.296735E-2,9.253732E-1,1.1151572E1,-5.063073E0,2.8307664E-1,2.807332E-1,5.2312154E-2,-2.8567461E-2,-2.052537E-2,1.8627146E-2,6.1315965E-2,4.598563E-3,7.642441E-2,9.714652E-2,-2.2309718E-3,6.9656156E-2,-4.728105E-2,-9.127312E-2,-3.0109808E-2,-6.754615E-2,-7.911283E-2,-9.8523326E-2],"split_indices":[8,6,3,4,0,4,9,3,5,7,6,5,10,3,8,0,0,0,0,0,0,0,0,0,0,0,0,0,0,0,0],"split_type":[0,0,0,0,0,0,0,0,0,0,0,0,0,0,0,0,0,0,0,0,0,0,0,0,0,0,0,0,0,0,0],"sum_hessian":[1.7948314E5,7.261918E4,1.0686396E5,4.9480023E4,2.3139152E4,7.014562E4,3.6718344E4,1.8860438E4,3.0619588E4,1.6144524E3,2.1524701E4,5.6106047E4,1.4039566E4,2.0114615E4,1.660373E4,1.7292164E4,1.5682727E3,1.267475E4,1.7944838E4,1.1108345E3,5.0361798E2,4.360164E3,1.7164537E4,4.9434336E4,6.671711E3,1.0136636E4,3.902931E3,1.0489171E4,9.625445E3,4.185395E3,1.2418335E4],"tree_param":{"num_deleted":"0","num_feature":"13","num_nodes":"31","size_leaf_vector":"0"}},{"base_weights":[1.872045E-4,3.0840203E-1,-3.4324738E-1,8.0012107E-1,1.0390797E-1,-1.7754333E-1,-8.508513E-1,-4.270501E-2,8.534465E-1,-1.3908926E-1,3.6482805E-1,1.3829008E-1,-3.225057E-1,-6.727956E-1,-9.799145E-1,1.3578852E-1,-3.9018768E-1,9.504057E-1,5.795346E-1,-6.2127554E-1,6.125204E-2,4.124792E-1,-6.3106143E-1,2.4296685E-1,-4.7904938E-1,-4.8580623E-1,-1.2884359E-1,-8.29567E-1,-2.8073528E-1,-9.9348336E-1,-8.316614E-1],"categories":[],"categories_nodes":[],"categories_segments":[],"categories_sizes":[],"default_left":[1,1,1,1,1,1,1,1,1,1,1,1,1,1,1,0,0,0,0,0,0,0,0,0,0,0,0,0,0,0,0],"id":36,"left_children":[1,3,5,7,9,11,13,15,17,19,21,23,25,27,29,-1,-1,-1,-1,-1,-1,-1,-1,-1,-1,-1,-1,-1,-1,-1,-1],"loss_changes":[1.8409678E4,9.216636E3,6.9188975E3,1.210041E3,4.1046426E3,2.8394116E3,4.645625E2,9.947465E1,6.7191797E2,3.2382412E3,1.4817261E3,1.2609126E3,1.344228E3,5.2286206E2,2.2779297E1,0E0,0E0,0E0,0E0,0E0,0E0,0E0,0E0,0E0,0E0,0E0,0E0,0E0,0E0,0E0,0E0],"parents":[2147483647,0,0,1,1,2,2,3,3,4,4,5,5,6,6,7,7,8,8,9,9,10,10,11,11,12,12,13,13,14,14],"right_children":[2,4,6,8,10,12,14,16,18,20,22,24,26,28,30,-1,-1,-1,-1,-1,-1,-1,-1,-1,-1,-1,-1,-1,-1,-1,-1],"split_conditions":[2.2842355E-2,1.4256093E-2,3.0845656E0,2.2369026E1,3.7948875E0,8.91846E-3,5.395107E-1,-6.4661837E0,1.2869449E-2,5.4968333E-1,-4.4045243E0,3.2953247E-1,3.19165E0,3.3807132E0,5.5599003E0,1.3578852E-2,-3.901877E-2,9.5040575E-2,5.795346E-2,-6.2127557E-2,6.125204E-3,4.124792E-2,-6.310614E-2,2.4296684E-2,-4.790494E-2,-4.8580624E-2,-1.2884359E-2,-8.29567E-2,-2.8073529E-2,-9.934834E-2,-8.3166145E-2],"split_indices":[3,8,9,0,5,4,8,10,4,6,10,3,5,5,5,0,0,0,0,0,0,0,0,0,0,0,0,0,0,0,0],"split_type":[0,0,0,0,0,0,0,0,0,0,0,0,0,0,0,0,0,0,0,0,0,0,0,0,0,0,0,0,0,0,0],"sum_hessian":[1.7391762E5,9.165874E4,8.225889E4,2.6921459E4,6.473728E4,6.2015633E4,2.0243258E4,1.6019701E3,2.531949E4,3.3520137E4,3.1217143E4,1.9509598E4,4.2506035E4,8.509607E3,1.1733651E4,1.0587333E3,5.4323676E2,1.8698225E4,6.621264E3,9.838499E3,2.3681639E4,2.9792234E4,1.424908E3,1.6681646E4,2.827952E3,2.305988E4,1.9446152E4,6.078077E3,2.4315298E3,1.0744555E4,9.890962E2],"tree_param":{"num_deleted":"0","num_feature":"13","num_nodes":"31","size_leaf_vector":"0"}},{"base_weights":[1.1549377E-4,-1.4220522E-1,6.7168456E-1,1.2585885E-2,-6.3449985E-1,9.020123E-1,3.8399124E-1,3.016388E-1,-1.6637109E-1,-1.9732709E-1,-7.659616E-1,9.503802E-1,6.074078E-1,4.7495738E-1,-4.1993597E-1,9.198877E-1,2.2916234E-1,-1.9936431E-2,-4.4740096E-1,1.3305527E0,-4.1134942E-1,-3.021685E-1,-8.8351285E-1,9.6635526E-1,7.367452E-1,7.0335877E-1,2.9475677E-1,5.771297E-1,-1.6949163E-1,-1.1534419E-1,-9.245294E-1],"categories":[],"categories_nodes":[],"categories_segments":[],"categories_sizes":[],"default_left":[1,1,1,1,1,1,1,1,1,1,1,1,1,1,1,0,0,0,0,0,0,0,0,0,0,0,0,0,0,0,0],"id":37,"left_children":[1,3,5,7,9,11,13,15,17,19,21,23,25,27,29,-1,-1,-1,-1,-1,-1,-1,-1,-1,-1,-1,-1,-1,-1,-1,-1],"loss_changes":[1.6119037E4,1.0604173E4,1.9538066E3,5.4764937E3,1.9129697E3,2.3279199E2,9.592372E2,1.8137605E3,2.6908784E3,2.5175303E3,1.3949932E3,4.729297E1,6.9163025E1,7.758518E2,2.0485864E2,0E0,0E0,0E0,0E0,0E0,0E0,0E0,0E0,0E0,0E0,0E0,0E0,0E0,0E0,0E0,0E0],"parents":[2147483647,0,0,1,1,2,2,3,3,4,4,5,5,6,6,7,7,8,8,9,9,10,10,11,11,12,12,13,13,14,14],"right_children":[2,4,6,8,10,12,14,16,18,20,22,24,26,28,30,-1,-1,-1,-1,-1,-1,-1,-1,-1,-1,-1,-1,-1,-1,-1,-1],"split_conditions":[8.577419E0,2.894287E-1,1.8665735E-2,1.5E0,1.427113E0,1.2869069E-2,1.3868356E-1,9.007357E-3,1.19146265E-1,3.371274E-1,1.5E0,1.6986154E-2,1.0617097E-1,-5.1428165E0,6.562282E1,9.198877E-2,2.2916233E-2,-1.9936431E-3,-4.4740096E-2,1.3305527E-1,-4.1134942E-2,-3.0216848E-2,-8.835129E-2,9.663553E-2,7.367452E-2,7.033588E-2,2.9475678E-2,5.7712972E-2,-1.6949164E-2,-1.1534419E-2,-9.2452936E-2],"split_indices":[5,8,8,2,9,4,4,8,4,6,2,3,4,10,0,0,0,0,0,0,0,0,0,0,0,0,0,0,0,0,0],"split_type":[0,0,0,0,0,0,0,0,0,0,0,0,0,0,0,0,0,0,0,0,0,0,0,0,0,0,0,0,0,0,0],"sum_hessian":[1.6864564E5,1.391561E5,2.9489547E4,1.0586894E5,3.328716E4,1.6376421E4,1.3113125E4,4.0481758E4,6.538718E4,7.6961865E3,2.5590975E4,1.4065012E4,2.31141E3,1.178054E4,1.3325847E3,4.246445E3,3.6235312E4,4.2988484E4,2.2398697E4,9.4496655E2,6.75122E3,5.175368E3,2.0415607E4,1.3083164E4,9.818473E2,1.7676713E3,5.4373865E2,1.0168508E4,1.6120327E3,8.3174207E2,5.008426E2],"tree_param":{"num_deleted":"0","num_feature":"13","num_nodes":"31","size_leaf_vector":"0"}},{"base_weights":[7.742141E-5,3.3164865E-1,-2.6384217E-1,7.584103E-1,1.1894151E-1,-6.493571E-2,-6.5123147E-1,9.1222876E-1,4.316647E-1,1.9594492E-1,-6.48673E-1,1.6460761E-1,-2.3209265E-1,-4.7466522E-1,-9.1136765E-1,7.5055605E-1,9.6653885E-1,5.08616E-1,-1.9380832E-1,2.6391068E-1,-3.8090712E-1,-4.0350625E-1,-8.7235826E-1,8.909652E-1,1.053964E-1,-1.9876666E-2,-3.89276E-1,-6.704403E-1,-2.3080868E-1,-7.0980215E-1,-9.5683867E-1],"categories":[],"categories_nodes":[],"categories_segments":[],"categories_sizes":[],"default_left":[1,1,1,1,1,1,1,1,1,1,1,1,1,1,1,0,0,0,0,0,0,0,0,0,0,0,0,0,0,0,0],"id":38,"left_children":[1,3,5,7,9,11,13,15,17,19,21,23,25,27,29,-1,-1,-1,-1,-1,-1,-1,-1,-1,-1,-1,-1,-1,-1,-1,-1],"loss_changes":[1.4345374E4,6.5951016E3,7.0332993E3,1.2142246E3,2.8662166E3,2.3141973E3,1.4219102E3,1.4354297E2,3.724967E2,1.7278535E3,2.4208997E2,1.0929321E3,1.1641078E3,8.8059375E2,1.1406543E2,0E0,0E0,0E0,0E0,0E0,0E0,0E0,0E0,0E0,0E0,0E0,0E0,0E0,0E0,0E0,0E0],"parents":[2147483647,0,0,1,1,2,2,3,3,4,4,5,5,6,6,7,7,8,8,9,9,10,10,11,11,12,12,13,13,14,14],"right_children":[2,4,6,8,10,12,14,16,18,20,22,24,26,28,30,-1,-1,-1,-1,-1,-1,-1,-1,-1,-1,-1,-1,-1,-1,-1,-1],"split_conditions":[1.3162176E-2,1.7630791E-2,-5.965723E0,5.563528E-2,2.5453168E-1,1.785382E-2,4.5110825E-1,9.1064054E-1,3.584872E-1,6.7027104E-1,1.7295753E0,6.70256E-3,2.5055094E-2,5.8317184E-1,-5.3480296E0,7.505561E-2,9.6653886E-2,5.0861597E-2,-1.9380832E-2,2.6391068E-2,-3.8090713E-2,-4.0350627E-2,-8.723583E-2,8.9096524E-2,1.053964E-2,-1.9876666E-3,-3.89276E-2,-6.7044035E-2,-2.3080869E-2,-7.098021E-2,-9.5683865E-2],"split_indices":[4,8,10,7,3,3,8,6,3,8,9,8,8,6,10,0,0,0,0,0,0,0,0,0,0,0,0,0,0,0,0],"split_type":[0,0,0,0,0,0,0,0,0,0,0,0,0,0,0,0,0,0,0,0,0,0,0,0,0,0,0,0,0,0,0],"sum_hessian":[1.6392989E5,7.265308E4,9.127681E4,2.4165812E4,4.8487266E4,6.031105E4,3.0965758E4,1.6429623E4,7.73619E3,4.406738E4,4.4198833E3,2.5413176E4,3.4897875E4,1.8447455E4,1.2518303E4,4.135049E3,1.2294573E4,6.8888496E3,8.4734033E2,3.942303E4,4.6443506E3,2.1100256E3,2.3098577E3,1.9144258E3,2.349875E4,1.4849896E4,2.0047979E4,1.0231535E4,8.215921E3,2.3072493E3,1.0211054E4],"tree_param":{"num_deleted":"0","num_feature":"13","num_nodes":"31","size_leaf_vector":"0"}},{"base_weights":[1.0591552E-5,-2.358182E-1,3.4388405E-1,-5.1992524E-1,3.03815E-2,7.5009614E-1,1.5022393E-1,-3.285762E-1,-8.76974E-1,9.912493E-2,-8.734634E-1,5.0781834E-1,9.4115525E-1,3.539664E-1,-1.09920256E-1,-4.6489793E-1,-8.463075E-2,-7.3805785E-1,-9.7851956E-1,2.7050242E-1,-7.289743E-2,-5.858425E-1,-9.222702E-1,4.177163E-1,8.225358E-1,8.1707823E-1,9.736458E-1,2.3872691E-1,7.619399E-1,2.8181044E-2,-5.7935387E-1],"categories":[],"categories_nodes":[],"categories_segments":[],"categories_sizes":[],"default_left":[1,1,1,1,1,1,1,1,1,1,1,1,1,1,1,0,0,0,0,0,0,0,0,0,0,0,0,0,0,0,0],"id":39,"left_children":[1,3,5,7,9,11,13,15,17,19,21,23,25,27,29,-1,-1,-1,-1,-1,-1,-1,-1,-1,-1,-1,-1,-1,-1,-1,-1],"loss_changes":[1.2946975E4,7.162374E3,5.109143E3,3.1295605E3,3.0380115E3,9.7008203E2,2.3311702E3,9.918943E2,2.2475293E2,1.3395857E3,4.7973633E1,2.6186108E2,4.6458008E1,1.1594246E3,1.252378E3,0E0,0E0,0E0,0E0,0E0,0E0,0E0,0E0,0E0,0E0,0E0,0E0,0E0,0E0,0E0,0E0],"parents":[2147483647,0,0,1,1,2,2,3,3,4,4,5,5,6,6,7,7,8,8,9,9,10,10,11,11,12,12,13,13,14,14],"right_children":[2,4,6,8,10,12,14,16,18,20,22,24,26,28,30,-1,-1,-1,-1,-1,-1,-1,-1,-1,-1,-1,-1,-1,-1,-1,-1],"split_conditions":[4.2497096E0,5.9496856E-1,1.4808893E-2,2.5084054E0,5.9746313E-1,8.8868463E-1,1.845127E-2,2.5479438E0,4.333561E-1,1.5E0,6.8612945E-1,1.0918742E1,9.34801E-1,1.3100155E1,5.573062E1,-4.6489794E-2,-8.463075E-3,-7.380579E-2,-9.7851954E-2,2.7050242E-2,-7.2897426E-3,-5.858425E-2,-9.222702E-2,4.177163E-2,8.225358E-2,8.170783E-2,9.736458E-2,2.3872692E-2,7.619399E-2,2.8181046E-3,-5.7935387E-2],"split_indices":[5,6,8,9,8,6,3,5,8,2,8,5,6,5,0,0,0,0,0,0,0,0,0,0,0,0,0,0,0,0,0],"split_type":[0,0,0,0,0,0,0,0,0,0,0,0,0,0,0,0,0,0,0,0,0,0,0,0,0,0,0,0,0,0,0],"sum_hessian":[1.596494E5,9.4702586E4,6.4946824E4,4.5809992E4,4.8892594E4,2.096622E4,4.39806E4,2.9827043E4,1.5982947E4,4.543765E4,3.4549458E3,9.245661E3,1.1720561E4,2.4663793E4,1.9316809E4,1.9133785E4,1.0693258E4,6.7529966E3,9.22995E3,2.27612E4,2.267645E4,5.031081E2,2.9518376E3,7.189632E3,2.0560286E3,2.437652E3,9.282908E3,1.9232744E4,5.43105E3,1.4926551E4,4.3902583E3],"tree_param":{"num_deleted":"0","num_feature":"13","num_nodes":"31","size_leaf_vector":"0"}},{"base_weights":[-5.5941742E-5,-1.07646234E-1,6.7571974E-1,-1.1271534E-2,-7.088908E-1,8.947891E-1,4.1436732E-1,2.678788E-1,-1.6048466E-1,-2.715102E-1,-8.901767E-1,9.3347687E-1,5.1172537E-1,4.926423E-1,-4.4186828E-1,8.805168E-1,2.0330667E-1,-3.667887E-1,3.81773E-3,-9.209475E-2,-9.317532E-1,-6.9841635E-1,-9.7105014E-1,9.4994396E-1,7.0555586E-1,7.1419257E-1,2.855194E-1,5.9736454E-1,-1.3130276E-1],"categories":[],"categories_nodes":[],"categories_segments":[],"categories_sizes":[],"default_left":[1,1,1,1,1,1,1,1,1,1,1,1,1,1,0,0,0,0,0,0,0,0,0,0,0,0,0,0,0],"id":40,"left_children":[1,3,5,7,9,11,13,15,17,19,21,23,25,27,-1,-1,-1,-1,-1,-1,-1,-1,-1,-1,-1,-1,-1,-1,-1],"loss_changes":[1.1299333E4,7.7683496E3,1.2216924E3,4.8128306E3,1.4682881E3,1.7159082E2,6.526627E2,1.5920264E3,2.5523057E3,6.429656E2,2.0237598E2,3.8905273E1,4.8676422E1,5.8291235E2,0E0,0E0,0E0,0E0,0E0,0E0,0E0,0E0,0E0,0E0,0E0,0E0,0E0,0E0,0E0],"parents":[2147483647,0,0,1,1,2,2,3,3,4,4,5,5,6,6,7,7,8,8,9,9,10,10,11,11,12,12,13,13],"right_children":[2,4,6,8,10,12,14,16,18,20,22,24,26,28,-1,-1,-1,-1,-1,-1,-1,-1,-1,-1,-1,-1,-1,-1,-1],"split_conditions":[9.706577E0,4.335698E0,1.9215692E-2,1.5E0,1.5E0,2.7000688E-2,1.5204959E-1,8.724058E-3,2.8110957E0,6.765679E-1,-4.9556503E0,1.8225921E-2,5.50018E1,-5.159292E0,-4.4186827E-2,8.8051684E-2,2.0330667E-2,-3.667887E-2,3.81773E-4,-9.2094755E-3,-9.317532E-2,-6.984164E-2,-9.710502E-2,9.4994396E-2,7.055559E-2,7.141926E-2,2.855194E-2,5.9736457E-2,-1.3130276E-2],"split_indices":[5,9,8,2,2,4,4,8,5,8,10,3,0,10,0,0,0,0,0,0,0,0,0,0,0,0,0,0,0],"split_type":[0,0,0,0,0,0,0,0,0,0,0,0,0,0,0,0,0,0,0,0,0,0,0,0,0,0,0,0,0],"sum_hessian":[1.5540734E5,1.3406388E5,2.1343477E4,1.1554409E5,1.8519777E4,1.1609665E4,9.733812E3,4.0247543E4,7.529655E4,5.427526E3,1.3092251E4,1.0543393E4,1.0662726E3,8.918893E3,8.149191E2,3.8364062E3,3.6411137E4,3.3380965E4,4.1915586E4,4.2686855E3,1.15884E3,3.8865117E3,9.205739E3,9.830015E3,7.1337823E2,5.6152167E2,5.0475092E2,7.6371284E3,1.2817639E3],"tree_param":{"num_deleted":"0","num_feature":"13","num_nodes":"29","size_leaf_vector":"0"}},{"base_weights":[-3.9615672E-5,3.0177286E-1,-2.2079983E-1,6.9152194E-1,1.0520475E-1,-9.169491E-2,-7.27705E-1,4.5302248E-1,9.2275035E-1,1.6786422E-1,-6.0104984E-1,-1.9102773E-2,-5.035437E-1,-5.6119466E-1,-9.582129E-1,5.124749E-1,-9.131784E-2,7.382833E-1,9.5622724E-1,-2.5770384E-1,2.6381838E-1,-2.1173738E-1,-7.5249785E-1,2.1606246E-1,-1.2688488E-1,-7.3116875E-1,-3.0555865E-1,-3.595195E-1,-7.9985076E-1,-9.7794473E-1,-7.9946005E-1],"categories":[],"categories_nodes":[],"categories_segments":[],"categories_sizes":[],"default_left":[1,1,1,1,1,1,1,1,1,1,1,1,1,1,1,0,0,0,0,0,0,0,0,0,0,0,0,0,0,0,0],"id":41,"left_children":[1,3,5,7,9,11,13,15,17,19,21,23,25,27,29,-1,-1,-1,-1,-1,-1,-1,-1,-1,-1,-1,-1,-1,-1,-1,-1],"loss_changes":[1.012093E4,4.9161846E3,5.7413936E3,1.1860107E3,1.8878698E3,2.0904897E3,6.829883E2,3.4283716E2,6.674414E1,1.6000901E3,2.0481482E2,1.5067975E3,4.719724E2,4.974839E2,2.2610352E1,0E0,0E0,0E0,0E0,0E0,0E0,0E0,0E0,0E0,0E0,0E0,0E0,0E0,0E0,0E0,0E0],"parents":[2147483647,0,0,1,1,2,2,3,3,4,4,5,5,6,6,7,7,8,8,9,9,10,10,11,11,12,12,13,13,14,14],"right_children":[2,4,6,8,10,12,14,16,18,20,22,24,26,28,30,-1,-1,-1,-1,-1,-1,-1,-1,-1,-1,-1,-1,-1,-1,-1,-1],"split_conditions":[9.633763E-3,1.9655442E-2,-5.442254E0,8.930263E-1,2.585544E-1,2.9567525E-1,5.671215E-1,3.027917E-1,3.3089264E1,1.248251E1,1.0228537E0,1.8086731E-2,2.352596E0,4.6376914E-2,5.521182E0,5.124749E-2,-9.131785E-3,7.382833E-2,9.5622726E-2,-2.5770385E-2,2.6381839E-2,-2.1173738E-2,-7.524978E-2,2.1606246E-2,-1.2688488E-2,-7.3116876E-2,-3.0555865E-2,-3.5951953E-2,-7.9985075E-2,-9.779447E-2,-7.9946004E-2],"split_indices":[4,8,10,6,3,3,8,3,0,0,9,8,5,3,5,0,0,0,0,0,0,0,0,0,0,0,0,0,0,0,0],"split_type":[0,0,0,0,0,0,0,0,0,0,0,0,0,0,0,0,0,0,0,0,0,0,0,0,0,0,0,0,0,0,0],"sum_hessian":[1.5189961E5,6.4169656E4,8.772995E4,2.1512611E4,4.2657043E4,6.992242E4,1.7807533E4,1.0591265E4,1.0921347E4,3.9181586E4,3.4754585E3,5.944563E4,1.0476792E4,1.0341009E4,7.466525E3,9.548449E3,1.0428148E3,1.6810948E3,9.240252E3,7.208657E3,3.1972928E4,9.740257E2,2.5014329E3,1.8682363E4,4.0763266E4,4.872335E3,5.604457E3,5.606105E3,4.734904E3,6.6364956E3,8.30029E2],"tree_param":{"num_deleted":"0","num_feature":"13","num_nodes":"31","size_leaf_vector":"0"}},{"base_weights":[-1.2350988E-4,-9.241139E-2,6.4977247E-1,-9.414074E-3,-6.777628E-1,7.696521E-1,1.7398341E-1,2.4041183E-1,-1.4314519E-1,-2.557513E-1,-8.684855E-1,-3.3325547E-1,8.223833E-1,4.3052933E-1,-6.0184294E-1,8.3005726E-1,1.8246146E-1,6.853709E-4,-3.531332E-1,8.997208E-3,-6.980178E-1,-6.587287E-1,-9.626415E-1,8.64584E-1,8.22636E-2,5.508564E-1,-9.686538E-2],"categories":[],"categories_nodes":[],"categories_segments":[],"categories_sizes":[],"default_left":[1,1,1,1,1,1,1,1,1,1,1,0,1,1,0,0,0,0,0,0,0,0,0,0,0,0,0],"id":42,"left_children":[1,3,5,7,9,11,13,15,17,19,21,-1,23,25,-1,-1,-1,-1,-1,-1,-1,-1,-1,-1,-1,-1,-1],"loss_changes":[8.914048E3,6.322648E3,1.0539609E3,3.8081147E3,1.300564E3,8.587471E2,7.407859E2,1.3578179E3,2.2422969E3,5.891884E2,2.1919238E2,0E0,4.399453E2,1.7752502E2,0E0,0E0,0E0,0E0,0E0,0E0,0E0,0E0,0E0,0E0,0E0,0E0,0E0],"parents":[2147483647,0,0,1,1,2,2,3,3,4,4,5,5,6,6,7,7,8,8,9,9,10,10,12,12,13,13],"right_children":[2,4,6,8,10,12,14,16,18,20,22,-1,24,26,-1,-1,-1,-1,-1,-1,-1,-1,-1,-1,-1,-1,-1],"split_conditions":[9.982444E0,4.4592094E0,1.8420212E-2,1.5E0,1.5E0,1.883422E1,7.570906E1,8.747983E-3,-6.468428E0,-4.4962225E0,-4.941787E0,-3.332555E-2,-5.0828056E0,-5.95835E0,-6.0184296E-2,8.300573E-2,1.8246146E-2,6.853709E-5,-3.531332E-2,8.997209E-4,-6.980178E-2,-6.587287E-2,-9.6264146E-2,8.645841E-2,8.22636E-3,5.508564E-2,-9.686538E-3],"split_indices":[5,9,3,2,2,0,0,8,10,10,10,0,10,10,0,0,0,0,0,0,0,0,0,0,0,0,0],"split_type":[0,0,0,0,0,0,0,0,0,0,0,0,0,0,0,0,0,0,0,0,0,0,0,0,0,0,0],"sum_hessian":[1.4862112E5,1.3014138E5,1.847975E4,1.1398097E5,1.6160412E4,1.4760165E4,3.719584E3,3.9740363E4,7.42406E4,5.0309004E3,1.1129512E4,6.732552E2,1.408691E4,2.7955967E3,9.2398724E2,3.5549907E3,3.6185375E4,4.4061695E4,3.017891E4,3.1476443E3,1.883256E3,3.450539E3,7.678973E3,1.332686E4,7.6005E2,2.2762234E3,5.193734E2],"tree_param":{"num_deleted":"0","num_feature":"13","num_nodes":"27","size_leaf_vector":"0"}},{"base_weights":[-7.159222E-5,2.746853E-1,-1.9831109E-1,6.9332284E-1,1.14713065E-1,-8.7342374E-2,-6.931611E-1,8.8249224E-1,3.882231E-1,1.6867365E-1,-5.3755265E-1,-2.5274372E-1,6.961855E-2,-5.229616E-1,-9.558044E-1,3.866388E-1,9.0848583E-1,4.4331902E-1,-2.1148966E-1,-1.5138295E-1,2.7731577E-1,-3.762275E-1,-9.336137E-1,-5.35165E-1,-3.641285E-2,1.6196164E-1,-2.695416E-1,-3.4626707E-1,-7.9817164E-1,-9.7635037E-1,-7.959751E-1],"categories":[],"categories_nodes":[],"categories_segments":[],"categories_sizes":[],"default_left":[1,1,1,1,1,1,1,1,1,1,1,1,1,1,1,0,0,0,0,0,0,0,0,0,0,0,0,0,0,0,0],"id":43,"left_children":[1,3,5,7,9,11,13,15,17,19,21,23,25,27,29,-1,-1,-1,-1,-1,-1,-1,-1,-1,-1,-1,-1,-1,-1,-1,-1],"loss_changes":[7.9383267E3,4.0906934E3,4.6488916E3,9.74353E2,1.5556548E3,1.7953698E3,6.9270166E2,1.34E2,2.13716E2,1.4194282E3,2.1543036E2,2.057221E3,1.1113473E3,4.574021E2,1.9243164E1,0E0,0E0,0E0,0E0,0E0,0E0,0E0,0E0,0E0,0E0,0E0,0E0,0E0,0E0,0E0,0E0],"parents":[2147483647,0,0,1,1,2,2,3,3,4,4,5,5,6,6,7,7,8,8,9,9,10,10,11,11,12,12,13,13,14,14],"right_children":[2,4,6,8,10,12,14,16,18,20,22,24,26,28,30,-1,-1,-1,-1,-1,-1,-1,-1,-1,-1,-1,-1,-1,-1,-1,-1],"split_conditions":[9.633763E-3,1.6797807E-2,-5.4096317E0,4.7987595E-2,2.585544E-1,3.0333185E0,5.915698E-1,2.4864553E1,-4.841551E0,1.3685077E1,3.2068286E0,5.4950356E-1,5.378475E1,7.045293E-2,5.521182E0,3.866388E-2,9.084859E-2,4.4331905E-2,-2.1148967E-2,-1.51382955E-2,2.7731577E-2,-3.762275E-2,-9.336137E-2,-5.3516503E-2,-3.641285E-3,1.6196165E-2,-2.695416E-2,-3.4626707E-2,-7.981717E-2,-9.763504E-2,-7.959751E-2],"split_indices":[4,8,10,7,3,5,8,0,11,0,9,6,0,3,5,0,0,0,0,0,0,0,0,0,0,0,0,0,0,0,0],"split_type":[0,0,0,0,0,0,0,0,0,0,0,0,0,0,0,0,0,0,0,0,0,0,0,0,0,0,0,0,0,0,0],"sum_hessian":[1.4574184E5,6.1082312E4,8.465952E4,1.6886926E4,4.4195387E4,6.915327E4,1.5506252E4,1.0422699E4,6.4642266E3,4.081924E4,3.3761484E3,3.367102E4,3.5482254E4,9.410807E3,6.095446E3,5.1995294E2,9.902746E3,5.9205625E3,5.436642E2,1.0344436E4,3.0474805E4,2.40037E3,9.7577844E2,1.4603971E4,1.9067047E4,2.7889348E4,7.5929067E3,5.732559E3,3.6782473E3,5.3966064E3,6.9883936E2],"tree_param":{"num_deleted":"0","num_feature":"13","num_nodes":"31","size_leaf_vector":"0"}},{"base_weights":[-1.7408303E-4,-7.620689E-2,6.532882E-1,2.6935501E-2,-4.7893906E-1,7.656311E-1,1.8097542E-1,1.4408277E-1,-1.9133241E-1,-6.9240826E-1,-1.6722393E-1,-2.327588E-1,8.284011E-1,4.860335E-1,-4.758149E-1,1.8041635E-1,-4.6409658E-1,-4.3405706E-1,-5.4380845E-2,-7.948059E-1,-2.2057474E-1,7.9573154E-1,-3.6468536E-1,8.730062E-1,1.4917968E-1,6.302544E-1,1.3069215E-1],"categories":[],"categories_nodes":[],"categories_segments":[],"categories_sizes":[],"default_left":[1,1,1,1,1,1,1,1,1,1,1,0,1,1,0,0,0,0,0,0,0,0,0,0,0,0,0],"id":44,"left_children":[1,3,5,7,9,11,13,15,17,19,21,-1,23,25,-1,-1,-1,-1,-1,-1,-1,-1,-1,-1,-1,-1,-1],"loss_changes":[7.10397E3,5.319173E3,7.904404E2,2.606716E3,1.7371973E3,7.544868E2,5.7411426E2,1.466029E3,1.1835703E3,7.485122E2,2.0184279E3,0E0,3.4296387E2,1.00175385E2,0E0,0E0,0E0,0E0,0E0,0E0,0E0,0E0,0E0,0E0,0E0,0E0,0E0],"parents":[2147483647,0,0,1,1,2,2,3,3,4,4,5,5,6,6,7,7,8,8,9,9,10,10,12,12,13,13],"right_children":[2,4,6,8,10,12,14,16,18,20,22,-1,24,26,-1,-1,-1,-1,-1,-1,-1,-1,-1,-1,-1,-1,-1],"split_conditions":[1.0826654E1,2.9335886E-1,1.8420212E-2,9.0428665E-2,3.8151069E0,2.101966E1,7.1730286E1,3.7542796E-1,4.917676E-1,7.0386213E-1,3.637398E-1,-2.327588E-2,-5.159767E0,-6.34373E0,-4.758149E-2,1.8041635E-2,-4.640966E-2,-4.3405708E-2,-5.4380847E-3,-7.948059E-2,-2.2057474E-2,7.9573154E-2,-3.6468536E-2,8.730062E-2,1.4917969E-2,6.302544E-2,1.3069215E-2],"split_indices":[5,8,3,4,5,0,0,3,6,6,6,0,10,10,0,0,0,0,0,0,0,0,0,0,0,0,0],"split_type":[0,0,0,0,0,0,0,0,0,0,0,0,0,0,0,0,0,0,0,0,0,0,0,0,0,0,0],"sum_hessian":[1.4295039E5,1.28051945E5,1.4898445E4,1.01944266E5,2.6107676E4,1.2035175E4,2.8632708E3,6.633938E4,3.5604883E4,1.5495086E4,1.061259E4,7.117475E2,1.1323427E4,1.9553385E3,9.079322E2,6.2600254E4,3.7391323E3,1.2842119E4,2.2762764E4,1.273142E4,2.763666E3,1.8053676E3,8.807222E3,1.0625363E4,6.980639E2,1.3902926E3,5.6504584E2],"tree_param":{"num_deleted":"0","num_feature":"13","num_nodes":"27","size_leaf_vector":"0"}},{"base_weights":[-2.523373E-4,2.5589338E-1,-1.8313204E-1,1.3290425E-1,7.9612684E-1,-6.7613535E-2,-5.913772E-1,1.9301024E-1,-2.7129498E-1,3.2623512E-1,8.699648E-1,1.39780175E-2,-5.012424E-1,-3.702872E-1,-8.389636E-1,2.5981674E-1,-7.110897E-2,-3.32881E-1,2.1135576E-1,4.950712E-1,6.5016067E-3,9.122884E-1,6.419345E-1,8.849056E-1,-2.7196651E-2,-6.663246E-1,-2.7708074E-1,-4.1668397E-1,3.6199227E-1,-6.6376144E-1,-9.385939E-1],"categories":[],"categories_nodes":[],"categories_segments":[],"categories_sizes":[],"default_left":[1,1,1,1,1,1,1,1,1,